{"name": "1k", "layers": [{"w": [[-0.30348044633865356, 0.44850799441337585, -0.0749087780714035, -0.5086987614631653, 0.18501608073711395, -0.5091355443000793, -0.19794899225234985, -0.5587329268455505, 0.08474033325910568, 0.45002055168151855, 0.051938384771347046, 0.6631644368171692, -0.6495866775512695, -0.15440087020397186, -0.4165048599243164, -0.09429199993610382, 0.0007784601184539497, -0.018602680414915085, -0.19516493380069733, -0.18582886457443237, 0.3964231014251709, 0.013003712520003319, 0.31488409638404846, 0.23270030319690704, 0.1597217321395874, -0.09933612495660782, -0.22159238159656525, -0.07448630034923553, -0.40033185482025146, 0.39597561955451965, 0.40012863278388977, -0.13142962753772736, -0.21921560168266296, -0.16907291114330292, 0.1883493810892105, 0.11244214326143265, -0.2101108580827713, -0.03918977454304695, 0.4183315932750702, 0.05797162279486656, -0.2648826539516449, 0.6663433909416199, 0.3524884581565857, -0.17737801373004913, 0.13697504997253418, -0.1456497758626938, 0.1843053698539734, -0.08966530114412308], [0.0007216186495497823, 0.10576403886079788, -0.0539238341152668, -0.19655029475688934, 0.3758207857608795, 0.12993483245372772, 0.5907278656959534, -0.4282967746257782, 0.5636473894119263, 0.3838660717010498, 0.16085028648376465, 0.006059413310140371, 0.35263630747795105, -0.05260654538869858, -0.3602127730846405, 0.2797618508338928, 0.27576616406440735, -0.597676694393158, -0.5671881437301636, 0.1587359756231308, 0.24680985510349274, 0.3130379021167755, -0.26072248816490173, -0.18122076988220215, 0.2658301591873169, -0.18880988657474518, 0.11327262967824936, -0.23736916482448578, -0.2682431638240814, -0.2455574870109558, -0.14019775390625, -0.16613465547561646, 0.15464520454406738, -0.37835049629211426, -0.03593868389725685, 0.3990342319011688, -0.19250673055648804, -0.3267388641834259, 0.3344983160495758, 0.5175661444664001, -0.5539823770523071, 0.15165841579437256, -0.03320658951997757, 0.06628897786140442, 0.04494147747755051, -0.010536610148847103, 0.10967085510492325, 0.225860595703125], [0.4868781864643097, 0.057072192430496216, -0.5916663408279419, -0.17650927603244781, -0.21456395089626312, 0.16938163340091705, -0.9855040311813354, 0.3508409261703491, 0.06936236470937729, 0.2892361283302307, -0.30040088295936584, -0.0033859368413686752, 0.45100638270378113, -0.10707494616508484, -0.9590111970901489, -0.24440698325634003, 0.14380180835723877, 0.18755488097667694, -0.1899576634168625, -0.16301380097866058, -0.07848769426345825, 0.023731160908937454, 0.3125413954257965, 0.15400464832782745, 0.5054109692573547, -0.3411373794078827, 0.3613114655017853, -0.12985599040985107, -0.377022385597229, -0.13706642389297485, 0.06167248636484146, 0.013437372632324696, -0.135233536362648, -0.20919428765773773, -0.23891344666481018, -0.2617233991622925, -0.07220951467752457, 0.24394863843917847, 0.032807160168886185, -0.15527567267417908, -0.2852892577648163, -0.04415259510278702, 0.20059998333454132, -0.28008225560188293, 0.008947344496846199, -0.7399260997772217, -0.7367847561836243, -0.2832464873790741], [0.022379932925105095, -0.5158876180648804, 0.12211897224187851, -0.18242542445659637, 0.17567144334316254, 0.3469450771808624, 0.693873405456543, -0.4634806513786316, 0.545862078666687, 0.03841574862599373, 0.04663313925266266, 0.4087101221084595, 0.45936688780784607, -0.371337890625, -0.027170179411768913, 0.09730075299739838, -0.24917161464691162, 0.21334318816661835, -0.6805481910705566, 0.19116607308387756, -0.0956166461110115, -0.2857319414615631, 0.278218150138855, 0.4392663240432739, 0.04465083032846451, 0.022540759295225143, 0.2324267029762268, -0.1487777680158615, 0.14531762897968292, -0.11334866285324097, -0.2164870798587799, -0.03894378989934921, -0.09604991972446442, -0.07976138591766357, -0.033525530248880386, 0.49391958117485046, -0.45555293560028076, 0.22467558085918427, -0.055231042206287384, 0.20089107751846313, 0.40248650312423706, 0.014563425444066525, -0.5735726356506348, -0.22352328896522522, 0.07371759414672852, 0.6977152824401855, -0.3901593089103699, 0.03727888688445091], [-0.6409440040588379, 0.5769931674003601, -0.29283764958381653, -0.17822670936584473, -0.0740259513258934, -0.10745694488286972, -0.1562170833349228, -0.3459829092025757, 0.010784510523080826, -0.28488537669181824, 0.9272430539131165, -0.3735673725605011, -0.29808077216148376, 0.1074928268790245, -0.12471498548984528, 0.30619844794273376, -0.3000996708869934, -0.32162076234817505, -0.15143948793411255, -0.07494471967220306, 0.4040621817111969, 0.16185340285301208, 0.3916071653366089, 0.06471969187259674, 0.08693398535251617, -0.17164038121700287, -0.35599541664123535, 0.38721293210983276, 0.04861731082201004, -0.12458521127700806, 0.17536529898643494, 0.1764117032289505, -0.2488720417022705, -0.4234539568424225, -0.18580880761146545, -0.061289578676223755, -0.07088922709226608, 0.16765326261520386, -0.5180432796478271, 0.09524258971214294, 0.3334294557571411, 0.29423364996910095, 0.16604498028755188, -0.16604705154895782, 0.4984845519065857, -0.2344309538602829, -0.05327782779932022, 0.12096595019102097], [-0.22810904681682587, 0.2237774133682251, 0.02074921689927578, -0.48296982049942017, -0.3415566086769104, 0.05604611709713936, -0.4342581331729889, -0.375287264585495, 0.19774609804153442, 0.13515488803386688, 0.41222840547561646, 0.5022281408309937, -0.21038739383220673, -0.13357895612716675, -0.49950525164604187, 0.39330485463142395, 0.3534736931324005, 0.11433739215135574, 0.09628068655729294, -0.47180619835853577, 0.3226132392883301, 0.06575193256139755, -0.24264147877693176, 0.058206956833601, -0.10052087903022766, -0.059012915939092636, 0.25084778666496277, -0.14244866371154785, -0.5291537642478943, -0.14201341569423676, 0.4039286673069, -0.161712646484375, -0.2365923523902893, -0.013661994598805904, 0.4995559751987457, 0.24022340774536133, 0.3682425022125244, 0.6813682317733765, 0.4001775085926056, -0.20496517419815063, 0.1076323464512825, 0.4511912763118744, -0.36285173892974854, 0.22616440057754517, -0.24390770494937897, -0.09024690091609955, 0.3650958836078644, -0.33687248826026917], [-0.0804349035024643, 0.621494710445404, 0.21505698561668396, 0.026166053488850594, -0.4421332776546478, 0.3067551255226135, 0.4409310519695282, -0.23777735233306885, 0.057337693870067596, -0.32840868830680847, -0.799443781375885, -0.5867149829864502, -0.4605982303619385, 0.3265424966812134, 0.5909488797187805, 0.12998521327972412, -0.06135597079992294, -0.2782054543495178, 0.3966444730758667, -0.0196855291724205, 0.6721658706665039, 0.024278290569782257, -0.2196570187807083, 0.10267641395330429, -0.17265847325325012, 0.25470277667045593, 0.653112530708313, -0.16355818510055542, -0.27038371562957764, -0.059424273669719696, -0.12241633981466293, 0.1899087280035019, 0.4233872890472412, 0.1265510469675064, -0.03282224386930466, 0.17757979035377502, 0.2015368789434433, 0.4787800908088684, 0.04517212137579918, 0.13507871329784393, 0.07615934312343597, -0.10531631112098694, 0.6489943265914917, 0.40122929215431213, 0.5194995999336243, -0.807628870010376, -0.10039885342121124, 0.0055533177219331264], [0.27104005217552185, 0.15111909806728363, 0.10269960761070251, 0.2981499433517456, -0.8232710361480713, -0.2239026427268982, -1.0918903350830078, -0.5793190598487854, -0.4531196057796478, -0.013137957081198692, -0.22718939185142517, 0.5878981947898865, -0.0933331772685051, -0.13301154971122742, 0.11341284215450287, 0.17535962164402008, -0.06588006764650345, 0.46126312017440796, 0.3252743184566498, -0.4040813744068146, 0.05859079957008362, 0.3438960313796997, -0.03903983160853386, 0.057298921048641205, -0.4377691149711609, 0.09255268424749374, 0.559581458568573, 0.15008650720119476, 0.07660331577062607, 0.4166378676891327, 0.16474823653697968, -0.31888890266418457, -0.006396387703716755, -0.11265444755554199, 0.20569416880607605, 0.1900891363620758, -0.21110771596431732, 0.0914895087480545, -0.02545197494328022, 0.53117436170578, -0.1457274705171585, -0.22372721135616302, -0.07207643985748291, 0.1680895984172821, 0.5320711135864258, -0.1464214026927948, -0.23559355735778809, -0.13009221851825714], [0.0009348534513264894, 0.14259621500968933, 0.5865908861160278, 0.1881120353937149, 0.22576281428337097, 0.07783372700214386, 0.13210198283195496, 0.9165301322937012, -0.2940976917743683, -0.3636684715747833, -0.6264238357543945, -0.18666572868824005, 0.5015308260917664, -0.2732161283493042, -0.6693722009658813, 0.20407234132289886, 0.02270459197461605, -0.37835779786109924, -0.10572069138288498, 0.2545401453971863, 0.250492662191391, 0.10218857228755951, 0.38057148456573486, 0.1786278337240219, -0.05791672691702843, -0.10653387010097504, -0.7040565609931946, 0.13396821916103363, 0.13591812551021576, -0.4279751777648926, 0.321967214345932, -0.011157732456922531, -0.4964332580566406, -0.20283113420009613, 0.18125993013381958, 0.037018757313489914, 0.0562797486782074, 0.17103666067123413, -0.20021238923072815, 0.2859301269054413, -0.30732211470603943, -0.11167890578508377, -0.3005653917789459, 0.49983811378479004, 0.24558313190937042, 0.3897348940372467, 0.49350759387016296, -0.2229735553264618], [0.15767398476600647, 0.32195785641670227, 0.06083104386925697, -0.5014227032661438, -0.3701821267604828, 0.08439240604639053, -0.742497444152832, 0.5678057074546814, 0.021233707666397095, -0.13639602065086365, 0.3660402297973633, -0.38017141819000244, 0.16838952898979187, 0.21821439266204834, 0.3547399640083313, 0.44888707995414734, 0.08041732758283615, -0.015940632671117783, -0.23023658990859985, 0.907192587852478, -0.5838068723678589, -0.21680596470832825, 0.13322991132736206, -0.21722018718719482, -0.2659616768360138, 0.03727322816848755, 0.018717782571911812, -0.3535388112068176, -0.586208164691925, 0.32276156544685364, 0.14419938623905182, 0.28358274698257446, 0.4151737093925476, -0.2590418756008148, -0.19182947278022766, 0.12316381931304932, -0.7120526432991028, -0.07572107017040253, 0.003061161143705249, 0.12775491178035736, 0.10637212544679642, 0.28506577014923096, 0.1060490533709526, 0.24389596283435822, -0.05705131217837334, -0.2493470162153244, -0.2714129388332367, 0.011715274304151535], [-0.38021910190582275, 0.0916498526930809, 0.16787904500961304, -0.28164616227149963, 0.7033387422561646, -0.5145441293716431, 0.44966572523117065, -0.5661298036575317, 0.04203250631690025, -0.05342908203601837, 0.3089906871318817, 0.1398903876543045, -0.20765820145606995, -0.4445928931236267, 0.35500338673591614, 0.6441572308540344, 0.0018890165956690907, -0.012415525503456593, 0.2078149914741516, -0.13776931166648865, -0.14106184244155884, 0.2984004318714142, 0.16308358311653137, -0.3153541386127472, 0.21718233823776245, -0.1896214485168457, -0.32385608553886414, -0.3228027820587158, 0.10284680873155594, -0.29927241802215576, -0.4881725311279297, -0.061162833124399185, 0.12828312814235687, -0.089934341609478, 0.7373685240745544, 0.1181463673710823, -0.0997481495141983, -0.25169068574905396, -0.14877203106880188, -0.47955822944641113, 0.006860019639134407, -0.03367083892226219, 0.909386157989502, 0.08686292916536331, -0.15754026174545288, 0.5241985321044922, -0.4541222155094147, -0.3994172215461731], [-0.219640851020813, -0.35560768842697144, 0.22594711184501648, -0.09231159836053848, -0.019266456365585327, 0.20783276855945587, 0.05930808559060097, -0.3478134274482727, 0.3536347448825836, -0.5493354797363281, 0.1635921448469162, -0.17373931407928467, 0.3441874086856842, -0.3462176024913788, -0.39616918563842773, -0.3141677975654602, -0.05321372672915459, -0.3738812804222107, -0.3356643319129944, -0.0337832048535347, 0.10354966670274734, -0.2683093249797821, 0.08531937748193741, -0.0756455808877945, -0.07170914858579636, -0.42816048860549927, 0.21985162794589996, -0.18164148926734924, -0.35620445013046265, 0.5374355316162109, -0.1813153773546219, 0.07185418158769608, 0.3175748586654663, -0.1414209008216858, 0.11586981266736984, 0.10090167820453644, 0.8315896987915039, -0.6942461133003235, -0.3797382414340973, -0.14580757915973663, 0.24579942226409912, -0.12479576468467712, -0.5108965039253235, -0.05353889986872673, -0.2826462984085083, -0.3969351351261139, -0.07683129608631134, 0.010965310037136078], [0.03315526247024536, 0.4098316729068756, 0.4842902421951294, -0.4037468433380127, -0.256040096282959, -0.6670373678207397, -0.6632052659988403, -0.2512611150741577, 0.18246126174926758, -0.3303704857826233, -0.4827798008918762, -0.007794960401952267, -0.5339837074279785, 0.5614851713180542, 0.2205587476491928, 0.14266450703144073, -0.22039435803890228, -0.03451680764555931, 0.06837518513202667, -0.07953285425901413, -0.2701718211174011, -0.5369477868080139, -0.2762329578399658, -0.2378460168838501, -0.0577179417014122, -0.5899181962013245, 0.4968072772026062, -0.09347929805517197, -0.6698857545852661, 0.2978746294975281, -0.2998177111148834, 0.08429647982120514, -0.2037942111492157, -0.014754635281860828, -0.12406060099601746, 0.4562772214412689, 0.026587005704641342, 0.06926653534173965, -0.031170671805739403, 0.11826347559690475, -0.0867169201374054, 0.013356287032365799, -0.0046360488049685955, 0.2528059780597687, -0.3325784206390381, 0.3445045053958893, 0.311337411403656, -0.10289604961872101], [0.08609449118375778, -0.049065522849559784, 0.3897770047187805, -0.07145153731107712, 0.17187801003456116, -0.8587231636047363, -0.31493523716926575, -0.10137656331062317, -0.12379356473684311, 0.4068995416164398, -0.019962802529335022, -0.1808820366859436, -0.3028150498867035, 0.10704658180475235, -0.44322267174720764, 0.665424108505249, -0.11330058425664902, 0.2979884445667267, 0.07575979828834534, -0.011110545136034489, 0.03698379546403885, -0.025572681799530983, -0.05341155454516411, -0.09485556930303574, 0.12017571926116943, 0.41366952657699585, 0.5928777456283569, -0.09200767427682877, 0.36562997102737427, 0.3593522012233734, -0.2352234572172165, -0.1303180307149887, 0.07618393748998642, -0.4592571258544922, -0.017754491418600082, -0.36386382579803467, 0.33610954880714417, 0.15407687425613403, 0.287472665309906, 0.25153982639312744, 0.5505272746086121, -0.23853594064712524, -0.06376475840806961, 0.05667853727936745, 0.19237108528614044, -0.15557223558425903, 0.7514908909797668, 0.10159000754356384], [0.4975384771823883, 0.43925487995147705, -0.6433407068252563, -0.7670992612838745, -0.06612809002399445, -0.044770050793886185, -1.1299670934677124, 0.20685029029846191, 0.3803499639034271, -0.09229879826307297, -0.44728556275367737, -0.14872780442237854, 0.0397794209420681, 0.004665277432650328, 0.009771528653800488, 0.28895312547683716, 0.3384500741958618, 0.023240316659212112, -0.3626426160335541, 0.10156557708978653, -0.01662151888012886, -0.19363738596439362, -0.05227399617433548, 0.004265826661139727, -0.23421405255794525, 0.12815093994140625, -0.11607018858194351, 0.20774908363819122, 0.5418150424957275, -0.16464686393737793, -0.13802026212215424, -0.2736924886703491, 0.09309016913175583, -0.010777703486382961, 0.04777613282203674, -0.007661814801394939, -0.15742076933383942, 0.04134015738964081, -0.07514556497335434, -0.13749854266643524, 0.20980507135391235, 0.4992465078830719, -0.1760903000831604, 0.09095878154039383, -0.3591061234474182, -0.18410848081111908, 0.06726570427417755, -0.4709339141845703], [0.22820401191711426, 0.6728240847587585, 0.4550294578075409, -0.009672366082668304, 0.08873940259218216, 0.07065355032682419, 0.14897336065769196, 0.20740234851837158, 0.6659426689147949, -0.35153746604919434, 0.023284560069441795, 0.6126436591148376, 0.7452391982078552, 0.7226887345314026, 0.22715924680233002, 0.22429300844669342, 0.2303682118654251, 0.21546418964862823, -0.08478488773107529, -0.3344104588031769, -0.31879159808158875, 0.25690382719039917, -0.18974371254444122, -0.10432228446006775, 0.24120138585567474, -0.0625903457403183, -0.21749937534332275, -0.09660908579826355, 0.12640175223350525, 0.004812580067664385, 0.08307697623968124, -0.3098239004611969, -0.471088171005249, -0.05800965800881386, 0.16835859417915344, -0.4721852242946625, 0.1247640997171402, -0.07486048340797424, -0.143111452460289, -0.2336680144071579, 0.0937713086605072, -0.22105009853839874, 0.5000606775283813, -0.2482016235589981, -0.0022251938935369253, -0.06379380077123642, -1.0503336191177368, -0.10797940939664841], [0.12865421175956726, 0.3516571819782257, -0.12013223767280579, -0.6033119559288025, -0.10719917714595795, 0.2980886697769165, -0.5506352186203003, 0.8917747735977173, 0.4475327730178833, 0.13081137835979462, -0.031561728566884995, -0.11839378625154495, -0.32398006319999695, 0.38629162311553955, 0.15076541900634766, 0.03522666543722153, -0.32645106315612793, -0.19618460536003113, 0.026960797607898712, -0.5848972797393799, 0.3553897738456726, -0.2119394838809967, -0.27725353837013245, 0.022710802033543587, 0.03567969799041748, 0.034616563469171524, -0.4432409703731537, -0.16512367129325867, 0.1693742275238037, -0.2414509356021881, 0.12411845475435257, -0.06521686911582947, -0.18846803903579712, 0.5177203416824341, -0.1656477004289627, -0.28353166580200195, 0.17773617804050446, -0.38959547877311707, 0.27671223878860474, 0.036898426711559296, 0.03838289529085159, -0.12697237730026245, 0.11914560943841934, 0.011631430126726627, -0.051009878516197205, 0.5164987444877625, -0.2680346965789795, 0.07999113202095032], [0.5513715147972107, 0.324983686208725, 0.313367635011673, -0.5705485343933105, -0.2937085032463074, -0.31850263476371765, -0.30839914083480835, 0.4769883155822754, -0.3265897333621979, 0.16085051000118256, -0.08933976292610168, 0.36973193287849426, 0.6603711843490601, -0.1191970705986023, -0.2464960813522339, 0.7466962933540344, -0.3762487769126892, 0.3989892303943634, 0.32958129048347473, -0.16410449147224426, 0.0678611546754837, -0.07099040597677231, 0.198079451918602, -0.1941603571176529, -0.03844381868839264, 0.2672874331474304, -0.11135900020599365, -0.1640768051147461, -0.45654574036598206, 0.03510159254074097, -0.6477671265602112, 0.0949675664305687, -0.12855121493339539, -0.2002202868461609, 0.02665661834180355, 0.08675709366798401, 0.5664276480674744, -0.07312622666358948, 0.13157013058662415, 0.02384982258081436, -0.1580541878938675, 0.1693783849477768, 0.4100428819656372, 0.2427806407213211, -0.2804415822029114, -0.46885818243026733, -0.8783112168312073, -0.35621726512908936], [-0.24251598119735718, -0.3835943639278412, -0.46836617588996887, -0.14295662939548492, -0.5154851078987122, -0.5382073521614075, -0.19068579375743866, 0.37405478954315186, -0.2630460858345032, 0.10955271124839783, -0.32339340448379517, -0.7148844599723816, 0.7172662019729614, 0.04214123263955116, -0.19510114192962646, -0.07263679802417755, -0.4984467029571533, 0.17550750076770782, -0.1392657607793808, -0.08125735074281693, 0.10105640441179276, 0.18745571374893188, -0.00017808424308896065, -0.2877822816371918, 0.1380809247493744, -0.44377273321151733, 0.31831803917884827, -0.33988988399505615, -0.2966820299625397, 0.20130179822444916, -0.02354625053703785, -0.5062294602394104, -0.20951594412326813, 0.24223259091377258, -0.08632886409759521, 0.20947420597076416, 0.03232550993561745, 0.04570356756448746, -0.05709506571292877, -0.11655782163143158, 0.21431921422481537, -0.1480724811553955, 0.1341557800769806, 0.08533482998609543, 0.48875775933265686, 0.05883835256099701, 0.2743886113166809, -0.2571181356906891], [0.08519017696380615, 0.1915169507265091, 0.23204651474952698, 0.14794863760471344, 0.49999526143074036, 0.648781955242157, -0.5159890055656433, 0.3058251142501831, 0.029575984925031662, -0.17133595049381256, -0.2035963088274002, -0.2548673748970032, -0.84319007396698, 0.32655972242355347, -0.20618844032287598, 0.11220500618219376, -0.3816984295845032, 0.0426897332072258, 0.4179064929485321, -0.36970269680023193, -0.0828527957201004, -0.23513154685497284, -0.4247753918170929, 0.012221993878483772, 0.08395425230264664, 0.3940380811691284, 0.5027355551719666, -0.291568785905838, -0.2673024535179138, -0.25557470321655273, 0.09745284914970398, -0.07010507583618164, -0.1749059110879898, 0.18341143429279327, -0.3463301658630371, 0.25803807377815247, -0.18997278809547424, -0.18817877769470215, -0.09027183055877686, -0.2718116044998169, 0.15938502550125122, 0.24740855395793915, 0.4256451427936554, -0.7189053297042847, 0.49327564239501953, 0.42650535702705383, 0.07794611155986786, -0.14682182669639587], [-0.48629873991012573, 0.4685140550136566, -0.06141558289527893, 0.024577822536230087, -0.2648550271987915, 0.5445947647094727, -0.6375575065612793, 0.6842912435531616, -0.10126354545354843, -0.31776925921440125, -1.0216959714889526, -0.48957696557044983, -0.07790956646203995, 0.5102524757385254, -0.2618299722671509, 0.1252022534608841, -0.22974854707717896, -0.18420591950416565, 0.41706475615501404, 0.033302102237939835, -0.5834330916404724, 0.03356368467211723, 0.18437522649765015, 0.008503307588398457, -0.2268037348985672, -0.22612717747688293, -0.07096952199935913, 0.09154019504785538, 0.7356919050216675, -0.12382303178310394, 0.06343375891447067, -0.057579781860113144, -0.13127130270004272, -0.34521323442459106, 0.16565881669521332, 0.20993132889270782, 0.3400021195411682, 0.19082234799861908, 0.6468650698661804, -0.19341057538986206, -0.06989400833845139, 0.06199341267347336, 0.007478372659534216, 0.2664024531841278, 0.16406157612800598, -0.5969753265380859, -0.20708580315113068, 0.25540241599082947], [-0.1662728488445282, -0.026504848152399063, -0.11788620799779892, 0.41829583048820496, -0.2890413701534271, -0.10071884095668793, -0.7450106739997864, 0.2921372950077057, -0.5648323893547058, 0.7512410283088684, 0.15228143334388733, 0.2108418047428131, 0.24814289808273315, 0.807076096534729, -0.19571608304977417, 0.43512681126594543, -0.25356921553611755, 0.3679754436016083, 0.252133309841156, -0.4486966133117676, -0.1607341319322586, 0.07224958389997482, 0.4551312327384949, -0.3161550462245941, 0.4139999449253082, -0.1984044760465622, 0.01203284040093422, -0.07908186316490173, 0.4530414938926697, -0.017256859689950943, 0.1943293660879135, 0.4892711639404297, 0.010566996410489082, 0.0922757238149643, 0.4358862340450287, 0.24629145860671997, -0.21011507511138916, 0.06348177045583725, 0.05669381842017174, -0.24270664155483246, 0.47010841965675354, -0.3789421021938324, 0.23890066146850586, -0.3321549594402313, 0.2503397762775421, -0.03303753212094307, -0.14563283324241638, 0.41235870122909546], [-0.2828749120235443, 0.39398428797721863, -0.25422483682632446, -0.2134377807378769, -0.22624175250530243, -0.13396739959716797, -0.37027183175086975, 0.258429616689682, 0.05626530945301056, -0.42470577359199524, 0.44723042845726013, -0.062371060252189636, -0.06639465689659119, -0.11634511500597, -0.09940516948699951, 0.33032742142677307, 0.39620664715766907, -0.2221209555864334, -0.276348739862442, 0.35090458393096924, -0.22854143381118774, 0.1050863116979599, -0.3269561231136322, 0.37785759568214417, -0.19529879093170166, 0.19988851249217987, 0.1444873958826065, 0.19620069861412048, -0.1738135814666748, 0.3998882472515106, -0.662189245223999, 0.16456939280033112, -0.42305436730384827, 0.025053659453988075, 0.010553613305091858, 0.3929501473903656, -0.3110414445400238, -0.4319823384284973, -0.2601342499256134, -0.23223410546779633, 0.6274216175079346, -0.12089420109987259, -0.0052174669690430164, -0.39146482944488525, -0.3015100061893463, -0.25743716955184937, 0.34782975912094116, -0.5646565556526184], [-0.05803724378347397, 0.13366174697875977, -0.0564909465610981, 0.042110733687877655, -0.4899856746196747, -0.06593415886163712, -0.30519363284111023, 0.05736635997891426, 0.34948208928108215, 0.361235111951828, 0.250255286693573, 0.24368569254875183, 0.2634548842906952, -0.3062134385108948, -0.13916543126106262, -0.22277072072029114, 0.42564013600349426, -0.15957842767238617, -0.6509281992912292, 0.2875664532184601, 0.4083881378173828, 0.23798970878124237, -0.07590096443891525, -0.10768913477659225, -0.6214317083358765, 0.5590389370918274, 0.11853756010532379, 0.371262788772583, 0.16880908608436584, -0.3587118983268738, -0.4549086391925812, -0.09800207614898682, -0.35183846950531006, -0.09105777740478516, 0.21032372117042542, 0.10812950879335403, -0.15804973244667053, -0.3991883397102356, -0.15148384869098663, 0.13947732746601105, -0.7246415019035339, 0.03288838639855385, -0.047960810363292694, 0.12726643681526184, 0.34414657950401306, -0.46936070919036865, 0.18641246855258942, -0.09024302661418915], [-0.2510662078857422, 0.3093680739402771, -0.5748748779296875, 0.10472695529460907, -0.6010196208953857, 0.35901781916618347, -0.08751754462718964, -0.03160342574119568, -0.24449940025806427, -0.23036852478981018, -0.4454905092716217, 0.7687737941741943, -0.1927819699048996, -0.5402272343635559, -0.6331791877746582, 0.2099464386701584, -0.4530474841594696, -0.1544191837310791, -0.4039360582828522, -0.5102594494819641, 0.2952582538127899, -0.33926308155059814, 0.11567095667123795, 0.27432969212532043, -0.10856468230485916, 0.13781091570854187, 0.29155975580215454, -0.2824712097644806, -0.40123212337493896, 0.011368068866431713, 0.31704413890838623, 0.10697849094867706, 0.06758317351341248, 0.6980533599853516, -0.559837281703949, -0.18470360338687897, -0.14573663473129272, 0.3762817978858948, 0.309054970741272, -0.1791735738515854, 0.0358119010925293, 0.08834698051214218, 0.04276790842413902, 0.11146137118339539, -0.005643218290060759, -0.2894776463508606, 0.7475284934043884, 0.2005990892648697], [0.3414350152015686, -0.5420359969139099, -0.22956573963165283, 0.1582539677619934, -0.2761244475841522, 0.24410991370677948, -0.22404667735099792, 0.8036028742790222, -0.0729171633720398, 0.6095613241195679, 0.3088512420654297, 0.6968337297439575, -0.0690840482711792, 0.30562061071395874, 0.055150892585515976, 0.5226781368255615, 0.46803930401802063, 0.43806302547454834, 0.09418349713087082, 0.07269049435853958, 0.22601264715194702, 0.4332852065563202, 0.33216458559036255, 0.05514272674918175, -0.25613194704055786, -0.5332719683647156, -0.013244131579995155, 0.11835381388664246, 0.17940554022789001, 0.18506667017936707, 0.10357484966516495, 0.2043464481830597, 0.12261231988668442, -0.14556874334812164, -0.08595453947782516, -0.16145752370357513, -0.06681369990110397, -0.0918390080332756, -0.08271846920251846, 0.49310845136642456, 0.35501527786254883, -0.0186007022857666, 0.24437430500984192, -0.15788914263248444, 0.010815838351845741, -0.09938482195138931, -0.421690970659256, 0.16046704351902008], [0.6012622714042664, -0.2669423818588257, 0.08907166123390198, -0.08084835112094879, 0.5653076171875, 0.040679994970560074, -0.2335248738527298, 0.3986886739730835, -0.662334680557251, 0.01586940698325634, 0.24934473633766174, 0.6806135177612305, 0.24303849041461945, 0.2683936655521393, 0.6639693379402161, -0.11232322454452515, 0.17554740607738495, -0.15441182255744934, -0.7833006381988525, -0.08837883174419403, -0.09684017300605774, 0.21714793145656586, 0.026384221389889717, -0.19092798233032227, -0.31360533833503723, 0.640410304069519, -0.19330552220344543, -0.3128115236759186, -0.65749591588974, 0.23305679857730865, -0.21100324392318726, 0.17751392722129822, -0.1113147959113121, 0.429185152053833, 0.3118560016155243, 0.23751415312290192, 0.13989777863025665, 0.3128409683704376, -0.25968506932258606, 0.40331482887268066, 0.36495235562324524, 0.18308132886886597, -0.11386390030384064, -0.24779938161373138, 0.15772031247615814, 0.37580379843711853, -0.3718978762626648, -0.21287080645561218], [0.05320008844137192, -0.2460699826478958, -0.3732321560382843, 0.25133591890335083, 0.021241430193185806, -0.1638377159833908, -0.09256257861852646, 0.19686360657215118, 0.11123175919055939, -0.32370468974113464, -0.37745338678359985, 0.7127711176872253, 0.38579416275024414, 0.10158348083496094, -0.37762853503227234, 0.5105862617492676, -0.011791106313467026, 0.14603930711746216, -0.07130169123411179, -0.25712576508522034, 0.143144890666008, -0.1341228485107422, 0.01586005836725235, -0.18054725229740143, 0.08274183422327042, -0.15545377135276794, 0.28595656156539917, -0.07405607402324677, 0.26911574602127075, 0.2054600566625595, 0.14008934795856476, 0.5051038861274719, -0.7614493370056152, 0.15043102204799652, -0.14291304349899292, 0.19079257547855377, -0.07267124205827713, -0.48733821511268616, -0.014645703136920929, -0.09089476615190506, 0.4332549571990967, 0.2563655972480774, 0.2327885776758194, -0.6849552989006042, 0.41908419132232666, -0.2583810091018677, 0.23580314218997955, 0.5890624523162842], [0.4623127281665802, -0.24771422147750854, 0.39936167001724243, 0.5945935845375061, -0.25028353929519653, -0.11999442428350449, -0.042137667536735535, 0.16381169855594635, -0.2668631374835968, -0.03801679238677025, -0.1957768052816391, -0.14553064107894897, -0.07959769666194916, 0.33410680294036865, 0.4395671784877777, -0.00669396435841918, -0.24233300983905792, -0.2899453043937683, 0.07011011242866516, 0.1923464834690094, -0.047760460525751114, -0.1341046839952469, 0.24700260162353516, 0.4422701299190521, 0.2299010157585144, 0.15714380145072937, 0.12010405212640762, 0.2442569136619568, 0.11945008486509323, 0.4630739688873291, 0.10019556432962418, -0.24854417145252228, -0.07265371829271317, -0.2965596914291382, 0.4978199303150177, -0.47350043058395386, -0.5346458554267883, 0.1286049336194992, -0.08766837418079376, 0.24623261392116547, 0.07901301234960556, 0.4209069013595581, 0.1285780519247055, -0.1437717229127884, 0.30086663365364075, -0.043374642729759216, -0.36193716526031494, 0.17317742109298706], [0.25360801815986633, -0.6459816694259644, -0.03063511662185192, -0.19663649797439575, 0.14470639824867249, -0.5124987959861755, 0.2728188633918762, -0.996752142906189, 0.1634501963853836, 0.15669415891170502, 0.08252023160457611, 0.2872798442840576, -0.1258128583431244, 0.4648955166339874, 0.32085081934928894, 0.1264428198337555, 0.05944050848484039, 0.1794443130493164, -0.7367361187934875, -0.025549419224262238, -0.3405350148677826, -0.10869194567203522, 0.02534792199730873, 0.2661014497280121, -0.8636184334754944, 0.01879497431218624, -0.14403297007083893, 0.2385144978761673, -0.035463809967041016, -0.4527759253978729, 0.05047154054045677, 0.056661106646060944, 0.09627474844455719, 0.002277335850521922, -0.2504318058490753, 0.07205256819725037, 0.17645837366580963, 0.11918937414884567, 0.3475244641304016, 0.14070042967796326, -0.4830159544944763, -0.4741899371147156, -0.35930147767066956, -0.0023322340566664934, 0.04968398064374924, 0.4192827641963959, -0.041827570647001266, -0.3033295273780823], [-0.1286299228668213, 0.3212560713291168, 0.8933219909667969, -0.4431900680065155, 0.39568957686424255, 0.2251693159341812, 0.9531337022781372, 0.1416391283273697, -0.0889226496219635, 0.0580010712146759, -0.15942135453224182, 0.08165425062179565, 0.2977394759654999, -0.46910449862480164, -0.6182992458343506, -0.3155611753463745, -0.3161793351173401, -0.24261309206485748, 0.024948367848992348, 0.610994279384613, -0.47887495160102844, 0.21763820946216583, 0.05896450951695442, -0.16632483899593353, 0.023052139207720757, -0.2417554259300232, 0.7665223479270935, 0.15426005423069, 0.12499986588954926, -0.2679569721221924, -0.004380519036203623, 0.4702793061733246, 0.21957582235336304, 0.1821790486574173, -0.3825354278087616, -0.1314876675605774, 0.3369828462600708, -0.3971793055534363, 0.445229172706604, -0.06476687639951706, 0.13416235148906708, -0.20388124883174896, 0.10894012451171875, 0.4931883215904236, 0.21081042289733887, -0.6376779079437256, 0.1663374900817871, -0.8738124370574951], [-0.24197694659233093, -0.39978641271591187, -0.35976025462150574, 0.4547453820705414, 0.3297209143638611, 0.05338091403245926, -0.4475513696670532, 0.2169741541147232, 0.9303834438323975, -0.08470427989959717, -0.03325311467051506, -0.22062493860721588, 0.3082195520401001, -0.2249070107936859, 0.1368737369775772, 0.07922586798667908, -0.7097660899162292, 0.16387248039245605, -0.30367952585220337, 0.1795778125524521, -0.3428491950035095, 0.11303014308214188, 0.1570253223180771, -0.17003481090068817, -0.10196627676486969, 0.279755175113678, 0.14612391591072083, -0.07241746783256531, -0.31604477763175964, -0.2299683392047882, -0.14914587140083313, 0.44771870970726013, 0.09452173113822937, 0.2767172157764435, 0.05603492259979248, -0.5812932848930359, 0.04470466449856758, 0.12764549255371094, -0.3015478253364563, 0.033646032214164734, -0.1464051902294159, 0.005662676878273487, -0.012003535404801369, -0.11214164644479752, 0.7821781635284424, -0.1773337423801422, 0.3886457085609436, -0.3526517450809479]], "b": [-0.21816086769104004, -0.12124039977788925, -0.045235440135002136, -0.01971329376101494, -0.05933516100049019, -0.2180473506450653, -0.08297387510538101, -0.007604844402521849, -0.0006694660987704992, 0.09720876812934875, -0.1643238067626953, 0.0954388678073883, -0.19037780165672302, -0.02825843170285225, -0.05869295075535774, 0.335743248462677, -0.054487358778715134, 0.08222747594118118, -0.21363811194896698, -0.14205719530582428, -0.062307823449373245, 0.13047151267528534, -0.13183192908763885, 0.25549066066741943, 0.11013404279947281, -0.13210365176200867, 0.036984533071517944, 0.008460013195872307, 0.264756441116333, 0.18196749687194824, 0.01767006330192089, 0.007043974008411169], "activation": "tanh"}, {"w": [[-0.11725340038537979, 0.042804114520549774, -0.059895873069763184, 0.2764586806297302, -0.13363267481327057, 0.10596068948507309, 0.48691460490226746, 1.0997947454452515, -0.29540926218032837, -0.6187213659286499, -0.24559235572814941, -0.1304193139076233, 0.36826154589653015, 0.3271559178829193, -0.34507545828819275, 0.6037265062332153, -0.22986920177936554, 0.3888445496559143, 0.4158118963241577, 0.051798366010189056, 0.49510854482650757, -0.49641677737236023, -0.4794481694698334, -0.42934346199035645, 0.01350939366966486, 0.4493761956691742, 0.12358245998620987, 0.7658012509346008, 0.21414144337177277, -0.48922595381736755, -0.007565251551568508, -0.44553056359291077], [-0.030110903084278107, 0.01783006079494953, 0.3476724624633789, 0.44854581356048584, 0.6429994702339172, -0.39791786670684814, -0.02558237686753273, -0.26817500591278076, -0.02673962153494358, 0.7511346340179443, 0.5007491707801819, -0.4393239915370941, -0.6658763885498047, 0.09755374491214752, 0.4269487261772156, 0.5782623291015625, -0.22414162755012512, -0.08402124047279358, 0.37676647305488586, -0.2979811131954193, 0.015228687785565853, 0.09032037109136581, 0.15502691268920898, 0.07597021013498306, 0.368409663438797, 0.16846470534801483, 0.13510020077228546, 0.4849337637424469, 0.10105612128973007, -0.1995248645544052, -0.2532673180103302, 0.02930380217730999], [-0.05661972239613533, 0.323130339384079, 0.5598406791687012, 0.4878663718700409, 0.38136857748031616, 0.6808687448501587, 0.40738192200660706, -0.20966874063014984, -0.3386516273021698, 0.049438510090112686, -0.7681766748428345, -0.10966283828020096, 0.3577937185764313, -0.22131194174289703, -0.24686112999916077, -0.47180312871932983, 0.2403995394706726, 0.02237236686050892, 0.12680798768997192, 0.5006177425384521, 0.27200087904930115, 0.25684207677841187, -0.4824516177177429, -0.3743763566017151, 0.37916046380996704, -0.10292918235063553, 0.319121778011322, 0.458240270614624, -0.05147348716855049, -0.06118930131196976, 0.43440014123916626, -0.1313324272632599], [-0.18110240995883942, -0.09193883091211319, 0.24968868494033813, -0.11282139271497726, 0.3165681064128876, -0.17718441784381866, 0.25595495104789734, 0.09918320924043655, -0.4194986820220947, -0.8196309208869934, -0.053824663162231445, -0.3662607967853546, -0.4990811347961426, 0.034119993448257446, -0.47730740904808044, 0.3241910934448242, -0.18106301128864288, -0.1141802966594696, 0.9970340728759766, 0.018581053242087364, -0.41135871410369873, -0.10665000975131989, -0.40345725417137146, -0.389952152967453, 0.27199262380599976, -0.3249396085739136, -0.6979532241821289, -0.45840638875961304, -0.34620675444602966, 0.2552194893360138, -0.3999020457267761, 0.007105542346835136], [0.34076544642448425, 0.0754915103316307, -0.18514904379844666, 1.0102512836456299, -0.23161819577217102, -0.031140480190515518, -0.1414639800786972, -0.12705688178539276, -0.12405019253492355, 0.2871929109096527, -0.3389330804347992, -0.46448662877082825, -0.3737935721874237, 0.07023513317108154, 0.2087952345609665, 0.022173773497343063, -0.11979624629020691, 0.37420907616615295, -0.10452912747859955, -0.27230527997016907, -0.4101298451423645, -0.7687685489654541, 0.09505698829889297, 0.11815381050109863, -0.25635579228401184, -0.293279767036438, -0.47481968998908997, -0.29299575090408325, -0.7608797550201416, 0.24165067076683044, 0.27259910106658936, 0.32895368337631226], [-0.5939542055130005, 0.6913732886314392, -0.025419138371944427, -0.373981237411499, -0.20904392004013062, -0.48644423484802246, -0.09525297582149506, 0.0581209696829319, 0.28084078431129456, -0.06792955845594406, 0.3880302309989929, -0.5136772394180298, 0.060714494436979294, -0.1957527995109558, -0.12391071766614914, 0.3811984956264496, -0.8620030879974365, -0.3835272192955017, -0.25646325945854187, -0.2396821528673172, -0.03693925216794014, -0.11264991015195847, -0.7983711361885071, 0.3225308954715729, -0.5765639543533325, 0.2741340696811676, -0.012282434850931168, 0.05895604193210602, -0.1837480217218399, 0.36998263001441956, 0.3504897952079773, -0.22449176013469696], [-0.9409230351448059, -0.21992430090904236, 0.3024085760116577, 0.021008949726819992, 0.16382747888565063, -0.051967788487672806, -0.22452685236930847, 0.03786405920982361, 0.09633700549602509, -0.25460371375083923, 0.19085922837257385, -0.19373472034931183, 0.29086074233055115, 0.3920272886753082, 0.483413964509964, -0.33980631828308105, -0.09400922060012817, -0.10488180816173553, -0.4650912582874298, 0.29032576084136963, -0.15648053586483002, -0.12547877430915833, 0.27142563462257385, -0.33454957604408264, 0.32421979308128357, 0.13295099139213562, -0.17654772102832794, -0.14036574959754944, 0.3540927767753601, -0.007065582554787397, 0.8215826749801636, 0.05365891009569168], [0.3210437297821045, -0.21396279335021973, -1.131883144378662, -0.3470042943954468, 0.040818482637405396, -0.140333354473114, 0.6444548964500427, -0.5309233665466309, -0.1808021515607834, -0.1583329290151596, 0.2292616367340088, -0.037469532340765, 0.06807276606559753, 0.3396259844303131, -0.2564304769039154, -0.12863782048225403, -0.03882068023085594, 0.2396562546491623, -0.3226574957370758, 0.2259189337491989, 0.32434627413749695, -0.09902047365903854, -0.7601529359817505, -0.35182884335517883, -0.10386452823877335, -0.038581836968660355, 0.02518322505056858, -0.5348864197731018, 0.28922438621520996, 0.7059383392333984, 0.6395540833473206, -0.6575791835784912], [0.042131103575229645, -0.17555999755859375, -0.11453946679830551, -0.20634737610816956, 0.49534815549850464, -1.012452244758606, 0.11663617193698883, 0.144514262676239, -0.431509405374527, 0.19156286120414734, 0.08802652359008789, 0.3036329448223114, 0.013844853267073631, 0.19220951199531555, 0.0869961753487587, -0.14724455773830414, 0.4246894121170044, -0.16527923941612244, 0.47995778918266296, 0.29748407006263733, -0.30467504262924194, -0.4939393401145935, -0.16701234877109528, 0.48764610290527344, -0.1912728101015091, 0.047277919948101044, -0.41964393854141235, 0.17375606298446655, 0.11062856763601303, -0.15202036499977112, -0.4401549994945526, 0.2574921250343323], [0.5361512899398804, 0.10457959771156311, 0.2709496021270752, -0.38311004638671875, 0.8789965510368347, -0.06644140928983688, -0.32650792598724365, 0.011571587063372135, -0.5526048541069031, 0.49443182349205017, 0.2988881468772888, 0.41811084747314453, 0.5943577885627747, -0.5022329688072205, -0.07665116339921951, 0.2213054895401001, 0.08750464022159576, -0.07406065613031387, -0.027581023052334785, -0.7318506836891174, 0.02173631638288498, -0.16440154612064362, -0.09998495876789093, -0.4111148715019226, 0.21680855751037598, -0.2873001992702484, -0.444534569978714, -0.031125644221901894, -0.26678603887557983, -0.07519657909870148, 0.14962919056415558, -0.3206450343132019], [-0.4001089632511139, -0.21746067702770233, 0.26240429282188416, 0.5275062322616577, 0.4308464229106903, 0.10924234986305237, -0.1581609845161438, 0.5487788319587708, 0.5819834470748901, 0.4369940161705017, 0.10626325011253357, -0.21081379055976868, 0.29320546984672546, 0.23088063299655914, -0.5997803807258606, 0.38639989495277405, 0.09738756716251373, -0.28202468156814575, -0.17861242592334747, -0.1624322384595871, 0.43510547280311584, 0.04094618931412697, 0.17560459673404694, -0.13066767156124115, -0.6102359890937805, 0.15762318670749664, 0.7970696091651917, -0.43366527557373047, -0.022823411971330643, -0.004710610024631023, -0.11286796629428864, 0.2212124466896057], [0.3291533887386322, -0.010089988820254803, -0.8144314885139465, 0.4816667139530182, -0.03302865847945213, -0.6688190698623657, 0.14997738599777222, 0.16001808643341064, -0.9262116551399231, -0.1189543828368187, -0.18183588981628418, -0.23782235383987427, 0.7304754853248596, -0.2981531620025635, -0.4057534635066986, 0.25313517451286316, -0.2840512990951538, -0.18686406314373016, 0.25706344842910767, 0.2185119390487671, 0.18533232808113098, 0.32919707894325256, -0.2865535318851471, -0.12557442486286163, 0.037407562136650085, 0.19553937017917633, 0.014328722842037678, -0.13111911714076996, 0.2900511920452118, -0.3983674943447113, -0.30556240677833557, -0.20354926586151123], [0.3756064176559448, 0.3128929138183594, 0.3384132385253906, 0.11582043766975403, -0.1160082295536995, 0.029479052871465683, 0.4819270074367523, -0.13838911056518555, -0.0030604004859924316, -0.7558463215827942, 0.3452219069004059, 0.14079421758651733, -0.09385515749454498, 0.7232984900474548, -0.22449781000614166, 0.5933018922805786, -0.1662164330482483, 0.15689577162265778, 0.37421584129333496, -0.2519877254962921, 0.02991015464067459, 0.1141747459769249, -0.15332424640655518, 0.2041758894920349, 0.0660058856010437, -0.6431801319122314, -0.3522777557373047, 0.06901673972606659, 0.26203835010528564, -0.07761045545339584, 0.42145857214927673, -0.3024074137210846], [0.3083654046058655, 0.3301467001438141, -0.19141671061515808, -0.045522406697273254, -0.19116920232772827, 0.009793666191399097, 0.04608471691608429, 0.018106428906321526, 0.06595796346664429, -0.2705940008163452, -0.42223986983299255, -0.16326238214969635, -0.24827179312705994, -0.03248881176114082, -0.17327699065208435, 0.1792849898338318, 0.5911511182785034, -0.17094336450099945, 0.36249643564224243, -0.7739018797874451, -0.4228406250476837, 0.6675061583518982, -0.11344077438116074, -0.4316313862800598, 0.5072624087333679, 0.6879133582115173, 0.32149824500083923, -0.034956756979227066, -0.06426791101694107, 0.15649038553237915, 0.756682813167572, 0.21969309449195862], [0.1770838499069214, 0.4006401002407074, -0.0325341634452343, 0.0900222584605217, -0.09459834545850754, 0.10857509076595306, -0.0648537278175354, 0.45599842071533203, 0.14755387604236603, -0.24535323679447174, -0.14363399147987366, 0.5621109008789062, 0.2531113624572754, -0.5389782786369324, 0.1894931048154831, -0.07728791236877441, 0.0006087772781029344, -0.5846464037895203, -0.6447046399116516, -0.3638347089290619, 0.1773940622806549, -0.6169722676277161, 0.35638710856437683, -0.3535790741443634, -0.46532881259918213, -0.12649929523468018, -0.09341845661401749, 0.09579388797283173, 0.16890594363212585, 0.14525039494037628, -0.5497284531593323, -0.5369287133216858], [-0.08174663782119751, 0.5395700931549072, -0.21564985811710358, 0.12417004257440567, 0.4869123101234436, 0.10659008473157883, 0.09180410951375961, 0.3027571737766266, 0.3775632679462433, -0.12965403497219086, 0.2891175448894501, 0.14205139875411987, 0.18040813505649567, 0.4868837296962738, 0.15393006801605225, -0.492561012506485, 0.06251893937587738, 0.09453342109918594, -0.14219102263450623, -0.08775009214878082, -0.7376487851142883, 0.5163933634757996, -0.28072816133499146, -0.03676646202802658, -0.7243515849113464, -0.18967768549919128, -0.07050375640392303, -0.02440449595451355, 0.6653940081596375, -0.33041146397590637, -0.3103407025337219, 0.5056209564208984], [-0.039348457008600235, 1.198693871498108, -0.35593706369400024, 0.1292988806962967, 0.18645159900188446, 0.18067800998687744, 0.2575378119945526, -0.41896018385887146, -0.17724528908729553, 0.44804099202156067, 0.4244808554649353, 0.6793323159217834, -0.39565494656562805, -0.3901577591896057, -0.07435496151447296, -0.3564643859863281, -0.19780857861042023, 0.24828283488750458, 0.027189070358872414, -0.3227892816066742, -0.14582203328609467, -0.1937991976737976, 0.3291018009185791, -0.0919785127043724, -0.8010596632957458, -0.019985811784863472, -0.3639066815376282, -0.5383427143096924, -0.15552662312984467, -0.07695814222097397, 0.28339627385139465, -0.5325087904930115], [-0.12156351655721664, -0.08103231340646744, -0.17813228070735931, -0.6137652397155762, 0.8120714426040649, -0.30640098452568054, 0.0030548141803592443, -0.22621293365955353, -0.1515055000782013, -0.43482470512390137, -0.5443980693817139, -0.6863011121749878, -0.04832885414361954, 0.257779061794281, 0.21225807070732117, 0.29490193724632263, 0.33837243914604187, -0.06568630039691925, -0.40041467547416687, 0.035520195960998535, 0.47590887546539307, -0.5712217688560486, 0.1371499001979828, 0.12617124617099762, -0.21280036866664886, -0.2987167537212372, -0.391776978969574, 0.29080262780189514, -0.3538082540035248, -0.4019443094730377, -0.02002699300646782, -0.14643508195877075], [0.07705273479223251, -0.7465267777442932, 0.10126206278800964, -0.4191707968711853, 0.010507957078516483, -0.2277842015028, 0.8341566324234009, -0.051300935447216034, 0.6637933850288391, 0.2516930103302002, 0.3045195937156677, -0.04062391445040703, 0.0767035260796547, -0.30521053075790405, -0.3631241023540497, 0.11564397066831589, 0.21706640720367432, 0.5669082999229431, 0.13976000249385834, -0.018524564802646637, 0.18869918584823608, -0.021206041797995567, 0.8046806454658508, 0.53089439868927, -0.5126211047172546, 0.12066460400819778, 0.22983980178833008, 0.0923827588558197, 0.2941570580005646, 0.11720030754804611, 0.07526697963476181, 0.23505470156669617], [0.42849549651145935, -0.21914121508598328, -0.14387688040733337, 0.4810311198234558, 0.14268635213375092, 0.5324960947036743, -0.4011934995651245, 0.3048611581325531, -0.3527945876121521, -0.3366495668888092, 0.3535289168357849, -0.14061133563518524, -0.2096584141254425, 0.10094120353460312, -0.12810362875461578, -0.38824209570884705, -0.43254849314689636, 0.13124075531959534, -0.7065618634223938, -0.37779709696769714, -0.8026552200317383, 0.3530374765396118, -0.2854521870613098, 0.4531433582305908, -0.1925010085105896, 0.027650343254208565, 0.4810473322868347, 0.2812497317790985, -0.15093033015727997, 0.1521090418100357, 0.4787294268608093, -0.9171781539916992], [-0.37154704332351685, 0.08509126305580139, -0.09899468719959259, 0.3948724567890167, -0.29002755880355835, -0.10106199979782104, -0.3128274977207184, 0.2608572244644165, -0.23330815136432648, -0.11270543932914734, 0.3238797187805176, -0.048316579312086105, -0.1124618649482727, -0.3440133333206177, -0.7471092343330383, 0.8507423996925354, -0.06030122563242912, 0.37123772501945496, -0.5167123079299927, 0.08837462216615677, 0.13721147179603577, 0.22661246359348297, -0.2197795808315277, -0.2924576699733734, 0.34416359663009644, 0.2416510432958603, -0.3191620707511902, 0.4835229516029358, 0.08862651884555817, 0.6983276605606079, -0.23907709121704102, -0.10132036358118057], [0.39422014355659485, -0.02640417590737343, 0.3439218997955322, -0.2466048002243042, 0.31070104241371155, 0.22120648622512817, -0.287900447845459, -0.43341192603111267, -0.2972962260246277, 0.24702729284763336, -0.5980915427207947, 0.025221487507224083, -0.22583124041557312, -0.5950586199760437, 0.00729449512436986, 0.30441534519195557, 0.24091897904872894, 0.02079954370856285, -0.20014464855194092, 0.41915035247802734, -0.3516911566257477, -0.7527095675468445, -0.22806815803050995, 0.30983230471611023, -0.22149138152599335, 0.14450953900814056, 0.47662830352783203, -0.622657299041748, 0.9022383689880371, 0.26387524604797363, -0.16087085008621216, 0.2995632588863373], [0.064754918217659, -0.4233039617538452, 0.01656888797879219, 0.21259915828704834, -0.08120565861463547, -0.03686511516571045, -0.20708157122135162, -0.5021586418151855, 0.3426213562488556, 0.11131828278303146, -0.33444109559059143, -0.4944590926170349, 0.357269287109375, 0.020452355965971947, -0.5293973088264465, -0.7928372025489807, -0.465208500623703, 0.3179996907711029, 0.14482101798057556, -0.7117507457733154, 0.16550816595554352, 0.2579372823238373, -0.5454120635986328, -0.044367942959070206, 0.22592014074325562, 0.20378845930099487, -0.2062370479106903, -0.20704525709152222, 0.29032623767852783, -0.14483030140399933, -0.7340320944786072, -0.15342730283737183], [0.26361045241355896, -0.17825190722942352, -0.4891744554042816, 0.10392014682292938, 0.20210383832454681, 0.12840692698955536, -0.03002510964870453, 0.30290067195892334, -0.6443237066268921, 0.5437340140342712, -0.2170976847410202, -0.10277970135211945, -0.11114899069070816, 0.3219310939311981, -0.06867135316133499, -0.319845974445343, -0.02651333250105381, -0.038481663912534714, 0.15794599056243896, -0.657237708568573, -0.0035159694962203503, -0.22738558053970337, 0.26875215768814087, 0.4687204957008362, 0.1715274155139923, -0.16913242638111115, 0.20353834331035614, 0.3282829225063324, 0.4977680444717407, 0.5917944312095642, -0.17542631924152374, 0.6224151253700256], [-0.4033897817134857, -0.48610955476760864, -0.5510282516479492, 0.48723915219306946, 0.09301798045635223, -0.52938312292099, 0.12735846638679504, 0.2853976786136627, 0.4840199053287506, -0.06590363383293152, -0.3535063564777374, 0.41456738114356995, -0.3016151189804077, -0.07332432270050049, -0.29441535472869873, 0.04295366629958153, -0.6113228797912598, -0.5080482959747314, -0.11581434309482574, 0.02323221229016781, 0.18485817313194275, -0.25425609946250916, -0.17760436236858368, 0.08959201723337173, -0.2689843475818634, -0.49167945981025696, -0.38331279158592224, 0.2847850024700165, 0.44762182235717773, -0.23287568986415863, 0.7327057123184204, 0.26982149481773376], [0.010701987892389297, 0.1413705199956894, -0.48825836181640625, 0.2611033022403717, 0.378974050283432, 0.008497139438986778, 0.8474130034446716, -0.04189256578683853, -0.1939467042684555, -0.6584283709526062, 0.5366445183753967, -0.32493340969085693, -0.3105190694332123, -0.33748236298561096, -0.1997845619916916, -0.6760220527648926, -0.16745036840438843, -0.5213950872421265, -0.09250210225582123, -0.2398635298013687, 0.25000303983688354, -0.45529741048812866, -0.47073665261268616, 0.3768036365509033, 0.6258664131164551, 0.06448780745267868, -0.5249680280685425, -0.41964390873908997, -0.26780685782432556, 0.30984488129615784, 0.12948676943778992, 0.31900155544281006], [0.20296302437782288, 0.6007777452468872, -0.3734895884990692, 0.5512075424194336, -0.5597954988479614, 0.15473955869674683, 0.5069419741630554, -0.13600845634937286, 0.2672860622406006, -0.006633310113102198, 0.36955726146698, -0.1100117489695549, 0.7181769013404846, -0.25245407223701477, -0.06301241368055344, 0.13113081455230713, -0.07111642509698868, -0.07402997463941574, -0.0025959734339267015, -0.44568419456481934, -0.9912911057472229, -0.23924607038497925, 0.31915053725242615, -0.08687219023704529, 0.38736218214035034, -0.5163466334342957, 0.5742247700691223, 0.2015877366065979, -0.29222795367240906, -0.17606762051582336, 0.3933030962944031, -0.323688805103302], [-0.6259866952896118, -0.38345077633857727, 0.10674718767404556, 0.2786838114261627, -0.3472329378128052, -0.2699353098869324, 0.13374027609825134, -1.0566307306289673, -0.550217866897583, 0.2673352360725403, 0.027273358777165413, 0.49587664008140564, -0.2837432026863098, 0.046472370624542236, 0.4323883652687073, 0.36878278851509094, 0.12942324578762054, -0.13796523213386536, 0.0964992344379425, -0.36179929971694946, 0.2825450599193573, -0.0437873937189579, 0.29772379994392395, -0.11828062683343887, -0.13370248675346375, -0.24164967238903046, -0.05861084535717964, -0.14757484197616577, -0.2728886902332306, -0.4471527636051178, 0.14339579641819, -0.34949609637260437], [0.4090059995651245, 0.005386095028370619, -0.08613847941160202, 0.44191890954971313, 0.08440233767032623, 0.6381863355636597, -0.3689351975917816, -0.8464943766593933, -0.09099728614091873, -0.7160744071006775, 0.3824608325958252, 0.22619861364364624, 0.06806563585996628, -0.2576587200164795, -0.3119194209575653, 0.16709506511688232, 0.262259840965271, -0.5215639472007751, -0.11283846199512482, -0.06138581037521362, 0.11648567765951157, -0.194497212767601, 0.08939266204833984, 0.12126725167036057, -0.4004558026790619, 0.5094662308692932, -0.5409718155860901, -0.08306341618299484, -0.5132944583892822, 0.30101197957992554, -0.055208876729011536, 0.35049474239349365], [-0.07967957109212875, 0.23099207878112793, 0.19846443831920624, 0.014052347280085087, -0.23092252016067505, 0.5945994257926941, 0.6533631086349487, 0.16183173656463623, -0.13434600830078125, 0.30124619603157043, -0.379797101020813, 0.20774859189987183, -0.0487578883767128, 0.20788659155368805, -0.15540675818920135, -0.15883171558380127, -0.30734220147132874, -0.7547640800476074, -0.5369298458099365, 0.24485433101654053, -0.3974002003669739, 0.31483855843544006, -0.18141955137252808, 0.3616344928741455, 0.0480685792863369, 0.4747518301010132, -0.5738148093223572, 0.011500637046992779, 0.43541547656059265, -0.05798964947462082, 0.10676869750022888, -0.371141642332077], [-0.6624051928520203, 0.23462428152561188, -0.1791527271270752, 0.3305671811103821, 0.48124757409095764, -0.5529095530509949, -0.02352629043161869, -0.7901684045791626, -0.479213684797287, -0.6018833518028259, 0.06461874395608902, 0.6618666648864746, -0.06693519651889801, 0.18701443076133728, -0.47341978549957275, -0.09887198358774185, -0.6443578004837036, -0.23649871349334717, -0.5698881149291992, -0.11157563328742981, -0.6349281072616577, -0.2898804843425751, 0.6035037040710449, 0.08681687712669373, -0.27691465616226196, -0.033927541226148605, 0.32433536648750305, -0.10503609478473663, -0.5293521285057068, 0.5243486762046814, 0.13219167292118073, 0.29637080430984497], [0.4215228259563446, 0.18893489241600037, -0.14021161198616028, 0.31130388379096985, -0.08042621612548828, -0.13347618281841278, 0.2997826933860779, -0.4312874674797058, -0.41451314091682434, 0.24525481462478638, 0.10134849697351456, -0.14716792106628418, 0.018583228811621666, 0.11702720820903778, -0.3994016945362091, -0.13026633858680725, 0.022000931203365326, -0.7925832271575928, -0.03472127765417099, 0.5469492673873901, -0.21367615461349487, -0.13460828363895416, 0.31563884019851685, -0.6795976758003235, -0.5013781189918518, 0.4531819820404053, 0.23919588327407837, 0.22382627427577972, 0.020013228058815002, 0.015674671158194542, 0.46321770548820496, 0.4449978470802307]], "b": [-0.09769761562347412, 0.32583391666412354, -0.2279522567987442, 0.0966820940375328, -0.16009476780891418, 0.08785104751586914, -0.09454531967639923, -0.07682006806135178, -0.20237135887145996, 0.002233779989182949, -0.04252759367227554, -0.26646119356155396, 0.1639229655265808, -0.27683714032173157, -0.04966878518462181, -0.39044085144996643, -0.04046602174639702, 0.07440970838069916, 0.0145341195166111, 0.07854127883911133, 0.259050577878952, 0.3507382273674011, -0.22428254783153534, 0.11230909824371338, 0.21988429129123688, -0.026021409779787064, -0.1826128512620926, 0.4274693727493286, -0.07045924663543701, 0.23615066707134247, 0.20945735275745392, -0.004487243480980396], "activation": "tanh"}, {"w": [[-1.0463663784321398e-06, -0.21575938165187836, 0.16763055324554443, -0.017206372693181038, -0.35271143913269043, -0.03239777311682701, 0.2154531329870224, -0.12590569257736206, -0.16254092752933502, -0.2642601430416107, -0.06179741024971008, -0.14968550205230713, 0.16892223060131073, 0.06888194382190704, 0.21958190202713013, 0.0761788934469223, 0.12172173708677292, -0.27609384059906006, -0.12197931855916977, -0.3481670022010803, 0.142018124461174, 0.2251695692539215, -0.19117474555969238, -0.23326058685779572, 0.007278789300471544, -0.24280068278312683, -0.05568739399313927, -0.20498979091644287, -0.02083965390920639, 0.26364800333976746, 0.47735273838043213, 0.08847888559103012], [-0.33452796936035156, -0.12148954719305038, -0.08272886276245117, 0.16357119381427765, -0.07221474498510361, -0.0541556142270565, -0.02759060449898243, -0.28066641092300415, 0.034094035625457764, -0.2638651728630066, -0.10875239968299866, -0.3431864380836487, 0.014866228215396404, 0.10373793542385101, -0.21027059853076935, 0.2440607100725174, -0.2276100367307663, -0.17745186388492584, -0.1594260036945343, 0.33683767914772034, -0.30209535360336304, -0.22059613466262817, -0.25083622336387634, -0.09455530345439911, 0.1778801530599594, 0.2771672010421753, 0.2875390946865082, 0.08749443292617798, -0.18480753898620605, 0.2084781527519226, -0.2631584703922272, 0.11831943690776825], [0.1371115893125534, -0.16221608221530914, -0.17429646849632263, 0.343681275844574, 0.07468673586845398, -0.3303294777870178, -0.15628285706043243, 0.5147749185562134, -0.10527602583169937, 0.016603345051407814, 0.20864418148994446, 0.01567603275179863, 0.06134650111198425, 0.20189854502677917, 0.0006989270332269371, -0.11808763444423676, 0.29292118549346924, -0.19302594661712646, 0.36319220066070557, -0.23806922137737274, 0.18669521808624268, 0.40895700454711914, 0.09859880805015564, 0.17835767567157745, -0.3450997769832611, -0.2757459282875061, -0.0468052439391613, -0.09193621575832367, 0.18529295921325684, 0.1020723283290863, 0.06658189743757248, 0.19093722105026245], [-0.07561557739973068, 0.10148254781961441, -0.07922794669866562, 0.15168878436088562, -0.1461285948753357, 0.01501607894897461, 0.06184033676981926, 0.01357649639248848, -0.09071038663387299, -0.07417237013578415, -0.228783518075943, -0.045196015387773514, 0.09492451697587967, -0.16828511655330658, -0.06471627205610275, -0.17085954546928406, 0.06742651015520096, -0.09714756906032562, 0.009739510715007782, 0.246029332280159, 0.2239045798778534, 0.15152797102928162, -0.017042549327015877, 0.11821011453866959, 0.16508838534355164, 0.003139542182907462, -0.2823764979839325, 0.15463396906852722, -0.2624424695968628, -0.0005288714310154319, 0.08756525069475174, -0.08927331119775772]], "b": [0.10594510287046432, -0.020694952458143234, 0.057943347841501236, 0.4147721827030182], "activation": "none"}]}