{"name": "10k", "layers": [{"w": [[-0.13442425429821014, 0.4956132471561432, -0.1399901956319809, 0.0413384772837162, 0.32226499915122986, 0.020940667018294334, 0.33999791741371155, -0.07914853096008301, -0.014466531574726105, 0.4992222785949707, 0.2891603112220764, 0.5475900173187256, 0.23308120667934418, -0.2533034682273865, -0.26488786935806274, 0.02782215178012848, -0.3889739513397217, -0.09847461432218552, 0.035883333534002304, -0.32951557636260986, 0.029841843992471695, 0.6086415648460388, -0.41083627939224243, -0.026263520121574402, -0.1710088849067688, 0.1664496660232544, -0.60633385181427, 0.024439673870801926, -0.5785113573074341, -0.13924843072891235, -0.51748126745224, 0.3792332112789154, 0.15672250092029572, 0.19182457029819489, -0.2133053094148636, -0.07346829026937485, -0.008322088979184628, -0.1176682710647583, -0.10688596963882446, -0.019271666184067726, 0.40337270498275757, 0.4609951674938202, -0.048202209174633026, -0.09661588817834854, 0.1291183978319168, 0.186970055103302, -0.3290930688381195, -0.1120600476861], [0.15182209014892578, 0.30307283997535706, -0.5563346743583679, 0.42649248242378235, 0.1502508968114853, -0.1946554332971573, 0.004061693791300058, 0.8289448618888855, -0.004159586038440466, -0.13504745066165924, 0.08465604484081268, 0.03970370441675186, -0.1964465081691742, 0.01669282279908657, -0.3045213520526886, -0.24904130399227142, -0.3978554904460907, -0.011057582683861256, -0.04522090405225754, -0.3383760452270508, -0.14527027308940887, -0.23628763854503632, -0.031647514551877975, -0.16715773940086365, 0.5017094612121582, 0.006645893212407827, 0.21738988161087036, -0.16579243540763855, -0.08884596824645996, -0.5484992265701294, 0.5875839591026306, -0.37685325741767883, 0.23128610849380493, -0.09368567168712616, -0.3119913637638092, -0.5360703468322754, -0.14261186122894287, -0.014534433372318745, -0.0020061994437128305, 0.0032403343357145786, 0.19850043952465057, -0.1102527305483818, 0.02168143168091774, -0.1327577531337738, -0.002588789677247405, 0.20041850209236145, 0.13408751785755157, -0.13587021827697754], [-0.20883755385875702, -0.35965821146965027, 0.2169661968946457, -0.5936397314071655, 0.1574273556470871, -0.037385452538728714, 0.45362356305122375, -0.22029316425323486, -0.11482066661119461, -0.3891964256763458, 0.39178308844566345, -0.5029164552688599, 0.01004237774759531, -0.29767653346061707, 0.14633679389953613, 0.03681271895766258, 0.3128439784049988, -0.058318376541137695, -0.24907395243644714, -0.3336690366268158, -0.16270840167999268, 0.09603182226419449, -0.3048633933067322, 0.37141886353492737, -0.06166201829910278, -0.031572919338941574, 0.14270463585853577, 0.12157551944255829, 0.2751281261444092, -0.060736022889614105, -0.0543772354722023, 0.05352896824479103, 0.3735426664352417, 0.15844585001468658, 0.16833795607089996, -0.16015787422657013, 0.4272204041481018, 0.021749772131443024, 0.05742418393492699, -0.21560199558734894, 0.048660553991794586, -0.27563968300819397, -0.3936951756477356, 0.06946460902690887, -0.2687738239765167, -0.3323213756084442, 0.11812803149223328, 0.006468262057751417], [-0.10849140584468842, -0.2246527373790741, -0.2850596010684967, 0.4069553017616272, -0.222724050283432, -0.15221869945526123, 0.3486137092113495, -0.7637656927108765, -0.3206235468387604, 0.08984474092721939, 0.20785243809223175, -0.0033999080769717693, -0.15825152397155762, 0.11936286091804504, 0.16802386939525604, 0.14432063698768616, 0.104240782558918, -0.23039644956588745, -0.41281527280807495, 0.26731234788894653, -0.015640269964933395, -0.11237896978855133, -0.3370019793510437, 0.40281033515930176, 0.19732029736042023, -0.022325921803712845, -0.19557076692581177, 0.025364747270941734, 0.2324570268392563, 0.16944733262062073, -0.25689902901649475, 0.2586403489112854, -0.2879215478897095, 0.2919730544090271, 0.20806336402893066, -0.3495252728462219, -0.2851046621799469, -0.005883506499230862, 0.15804922580718994, 0.024408962577581406, 0.1738913506269455, -0.2505825459957123, 0.006796077359467745, -0.456646203994751, 0.013458852656185627, 0.4672899544239044, -0.09965924173593521, 0.30054473876953125], [0.26732969284057617, 0.20282486081123352, 0.23746904730796814, -0.056867118924856186, 0.09374556690454483, 0.48758286237716675, -0.28129637241363525, -0.044422779232263565, 0.21982216835021973, 0.25069230794906616, -0.011985884048044682, -0.07257485389709473, 0.5127791166305542, 0.4231233298778534, 0.2083565890789032, 0.0412399098277092, -0.03464282304048538, -0.021923305466771126, 0.4105384647846222, 0.11889779567718506, -0.2949598729610443, 0.2909870743751526, -0.6258195638656616, 0.2684270441532135, -0.30774515867233276, 0.04907558858394623, -0.3623785674571991, 0.1343475580215454, 0.2100030779838562, 0.0057260505855083466, 0.01985139772295952, 0.23397545516490936, 0.38752511143684387, -0.13375963270664215, -0.24752995371818542, 0.6158867478370667, 0.2653404772281647, -0.2858211398124695, -0.24533711373806, -0.028687819838523865, -0.14339092373847961, -0.07405617833137512, 0.5205776691436768, 0.18555644154548645, -0.3011663556098938, 0.39172491431236267, -0.2026098221540451, 0.26440054178237915], [-0.19880439341068268, -0.0795607715845108, 0.055256664752960205, -0.11364814639091492, 0.4110977053642273, -0.032333578914403915, -0.09072696417570114, -0.17570467293262482, 0.18596720695495605, 0.037369608879089355, -0.13183201849460602, 0.45189765095710754, -0.3616018295288086, -0.46012210845947266, 0.01575685292482376, -0.05634200945496559, 0.25041159987449646, 0.1569584310054779, 0.3178105056285858, -0.08942404389381409, -0.08594149351119995, -0.16974666714668274, -0.4114210903644562, -0.2902422547340393, 0.016718538478016853, 0.03984588012099266, 0.27400901913642883, -0.14646925032138824, -0.6059569120407104, 0.1284503936767578, 0.04846552014350891, -0.03109144978225231, -0.026744259521365166, 0.2876225411891937, -0.13921143114566803, 0.10530439019203186, -0.4375321865081787, 0.08336891233921051, 0.49417272210121155, 0.03854893147945404, -0.22047938406467438, -0.25348538160324097, 0.17186127603054047, 0.277538925409317, -0.3160969018936157, -0.02537703327834606, -0.21522170305252075, -0.3779240548610687], [0.42638036608695984, 0.026020705699920654, -0.015160889364778996, -0.42036694288253784, -0.29970476031303406, -0.11037950217723846, -0.006266022566705942, -0.5958529114723206, -0.15995511412620544, -0.016272855922579765, -0.6104802489280701, -0.39572522044181824, 0.10383985191583633, -0.15489636361598969, 0.13964946568012238, -0.1375998556613922, 0.4429489076137543, 0.16346301138401031, 0.24280397593975067, 0.2639928460121155, -0.36849769949913025, -0.0597715824842453, -0.25515052676200867, -0.1270025223493576, 0.6534367203712463, -0.07978688180446625, -0.33063992857933044, -0.49140724539756775, 0.3606192171573639, -0.10449044406414032, -0.07006542384624481, 0.3026299476623535, 0.05319841578602791, -0.044282399117946625, 0.36683425307273865, -0.04856175184249878, -0.21656779944896698, 0.04355322942137718, -0.14755341410636902, 0.04478058964014053, -0.0662069097161293, 0.39646318554878235, 0.33438077569007874, 0.1554117649793625, 0.06848404556512833, -0.17662370204925537, -0.0639515072107315, -0.24366094172000885], [-0.08788305521011353, 0.3787585198879242, 0.3088945746421814, 0.5286172032356262, 0.004695682320743799, 0.08308272063732147, 0.14226432144641876, -0.027997871860861778, 0.02842210978269577, -0.08934571593999863, -0.1604989767074585, -0.06274189054965973, -0.027356401085853577, -0.250312477350235, 0.0028370702639222145, 0.17613957822322845, -0.43923071026802063, 0.1046009212732315, 0.033048778772354126, 0.1514182835817337, -0.041302639991045, 0.4060678780078888, -0.07918042689561844, -0.04350339621305466, 0.18475739657878876, 0.10894034057855606, 0.10503584146499634, 0.4728444516658783, 0.0622989796102047, -0.06667084991931915, -0.11595557630062103, -0.1528368592262268, -0.03844176232814789, 0.16003043949604034, -0.3295157551765442, 0.413139671087265, 0.22219890356063843, 0.29268765449523926, -0.20583559572696686, -0.09043772518634796, 0.23797233402729034, -0.04717632383108139, 0.26684361696243286, 0.10161756724119186, 0.1588764488697052, 0.301461786031723, -0.5191512107849121, -0.5130958557128906], [-0.03007638454437256, 0.35991352796554565, 0.28406965732574463, 0.1759621500968933, 0.25826576352119446, 0.19815434515476227, 0.7162471413612366, -0.2035597264766693, 0.24697546660900116, -0.2927761673927307, 0.05078839138150215, -0.20349940657615662, -0.33584004640579224, 0.3149028718471527, 0.07371976971626282, 0.36982807517051697, -0.4291471540927887, -0.04370071738958359, 0.21536430716514587, -0.13398919999599457, 0.06031869351863861, 0.17913125455379486, 0.2295396476984024, 0.05186682567000389, -0.18041536211967468, -0.19436371326446533, 0.4975966513156891, -0.1342862993478775, 0.03930175304412842, -0.11993799358606339, 0.07322089374065399, 0.37290987372398376, 0.09022613614797592, 0.1975187361240387, -0.23533573746681213, -0.21481214463710785, -0.32131361961364746, -0.1332586109638214, -0.1410287320613861, -0.0728011205792427, -0.12041424214839935, -0.39145907759666443, -0.31200599670410156, 0.3250073492527008, 0.4382917284965515, 0.568653404712677, 0.438657283782959, -0.3312365710735321], [0.12251782417297363, -0.28922227025032043, 0.04501499608159065, -0.2955867648124695, 0.10294722020626068, -0.4488828182220459, 0.5936293601989746, -0.33790990710258484, -0.26518869400024414, 0.1253732144832611, 0.35112395882606506, 0.08208145946264267, -0.11479032039642334, -0.040723271667957306, -0.036181267350912094, 0.05641726776957512, -0.004004155285656452, -0.1271873116493225, 0.3243938684463501, 0.2277817726135254, 0.038796037435531616, -0.3509381115436554, -0.3762284815311432, -0.19232550263404846, -0.38805723190307617, -0.08541437983512878, 0.5806059241294861, 0.23105072975158691, -0.22307291626930237, 0.24436144530773163, 0.10071170330047607, 0.022599520161747932, 0.18456242978572845, -0.41550710797309875, -0.2350238859653473, -0.2598712742328644, 0.12783965468406677, -0.00944036990404129, -0.44491344690322876, 0.3715856075286865, 0.15116660296916962, -0.06859895586967468, 0.12319640815258026, -0.24399952590465546, -0.5128054618835449, 0.06922873854637146, 0.15781903266906738, -0.10610928386449814], [0.44033581018447876, 0.18652230501174927, 0.2962800860404968, -0.1533208042383194, 0.10390587896108627, -0.032559189945459366, -0.4632602632045746, 0.573826253414154, 0.12312497198581696, -0.774040162563324, -0.22522330284118652, -0.37796351313591003, -0.011720818467438221, 0.26770246028900146, 0.15059404075145721, 0.1672808676958084, 0.13204023241996765, 0.10054575651884079, -0.6557422280311584, -0.3557940125465393, 0.2645358443260193, 0.05624627321958542, -0.5252130031585693, 0.05164157599210739, 0.019319720566272736, -0.10543516278266907, -0.27388128638267517, -0.009450596757233143, 0.36035099625587463, -0.00994856096804142, -0.005612090229988098, -0.24229487776756287, -0.11337654292583466, 0.2954772412776947, 0.10000656545162201, -0.1181766614317894, -0.030254676938056946, 0.37818101048469543, -0.015179898589849472, -0.05595835670828819, 0.44284772872924805, 0.03179267793893814, 0.05714654549956322, 0.16998299956321716, 0.06602546572685242, 0.5228711366653442, -0.06798864156007767, -0.5586960315704346], [-0.6249077320098877, 0.061186209321022034, 0.17202326655387878, 0.5598257780075073, -0.043734919279813766, -0.041864871978759766, -0.1923077255487442, 0.18718864023685455, -0.05358901247382164, -0.3792494535446167, -0.08861716091632843, 0.15594670176506042, -0.2905115485191345, -0.1302037090063095, 0.46339544653892517, 0.3121897280216217, 0.22172994911670685, -0.1438814103603363, 0.2504194974899292, -0.1456466168165207, 0.11084649711847305, -0.07419021427631378, 0.41191762685775757, -0.3051334321498871, -0.08097907155752182, -0.042759574949741364, 0.5556025505065918, -0.020294109359383583, 0.4996491074562073, -0.18717339634895325, 0.07196041196584702, -0.316937655210495, -0.13668830692768097, 0.07173047959804535, -0.44275835156440735, -0.008511310443282127, 0.06844223290681839, -0.3127211332321167, 0.12590157985687256, 0.13315394520759583, -0.21323774755001068, 0.020952342078089714, 0.3213408589363098, -0.06793203204870224, 0.19836270809173584, -0.17358936369419098, 0.19393402338027954, 0.5760157704353333], [-0.13547758758068085, 0.2208300232887268, -0.51179039478302, -0.3324638307094574, 0.29025113582611084, 0.2695360779762268, -0.40126755833625793, 0.19835886359214783, 0.2717113792896271, 0.2149515599012375, 0.09896320104598999, 0.21138210594654083, 0.3284987509250641, -0.6484956741333008, -0.2724972069263458, -0.10191419720649719, 0.018797285854816437, 0.33570441603660583, 0.14233151078224182, 0.1283005177974701, 0.09414654225111008, 0.23395413160324097, 0.2984539568424225, 0.2266203761100769, 0.4279620945453644, -0.39895904064178467, 0.28408244252204895, -0.25766244530677795, -0.24809490144252777, 0.2762356102466583, 0.38510677218437195, -0.1468379944562912, 0.08483372628688812, 0.1597566455602646, 0.16458065807819366, -0.2940891683101654, 0.06636051833629608, -0.09408371150493622, 0.17986224591732025, -0.06507964432239532, 0.2723411023616791, -0.3746059536933899, -0.004664112813770771, -0.050879377871751785, -0.44603922963142395, -0.07352159917354584, 0.11198130995035172, -0.1700364649295807], [0.11996260285377502, 0.0722787007689476, -0.08648256957530975, -0.08131258189678192, 0.3426384925842285, -0.528933584690094, -0.2360982894897461, 0.13949419558048248, 0.08908132463693619, -0.04148491472005844, -0.10750772058963776, 0.22874444723129272, 0.11168825626373291, 0.16000224649906158, -0.06316790729761124, -0.23080046474933624, -0.47018134593963623, 0.05739501863718033, 0.0380227230489254, -0.07906882464885712, 0.43467140197753906, 0.30208897590637207, -0.5007514357566833, 0.09982787817716599, -0.3321649134159088, -0.10736951977014542, 0.06408019363880157, -0.33048996329307556, -0.16312001645565033, 0.09761016815900803, 0.020886875689029694, 0.21049097180366516, -0.4479687213897705, 0.200606569647789, 0.30057746171951294, -0.18899433314800262, -0.30762970447540283, 0.059006623923778534, 0.48797130584716797, 0.03516177833080292, -0.7098263502120972, 0.09442806988954544, 0.16909532248973846, 0.4328441917896271, 0.2598794102668762, 0.0798284187912941, -0.027581598609685898, 0.11296537518501282], [0.2619342803955078, 0.25479334592819214, 0.05123472586274147, 0.11004438251256943, 0.40457332134246826, 0.6610146760940552, 0.6786115169525146, 0.4864463806152344, 0.09450346231460571, 0.02816496044397354, 0.3662484884262085, 0.32547828555107117, 0.4223502576351166, 0.49168381094932556, -0.18905845284461975, -0.3482813239097595, 0.29313236474990845, -0.042427435517311096, -0.09448011964559555, 0.13275040686130524, -0.308471143245697, -0.1882212609052658, -0.2864844799041748, 0.3398016095161438, 0.022582167759537697, -0.05143041908740997, 0.2024344652891159, 0.15512855350971222, -0.037136636674404144, -0.17539620399475098, -0.17902569472789764, 0.11483637243509293, -0.29280033707618713, 0.14804239571094513, 0.011563051491975784, -0.06023417413234711, -0.1793404519557953, -0.27047374844551086, -0.05771574750542641, 0.15184953808784485, -0.18945278227329254, 0.46587085723876953, 0.45653069019317627, -0.22054998576641083, 0.3640119731426239, -0.007960919290781021, 0.15279582142829895, 0.13510802388191223], [-0.12103568017482758, 0.29866501688957214, 0.09186331182718277, 0.18872693181037903, -0.2317102700471878, -0.37160930037498474, -0.07236683368682861, 0.39084362983703613, -0.05151701718568802, -0.03520050272345543, -0.4260431230068207, -0.06036388501524925, 0.2545022666454315, 0.07341111451387405, -0.22765018045902252, -0.5525171160697937, 0.4487118721008301, -0.42210084199905396, -0.47034069895744324, 0.05958518385887146, 0.12620148062705994, 0.1775044947862625, 0.3072624206542969, 0.2133181244134903, -0.06844359636306763, -0.07005923241376877, 0.08036427199840546, 0.18770480155944824, -0.09207083284854889, 0.009672820568084717, 0.3052200376987457, 0.11300018429756165, -0.08882294595241547, 0.10034613311290741, 0.3607761263847351, 0.03761199489235878, -0.038284264504909515, 0.006456850562244654, 0.11177735030651093, -0.13786906003952026, 0.05364101752638817, -0.7971606850624084, 0.18059387803077698, 0.27546945214271545, 0.2761571705341339, 0.1210111528635025, -0.25587546825408936, 0.1810918152332306], [0.021115485578775406, 0.6238458156585693, 0.03044237568974495, -0.033375758677721024, -0.24237391352653503, -0.17696116864681244, -0.40493762493133545, -0.13590817153453827, 0.0707656666636467, 0.04635537043213844, -0.38226476311683655, 0.26733124256134033, -0.6398826241493225, 0.22998091578483582, -0.5251738429069519, -0.31519997119903564, 0.3794027864933014, -0.22018660604953766, -0.09526001662015915, -0.01101742871105671, -0.04790639132261276, -0.15540529787540436, -0.24174341559410095, 0.31252074241638184, -0.036859139800071716, 0.17039655148983002, -0.48446255922317505, -0.39301005005836487, -0.2093479484319687, -0.02916686050593853, -0.14332255721092224, -0.19073881208896637, 0.2429623007774353, 0.008879936300218105, -0.31559568643569946, -0.13447201251983643, 0.352020263671875, 0.22635777294635773, 0.13490279018878937, 0.2942008078098297, 0.10653101652860641, 0.153699591755867, -0.1601298451423645, -0.12931840121746063, -0.05780739337205887, -0.19434863328933716, -0.3248307704925537, 0.5073952078819275], [0.2871137857437134, -0.13662025332450867, 0.17155304551124573, -0.10190146416425705, -0.13782629370689392, -0.09917136281728745, 0.6207815408706665, 0.20516782999038696, -0.013959217816591263, 0.26938918232917786, -0.43550223112106323, -0.028158700093626976, -0.1507885754108429, -0.027462001889944077, -0.29362884163856506, -0.1005089059472084, 0.0695263147354126, 0.3194926083087921, -0.03148389607667923, 0.3162902295589447, -0.0468425415456295, 0.21071824431419373, -0.060545407235622406, 0.09618495404720306, -0.20126783847808838, -0.04500092938542366, -0.9955785870552063, 0.16936221718788147, 0.08548679947853088, -0.24207697808742523, 0.3386800289154053, -0.1976693719625473, 0.36297711730003357, 0.1693069338798523, -0.05327971279621124, -0.10585689544677734, 0.5182479619979858, -0.09333844482898712, -0.02886664681136608, -0.267621248960495, 0.18407784402370453, -0.21978899836540222, 0.30041685700416565, 0.10180608928203583, 0.5589697360992432, 0.42120078206062317, 0.6579089760780334, 0.320266455411911], [0.7685450315475464, -0.0830402821302414, -0.0510360524058342, 0.39509835839271545, -0.04777293652296066, -0.41900837421417236, 0.411594957113266, -0.39863574504852295, -0.045594971626996994, 0.41883525252342224, -0.11230204254388809, 0.1364225149154663, 0.07812877744436264, 0.12535548210144043, 0.7002208828926086, -0.04731457680463791, 0.04373006522655487, 0.34937211871147156, 0.2428288459777832, 0.07569453865289688, 0.2832259237766266, -0.005266544409096241, 0.19392862915992737, 0.12118247896432877, -0.38363543152809143, -0.23118135333061218, 0.2698799669742584, -0.12342709302902222, 0.42087915539741516, 0.10378336161375046, 0.03893810883164406, -0.02277870662510395, 0.2757747769355774, -0.030116785317659378, -0.39662379026412964, 0.3272768557071686, -0.30243945121765137, -0.16276681423187256, 0.005232724826782942, -0.2333202213048935, -0.13855889439582825, -0.14724884927272797, 0.07896658778190613, 0.21244341135025024, 0.4339219629764557, -0.2671842575073242, -0.8058273196220398, -0.3158230781555176], [-0.3102509081363678, 0.01918361894786358, -0.08551265299320221, 0.10012239962816238, -0.3201311230659485, -0.6820668578147888, -0.7344427704811096, 0.23382292687892914, -0.12842537462711334, 0.2800336480140686, -0.2744293212890625, -0.12838754057884216, -0.18615345656871796, -0.2503184676170349, -0.14180386066436768, -0.04352150112390518, 0.11993737518787384, 0.1734464466571808, -0.24512140452861786, 0.07061225920915604, 0.47647184133529663, 0.040123265236616135, -0.07517290115356445, 0.07571831345558167, 0.059219345450401306, 0.027206135913729668, 0.3034029006958008, -0.012943848967552185, 0.3973461091518402, 0.016182243824005127, -0.2671594023704529, 0.04583330452442169, 0.19602391123771667, -0.0762312188744545, 0.04923384264111519, -0.08104021847248077, -0.015326875261962414, -0.0003393538645468652, -0.17505335807800293, -0.7210238575935364, -0.2798672616481781, -0.07991563528776169, 0.46924784779548645, -0.07510101795196533, 0.2866666316986084, 0.5300297141075134, 0.19534742832183838, -0.21339090168476105], [0.20868664979934692, -0.06513141095638275, -0.39294660091400146, 0.03736410290002823, -0.39525970816612244, -0.35030415654182434, -0.21772275865077972, -0.13941718637943268, 0.3909520208835602, -0.42026522755622864, 0.34425872564315796, -0.21809622645378113, 0.30352452397346497, -0.3519217371940613, 0.01662004366517067, 0.008550060912966728, 0.4415397346019745, 0.4038674831390381, -0.10004457831382751, 0.13409249484539032, 0.02789960242807865, 0.309741735458374, 0.19849978387355804, -0.014244322665035725, -0.002426111837849021, 0.021207068115472794, -0.19605499505996704, -0.12111334502696991, 0.2904493510723114, 0.3263387680053711, 0.13051041960716248, -0.4190264344215393, -0.24825389683246613, -0.30601614713668823, -0.2324833869934082, 0.26690831780433655, 0.0390516072511673, 0.1854570060968399, 0.01986728236079216, 0.3807770311832428, 0.17866526544094086, 0.30216118693351746, 0.06598423421382904, -0.07878103107213974, 0.5345538854598999, -0.2995803952217102, 0.15351331233978271, 0.0005629942170344293], [-0.18487673997879028, 0.49463772773742676, 0.06740336865186691, -0.43366584181785583, 0.32826071977615356, 0.2130725234746933, 0.23959435522556305, 0.7466896772384644, -0.09216533601284027, -0.3490395247936249, -0.6702743768692017, -0.05951324850320816, 0.23688091337680817, 0.08793201297521591, 0.13901734352111816, 0.12993694841861725, -0.45991629362106323, 0.050275567919015884, -0.10993081331253052, 0.23792889714241028, -0.3179963529109955, 0.1409262865781784, -0.28717461228370667, -0.06128937751054764, -0.3105289936065674, 0.2138037383556366, 0.25298646092414856, -0.2516361176967621, -0.5452907085418701, -0.0726301521062851, -0.1020301952958107, 0.28648117184638977, -0.06956949084997177, -0.17559188604354858, 0.2194725126028061, 0.24417395889759064, 0.21490901708602905, 0.267960786819458, -0.27208349108695984, -0.36511775851249695, 0.15973696112632751, -0.14520521461963654, 0.19888663291931152, -0.33802154660224915, -0.011725355871021748, 0.03133678063750267, 0.11711601167917252, -0.08370469510555267], [-0.25375843048095703, 0.09859557449817657, -0.12269695848226547, 0.36398550868034363, 0.01724509336054325, 0.06736675649881363, 0.005287353880703449, -0.12215345352888107, -0.309725284576416, 0.5554789304733276, -0.612187922000885, -0.29590484499931335, -0.43547579646110535, -0.443670392036438, 0.004723358433693647, -0.16536737978458405, -0.34686699509620667, 0.26092326641082764, -0.02785874344408512, -0.15740932524204254, 0.27711397409439087, -0.26556310057640076, -0.3895328640937805, 0.0640915185213089, 0.05078665167093277, -0.2519480586051941, 0.38581791520118713, -0.03959459811449051, 0.11096793413162231, 0.13401055335998535, -0.0661938339471817, -0.2046004682779312, -0.13940465450286865, 0.25462716817855835, -0.008803356438875198, 0.10037069022655487, 0.16504068672657013, 0.31504857540130615, -0.1603250503540039, 0.20271438360214233, 0.5197973251342773, 0.4150669574737549, -0.15799035131931305, -0.45779943466186523, -0.09827059507369995, 0.008982009254395962, -0.2051602303981781, -0.3526281714439392], [0.057554759085178375, -0.27494534850120544, -0.26412779092788696, -0.19992797076702118, -0.221317321062088, -0.02957993932068348, -0.1418888419866562, 0.2996200919151306, -0.08105311542749405, 0.559831440448761, -0.329882949590683, 0.0020931304898113012, -0.037696946412324905, -0.05573723092675209, -0.32166460156440735, 0.199521005153656, 0.30059802532196045, -0.18189887702465057, 0.16765610873699188, 0.1428816169500351, -0.4192245602607727, 0.03677166625857353, -0.08976106345653534, 0.32244834303855896, 0.5292819738388062, 0.30567270517349243, 0.19361524283885956, -0.08678528666496277, -0.2678283751010895, 0.6022372841835022, 0.2228657603263855, -0.037549521774053574, 0.11968129873275757, -0.05411877855658531, 0.09781284630298615, -0.25235408544540405, 0.02431587316095829, -0.1600545048713684, -0.050726596266031265, -0.07111137360334396, -0.2334177941083908, -0.04757015407085419, -0.37913307547569275, -0.16466040909290314, 0.03915867954492569, 0.011247637681663036, 0.013208636082708836, 0.07423003017902374], [-0.3073451519012451, -0.33445975184440613, 0.033350247889757156, 0.16322840750217438, 0.2189902514219284, 0.37864169478416443, -0.27433082461357117, -0.39917540550231934, -0.02709949016571045, 0.46695762872695923, 0.25261378288269043, 0.06322746723890305, -0.1354394108057022, 0.40538278222084045, 0.3406424820423126, -0.10424003005027771, -0.04115263745188713, 0.22089797258377075, -0.8030985593795776, 0.350963294506073, 0.2827376127243042, -0.15076634287834167, -0.40332546830177307, 0.22044074535369873, 0.3739171326160431, -0.01782964915037155, -0.1522550880908966, 0.1355689913034439, 0.021206924691796303, 0.29756689071655273, -0.2075175791978836, 0.4481844902038574, 0.46755820512771606, 0.02989422343671322, -0.26700517535209656, -0.0073030428029596806, 0.39334315061569214, 0.5590665340423584, -0.06717900931835175, 0.12335548549890518, -0.15886420011520386, 0.1674482226371765, -0.13499478995800018, -0.13469140231609344, 0.03934944421052933, 0.2082490622997284, -0.5336191058158875, -0.12741197645664215], [-0.635476291179657, 0.08479923009872437, 0.01449494156986475, -0.06733118742704391, -0.11765831708908081, 0.25116172432899475, -0.49556440114974976, 0.13350309431552887, 0.6094337701797485, -0.4181591868400574, 0.23904184997081757, -0.19370129704475403, 0.046031929552555084, -0.10885120183229446, -0.2275986224412918, -0.16608089208602905, 0.023743903264403343, 0.26681557297706604, -0.09781114757061005, 0.07723744213581085, -0.03752713277935982, -0.16591863334178925, -0.09218678623437881, 0.21678420901298523, -0.12029518932104111, -0.29204991459846497, 0.09949232637882233, 0.1319732964038849, -0.013638461008667946, -0.1549946367740631, 0.016867784783244133, -0.028533251956105232, -0.41774782538414, 0.02798328921198845, -0.18810561299324036, 0.035839468240737915, -0.09099654108285904, -0.022482026368379593, 0.22595266997814178, 0.2311164140701294, -0.35972946882247925, -0.015261923894286156, -0.6952223181724548, 0.07599162310361862, -0.011348560452461243, 0.2029186636209488, -0.3781852126121521, -0.0936792716383934], [0.27264395356178284, 0.14368316531181335, 0.2704242467880249, 0.07219315320253372, -0.14749395847320557, -0.44142240285873413, -0.3332271873950958, -0.3234832286834717, -0.05690467357635498, 0.10332706570625305, -0.4068653881549835, -0.2498004287481308, 0.12705418467521667, -0.1310739517211914, 0.031261198222637177, -0.2615453898906708, -0.14314748346805573, 0.12248578667640686, -0.6448042988777161, -0.4157634675502777, -0.11878783255815506, -0.1152396872639656, -0.246429905295372, 0.3049428462982178, -0.026601117104291916, -0.017808055505156517, -0.008598346263170242, 0.002580334898084402, -0.07984540611505508, 0.07196196913719177, -0.23634766042232513, -0.4317738711833954, 0.031055258587002754, -0.030994338914752007, -0.4829903244972229, 0.1685609519481659, 0.31425026059150696, -0.2945845425128937, -0.28613343834877014, -0.03131697699427605, 0.2907083034515381, 0.05002383142709732, 0.4132051169872284, -0.0635857954621315, 0.18623241782188416, -0.07982581853866577, 0.20355460047721863, 0.24203595519065857], [0.4036591649055481, 0.2606077492237091, -0.178970068693161, -0.044740643352270126, -0.1642347276210785, -0.3223705589771271, -0.06557036191225052, -0.523619532585144, -0.6051086783409119, 0.4213339686393738, -0.09224610030651093, 0.4506583511829376, 0.1573660522699356, 0.42021262645721436, -0.19107939302921295, 0.08918488025665283, 0.43238428235054016, -0.032437339425086975, -0.3465445339679718, -0.13578985631465912, 0.4783259928226471, 0.34189900755882263, -0.14727218449115753, -0.11849232017993927, 0.2324138879776001, 0.001423961017280817, -0.06819518655538559, -0.2047342211008072, 0.35258132219314575, -0.11711660027503967, -0.07833271473646164, 0.10478552430868149, -0.4157538115978241, 0.27124297618865967, -0.286133736371994, 0.03462475538253784, -0.11842767149209976, -0.210617795586586, 0.04475056752562523, 0.0015971572138369083, -0.3400673568248749, -0.1284622997045517, -0.2154332548379898, 0.011972466483712196, -0.23766082525253296, -0.03907888010144234, 0.33481335639953613, -0.00792758259922266], [0.2060633897781372, -0.19734399020671844, 0.24633800983428955, 0.0986383929848671, 0.2808876037597656, -0.769752025604248, -0.587217390537262, -0.28976312279701233, 0.1649448424577713, 0.09182178229093552, 0.05188645422458649, 0.08036048710346222, 0.17320331931114197, 0.09961926937103271, 0.4222322106361389, 0.08904598653316498, -0.09772471338510513, 0.02454279735684395, -0.17720741033554077, 0.3853980004787445, 0.6188740134239197, 0.15145520865917206, -0.4229937493801117, 0.0986563041806221, -0.03655996918678284, 0.10836619883775711, -0.17899483442306519, -0.07352542877197266, 0.0670444667339325, 0.024691564962267876, -0.026243697851896286, -0.19924050569534302, -0.35563531517982483, -0.38327261805534363, 0.2552137076854706, -0.07183744013309479, 0.5755115151405334, -0.3760315477848053, 0.07363788783550262, 0.16244091093540192, 0.5031378269195557, -0.17393770813941956, 0.049372121691703796, -0.40286344289779663, -0.07693420350551605, -0.31003397703170776, -0.5160559415817261, -0.23910580575466156], [0.2771594226360321, 0.21768033504486084, -0.23126360774040222, -0.066249780356884, -0.47127899527549744, 0.3920080363750458, 0.6181424856185913, -0.14925019443035126, -0.21556875109672546, 0.08044487982988358, 0.07902780920267105, 0.16470937430858612, 0.16745713353157043, 0.40062645077705383, 0.315695583820343, -0.1475374698638916, 0.011624175123870373, 0.3376167118549347, -0.07895626127719879, 0.21584667265415192, 0.07261846214532852, 0.3375754654407501, -0.2884901463985443, -0.05584072321653366, 0.2372685670852661, 0.23463648557662964, 0.27926918864250183, 0.2419065237045288, -0.3406003713607788, 0.07129077613353729, 0.13418777287006378, -0.04903947561979294, -0.13998927175998688, -0.03555041551589966, 0.22666984796524048, 0.15739528834819794, -0.16435347497463226, -0.05489549785852432, -0.015781162306666374, -0.04765193536877632, 0.05242808908224106, 0.37375813722610474, -0.035007111728191376, 0.07957656681537628, -0.06534907221794128, -0.41264742612838745, -0.20919370651245117, 0.009864219464361668], [0.11740052700042725, -0.4300360679626465, -0.31404998898506165, 0.14946819841861725, -0.14881354570388794, -0.033829737454652786, 0.22594304382801056, -0.11811824887990952, 0.0030317616183310747, 0.032252632081508636, -0.08676116913557053, 0.635077714920044, 0.21587006747722626, 0.04192760959267616, -0.19979438185691833, -0.20669230818748474, -0.3070931136608124, 0.14483554661273956, 0.11145184189081192, -0.3930823504924774, 0.21337907016277313, -0.13450904190540314, -0.4871717691421509, 0.022322775796055794, 0.19037902355194092, -0.14631007611751556, -0.47623711824417114, -0.0015253510791808367, 0.47466859221458435, -0.3848056197166443, -0.11736024171113968, -0.24697846174240112, -0.26535260677337646, -0.07196672260761261, -0.10226131975650787, 0.23860342800617218, 0.008567105047404766, 0.09533368051052094, 0.2295391857624054, -0.14970824122428894, -0.1581229865550995, -0.0030238956678658724, -0.8243626356124878, -0.27685296535491943, -0.26264411211013794, 0.17900806665420532, 0.09501054883003235, 0.04957196116447449], [0.33994728326797485, -0.25181788206100464, 0.04302586615085602, -0.21000878512859344, -0.047393798828125, -0.10684715211391449, 0.05329645425081253, -0.09672912955284119, -0.37250009179115295, -0.3163510859012604, 0.48233070969581604, -0.47335880994796753, 0.07010265439748764, -0.13066935539245605, -0.2884415090084076, -0.3000178039073944, -0.2545817196369171, 0.156973734498024, 0.16418839991092682, -0.06753028929233551, 0.044515203684568405, 0.3396841585636139, 0.2701728940010071, 0.09803029149770737, -0.007174673955887556, -0.11931921541690826, 0.3758804500102997, 0.07145887613296509, -0.02585924230515957, 0.2131071835756302, 0.1795792281627655, 0.34221717715263367, -0.5154725313186646, -0.06494585424661636, -0.3286786675453186, -0.1473616510629654, -0.3691578209400177, 0.16717740893363953, 0.25497761368751526, -0.03726127743721008, 0.16075029969215393, -0.024854891002178192, -0.12469019740819931, -0.17028313875198364, 0.04428112134337425, 0.45750749111175537, -0.2588953971862793, -0.15992221236228943], [-0.06647033989429474, -0.3401176929473877, -0.16081960499286652, -0.00511736748740077, -0.22363188862800598, -0.15200844407081604, -0.19539040327072144, 0.49796563386917114, -0.07384561002254486, -0.1885187327861786, 0.06465530395507812, 0.1186651960015297, 0.15386423468589783, 0.4067215025424957, -0.01202371995896101, -0.11557497829198837, 0.2568480968475342, -0.5088770389556885, -0.17786316573619843, 0.06292681396007538, -0.17515110969543457, 0.16127881407737732, -0.10131911188364029, 0.04368765652179718, 0.5047869086265564, -0.37416747212409973, 0.5845621824264526, -0.050271667540073395, -0.6539470553398132, -0.13608717918395996, -0.26441487669944763, 0.07586628198623657, -0.2998378872871399, -0.05510025471448898, 0.005691686645150185, -0.14064748585224152, 0.06582974642515182, 0.3060019016265869, 0.037757162004709244, 0.19996172189712524, 0.4150213301181793, 0.09326182305812836, -0.2735776901245117, 0.07837419211864471, 0.181624636054039, 0.05198868364095688, 0.02845878154039383, -0.29325175285339355], [-0.03938198462128639, 0.03370242193341255, -0.0005632627289742231, -0.7199829816818237, -0.22361689805984497, -0.09225565195083618, -0.4386690855026245, 0.7539279460906982, -0.3546985685825348, -0.002208492485806346, 0.09161773324012756, 0.4098968505859375, 0.05926860496401787, 0.40118446946144104, 0.5331775546073914, 0.04694996029138565, 0.14170844852924347, 0.09987719357013702, 0.21600210666656494, 0.2527214288711548, 0.11418977379798889, 0.06075444445014, 0.7265195250511169, 0.039633363485336304, -0.33165401220321655, -0.10055641084909439, -0.1676555871963501, -0.14644062519073486, 0.24204032123088837, 0.2335873395204544, -0.027463600039482117, 0.0014025294221937656, -0.2209676206111908, -0.01303159911185503, -0.1282287836074829, 0.3501572906970978, 0.08168056607246399, -0.07418320327997208, -0.17335882782936096, 0.06585289537906647, 0.1584588587284088, -0.096674345433712, -0.2600233852863312, 0.0004751179367303848, -0.43524041771888733, -0.1991984099149704, 0.4617207944393158, -0.3890531361103058], [-0.11438926309347153, 0.1119113489985466, -0.09378566592931747, 0.004885433707386255, -0.19227300584316254, 0.18669827282428741, 0.3019632399082184, 0.0985691025853157, -0.09865955263376236, 0.0019790027290582657, -0.006170934531837702, -0.06368560343980789, -0.256183385848999, -0.08848617970943451, -0.3340245485305786, 0.03490234166383743, -0.05518285185098648, 0.4829053282737732, -0.3160272240638733, -0.02236318029463291, -0.0744631290435791, 0.2812194526195526, -0.16706180572509766, -0.2744632065296173, -0.19541101157665253, -0.194118469953537, -0.5387418866157532, 0.33488762378692627, -0.19726988673210144, 0.002998227719217539, -0.040235020220279694, -0.03643007576465607, 0.06329822540283203, -0.18645931780338287, -0.4335857629776001, -0.32604077458381653, 0.2515111267566681, -0.568510890007019, -0.3356253504753113, 0.18552134931087494, -0.4181068539619446, -0.019569581374526024, -0.0739942416548729, -0.09746800363063812, 0.019760124385356903, 0.05182953178882599, 0.6725286245346069, 0.1680421382188797], [-0.18401005864143372, 0.21297316253185272, 0.6370352506637573, 0.0869176909327507, -0.06049853935837746, 0.1883634328842163, 0.11768048256635666, 0.6940069794654846, -0.09832748770713806, 0.24642576277256012, -0.2990725040435791, 0.01250805240124464, -0.18581821024417877, 0.07787897437810898, 0.07338360697031021, -0.09004150331020355, 0.16156964004039764, 0.23766668140888214, 0.3697863519191742, -0.061548952013254166, -0.024561753496527672, 0.07666252553462982, 0.5557507276535034, -0.010334542952477932, 0.40793293714523315, -0.2610495984554291, -0.21988937258720398, 0.03147422894835472, 0.38977792859077454, 0.14479711651802063, -0.4493359625339508, 0.1727202981710434, 0.0702069103717804, -0.6200368404388428, 0.11427421867847443, -0.28185370564460754, -0.2224070131778717, 0.23335252702236176, -0.08803624659776688, 0.09812124073505402, -0.2442619502544403, -0.36007973551750183, 0.04726928099989891, 0.16208593547344208, 0.09225064516067505, -0.2124951183795929, 0.4747943580150604, -0.2791593372821808], [-0.32138511538505554, -0.2225005328655243, 0.04530757665634155, 0.295955628156662, -0.48273250460624695, -0.05313236266374588, 0.1822604537010193, 0.1699587106704712, -0.530799925327301, 0.10140565782785416, -0.05655989795923233, -0.1095854714512825, 0.1505591720342636, -0.6358121037483215, 0.06480161100625992, -0.31278422474861145, -0.6528331637382507, 0.21264073252677917, 0.14050956070423126, 0.10028418153524399, 0.1357783079147339, 0.01530596986413002, -0.1836872696876526, 0.11095594614744186, -0.138273686170578, 0.24308481812477112, 0.12222183495759964, -0.19026349484920502, 0.11627297103404999, 0.11128722131252289, -0.004373456817120314, -0.1975727379322052, 0.08946088701486588, 0.5674451589584351, -0.512542724609375, -0.1860726773738861, -0.44398778676986694, -0.22433389723300934, -0.1947651505470276, -0.2414301633834839, 0.1229282021522522, 0.2851388454437256, -0.05721510574221611, -0.18720196187496185, 0.49211880564689636, 0.14239764213562012, 0.05015462264418602, -0.0016430242685601115], [0.041491225361824036, 0.22219955921173096, -0.06527772545814514, 0.06401820480823517, -0.4105004072189331, -0.23142553865909576, -0.5805308222770691, 0.4032069444656372, -0.20752093195915222, -0.06944599002599716, -0.5280126333236694, -0.053974077105522156, 0.23329104483127594, 0.08204670995473862, -0.05960547924041748, -0.06950389593839645, -0.09184898436069489, 0.057958584278821945, -0.368194043636322, 0.02799614891409874, -0.23166492581367493, -0.08545000106096268, 0.43522852659225464, 0.11063721030950546, -0.1342645138502121, 0.1286810040473938, -0.18304699659347534, -0.30196473002433777, -0.5361202955245972, 0.02548147551715374, -0.5108451843261719, -0.17479924857616425, 0.1325887143611908, -0.041324682533741, 0.16987457871437073, -0.31965088844299316, -0.42321592569351196, -0.1389719694852829, 0.10642294585704803, 0.09529358893632889, -0.25363418459892273, -0.26162242889404297, 0.258423775434494, -0.03908245638012886, -0.23426885902881622, -0.0737140104174614, 0.17967748641967773, -0.06329299509525299], [0.4533954858779907, 0.2510727047920227, -0.0758664608001709, -0.27564942836761475, 0.10724964737892151, 0.5105147361755371, -0.06268120557069778, 0.5811939835548401, -0.07628224790096283, 0.7412956953048706, -0.09289857000112534, -0.09861487150192261, 0.13092467188835144, 0.23382990062236786, -0.26762905716896057, -0.24258477985858917, 0.10503804683685303, 0.3433081805706024, -0.47477850317955017, -0.19124896824359894, 0.0885571837425232, 0.022145047783851624, 0.07233588397502899, -0.1471426635980606, -0.09641695767641068, -0.22522187232971191, -0.08739970624446869, -0.004279786720871925, -0.02787122130393982, -0.06985074281692505, -0.12921670079231262, 0.1366690844297409, 0.0358506441116333, -0.10279339551925659, 0.0030249757692217827, 0.24586887657642365, 0.19102248549461365, -0.06503595411777496, 0.5911917686462402, 0.3986043334007263, -0.15685296058654785, 0.02638944610953331, 0.12256916612386703, -0.6270284652709961, 0.2790398597717285, 0.3041214048862457, -0.29803404211997986, 0.19798092544078827], [0.06793654710054398, -0.023645926266908646, -0.2893218696117401, 0.12222498655319214, -0.39620766043663025, -0.2868979573249817, -0.16227445006370544, -0.16797487437725067, -0.09736771881580353, 0.3238263428211212, 0.18201082944869995, 0.6037206649780273, 0.044005151838064194, 0.2722790837287903, 0.43498313426971436, -0.08624695986509323, -0.17385923862457275, -0.006905498914420605, 0.11880834400653839, -0.11150803416967392, -0.024810703471302986, -0.35969430208206177, -0.4635179340839386, -0.19131049513816833, -0.0760350301861763, 0.20939363539218903, 0.0714607983827591, 0.30508002638816833, -0.295581191778183, 0.1698242723941803, -0.2143768072128296, 0.13940806686878204, -0.13536512851715088, 0.2080678641796112, 0.025082841515541077, 0.039694588631391525, 0.37378695607185364, -0.12043838948011398, 0.06699397414922714, -0.1097772866487503, 0.1630258411169052, -0.4290825426578522, -0.6215003132820129, -0.35568317770957947, 0.8726654052734375, 0.27448928356170654, -0.6188100576400757, 0.5135102868080139], [-0.32578715682029724, -0.5706964135169983, -0.031331658363342285, 0.2736445665359497, 0.12112141400575638, 0.09314779192209244, -0.0017454398330301046, -0.48857632279396057, -0.07763063907623291, -0.34421294927597046, 0.12318345159292221, -0.19304689764976501, -0.3628728985786438, 0.09754037857055664, -0.08068017661571503, 0.013793958351016045, 0.0774306207895279, -0.009170085191726685, 0.20651014149188995, -0.24172310531139374, 0.13190926611423492, 0.3373926877975464, 0.09277036041021347, 0.5011370182037354, -0.16435319185256958, -0.10446548461914062, -0.13141264021396637, 0.3195762634277344, -0.30407750606536865, -0.23342669010162354, -0.10181751847267151, 0.025361668318510056, 0.3333968222141266, -0.45911282300949097, 0.21163195371627808, 0.476754754781723, 0.14904658496379852, -0.45539021492004395, 0.1595481038093567, 0.4361383020877838, 0.03765304014086723, 0.1338108330965042, -0.02733498439192772, 0.002761529991403222, 0.29557815194129944, 0.16610603034496307, 0.028033001348376274, -0.21523334085941315], [0.009102917276322842, -0.759037971496582, 0.17161044478416443, -0.1772678941488266, -0.029952414333820343, -0.06369959563016891, 0.06328429281711578, 0.23119767010211945, -0.04399519041180611, -0.14717084169387817, -0.027042372152209282, 0.7210578918457031, -0.07671260833740234, 0.09163461625576019, 0.21539215743541718, 0.029250798746943474, -0.09689801931381226, 0.13386812806129456, -0.08753448724746704, -0.2107541710138321, -0.07706493139266968, 0.2510133683681488, 0.28418928384780884, -0.16381102800369263, -0.2745193541049957, -0.15046533942222595, 0.5192843675613403, -0.010337256826460361, -0.005717576015740633, -0.2096196562051773, 0.09759299457073212, 0.10314952582120895, 0.12537741661071777, 0.36009883880615234, 0.1879240721464157, -0.5351629853248596, 0.023334944620728493, -0.06096169725060463, 0.13035672903060913, 0.17393018305301666, 0.4563863277435303, -0.14157360792160034, -0.3754338026046753, -0.04913785308599472, 0.3148352801799774, -0.2176850438117981, 0.01664462313055992, 0.2264023870229721], [0.025261731818318367, 0.0980941578745842, -0.0738469809293747, 0.5434081554412842, 0.21346844732761383, -0.011855208314955235, -0.21104620397090912, -0.014204464852809906, 0.151626318693161, -0.01633518747985363, 0.3766554296016693, -0.5452730655670166, 0.0643480122089386, 0.43199750781059265, 0.07142136245965958, 0.13885755836963654, -0.06330406665802002, -0.022000279277563095, 0.104563407599926, -0.11804990470409393, -0.30904796719551086, 0.14719364047050476, -0.1088728979229927, -0.10760997980833054, -0.47470375895500183, -0.3411968946456909, -0.23438353836536407, -0.33543649315834045, -0.10195892304182053, 0.22369183599948883, -0.20218582451343536, -0.28596243262290955, 0.39070364832878113, -0.09161373227834702, 0.5035338997840881, -0.18672606348991394, -0.11248227208852768, -0.20205636322498322, -0.2046997994184494, 0.07643672823905945, 0.28218668699264526, -0.28564050793647766, 0.11373945325613022, -0.1667257696390152, 0.1624981015920639, 0.18852543830871582, -0.25480639934539795, 0.11206192523241043], [0.368151992559433, -0.02814742736518383, 0.011483949609100819, 0.22422735393047333, -0.12413697689771652, 0.11940257996320724, 0.606334388256073, 0.14669035375118256, 0.05580328777432442, -0.25530287623405457, 0.37232285737991333, 0.1971326321363449, 0.03194994479417801, -0.401907742023468, -0.44466954469680786, -0.20771607756614685, -0.6381701827049255, -0.13431081175804138, 0.20197591185569763, -0.24286925792694092, 0.29339754581451416, -0.07027341425418854, -0.10425834357738495, -0.0383351668715477, -0.31568777561187744, -0.0666203647851944, 0.1258615106344223, -0.22551879286766052, -0.3102356493473053, 0.2729949355125427, 0.1010453999042511, 0.47484368085861206, 0.12841160595417023, 0.189170241355896, 0.0038327218499034643, 0.12597046792507172, 0.45076557993888855, 0.056692395359277725, 0.29875481128692627, -0.14140111207962036, 0.07861126959323883, 0.2019163966178894, 0.11146646738052368, -0.13792701065540314, 0.3563225567340851, -0.32888296246528625, 0.19498102366924286, 0.051356684416532516], [-0.07041320949792862, 0.5665654540061951, 0.5260398983955383, -0.22770078480243683, 0.027460303157567978, 0.10464685410261154, -0.3181110918521881, 0.16937395930290222, -0.283039391040802, -0.4832989573478699, -0.23466114699840546, -0.19104954600334167, 0.20254015922546387, 0.11818579584360123, -0.3254852294921875, 0.002695811679586768, -0.12347400188446045, 0.25527867674827576, -0.5297743678092957, 0.3279067575931549, 0.00708801532164216, 0.2457587867975235, -0.3800640404224396, -0.41105249524116516, -0.26454728841781616, -0.2798007130622864, -0.008840642869472504, -0.17411698400974274, -0.01890053041279316, 0.05547265335917473, -0.24468618631362915, -0.3203427493572235, 0.19659803807735443, -0.302839994430542, -0.10400226712226868, 0.14746631681919098, -0.30830544233322144, -0.364989697933197, 0.3214515447616577, -0.043105389922857285, 0.28897079825401306, 0.10414321720600128, 0.09014636278152466, 0.053101688623428345, 0.17008185386657715, 0.24955441057682037, -0.5611721873283386, 0.07856977730989456], [-0.3619976341724396, -0.012034607119858265, -0.38566845655441284, 0.13070110976696014, -0.06408223509788513, -0.12153079360723495, -0.19120682775974274, 0.24201251566410065, 0.15929509699344635, 0.010118561796844006, 0.07825744897127151, 0.04581750929355621, 0.07800494134426117, 0.5239778161048889, -0.20081312954425812, 0.06393835693597794, 0.42636382579803467, 0.16940522193908691, 0.5905452370643616, -0.24831679463386536, 0.21674339473247528, -0.4746534824371338, -0.26494210958480835, 0.1255178600549698, 0.12314300239086151, 0.16386401653289795, 0.3817616403102875, -0.0012859274866059422, 0.39217787981033325, -0.3698504865169525, -0.18857823312282562, 0.266097754240036, 0.02177894115447998, 0.05854680761694908, -0.0412689745426178, 0.2415737509727478, 0.040172938257455826, -0.1747036874294281, -0.21135392785072327, -0.06289703398942947, 0.16887129843235016, -0.6578826308250427, 0.5804179310798645, -0.07205957174301147, -0.1258557289838791, -0.5811997056007385, -0.6285973191261292, -0.02946489490568638], [-0.12094768136739731, 0.2263820916414261, -0.19066974520683289, -0.3170495927333832, -0.10360679030418396, 0.2931137979030609, -0.12527677416801453, -0.03366098180413246, -0.32475364208221436, -0.44956833124160767, 0.3015764355659485, 0.6492502093315125, 0.07451136410236359, 0.3365779221057892, -0.034203462302684784, 0.20745159685611725, -0.5771663188934326, 0.02705676108598709, 0.4748409390449524, -0.04256709665060043, 0.1772332787513733, -0.0008592817466706038, -0.4630320072174072, -0.003404006827622652, 0.2022913694381714, 0.29218676686286926, 0.2657860219478607, 0.30676203966140747, -0.024534685537219048, 0.07363776117563248, -0.4031621217727661, -0.018422801047563553, 0.10263538360595703, -0.19434840977191925, 0.22317446768283844, -0.1901981383562088, -0.07261858880519867, -0.21757660806179047, 0.06542383134365082, 0.3242349624633789, 0.41941529512405396, -0.09410135447978973, -0.26986297965049744, 0.2273859679698944, 0.05774178355932236, 0.11572254449129105, -0.2134789228439331, -0.2977350950241089], [-0.2534242868423462, 0.053481023758649826, -0.11628331989049911, 0.3486073911190033, -0.0580514520406723, -0.24788174033164978, 0.17917941510677338, -0.7663866281509399, 0.17481376230716705, -0.139478400349617, -0.46296989917755127, 0.43724119663238525, -0.6426160335540771, 0.15695631504058838, 0.23126807808876038, -0.20468904078006744, 0.45308011770248413, -0.15250952541828156, -0.15912887454032898, 0.19964176416397095, -0.2585209310054779, 0.09871689975261688, -0.06191663071513176, -0.33288055658340454, 0.05586022883653641, 0.23568011820316315, -0.21495340764522552, -0.1588578075170517, 0.3518248200416565, 0.3590626120567322, -0.08714678883552551, 0.2907158136367798, 0.05514053255319595, -0.1920122355222702, 0.2197548747062683, -0.4219035506248474, -0.03808191046118736, -0.08126672357320786, 0.1195446327328682, -0.37359586358070374, -0.06963100284337997, 0.010197746567428112, 0.4792458415031433, 0.25120261311531067, 0.26194310188293457, -0.11514467746019363, -0.21034079790115356, -0.5606905817985535], [-0.17378729581832886, -0.3465629518032074, 0.23642979562282562, 0.33152416348457336, 0.2594700753688812, 0.3607601523399353, -0.12017554044723511, 0.18004658818244934, -0.3133246600627899, 0.33228421211242676, 0.18532328307628632, 0.05446375161409378, -0.09360475838184357, 0.19222520291805267, 0.3317292630672455, 0.17017550766468048, 0.2521950900554657, 0.18412914872169495, -0.08661554008722305, 0.18640121817588806, 0.5149626135826111, 0.036057911813259125, -0.39225971698760986, 0.2993447184562683, -0.3231438100337982, 0.3267073929309845, 0.163240447640419, -0.07099739462137222, 0.7114369869232178, -0.03874216228723526, -0.44618603587150574, 0.27229610085487366, -0.19163548946380615, -0.12030628323554993, 0.13541264832019806, 0.2587454915046692, -0.15759654343128204, -0.21434883773326874, 0.13513611257076263, 0.1955670416355133, 0.2862343490123749, 0.16352149844169617, -0.23782435059547424, 0.20966836810112, 0.3083311915397644, 0.1830660104751587, 0.33853065967559814, 0.447774201631546], [-0.3699610233306885, 0.12816709280014038, 0.16442354023456573, 0.45860084891319275, 0.38060981035232544, -0.24831339716911316, -0.4759719967842102, -0.085597924888134, -0.45836764574050903, -0.5089243650436401, 0.41641053557395935, 0.5273186564445496, 0.35748425126075745, -0.02664947137236595, 0.013161877170205116, 0.262817919254303, 0.331512451171875, -0.016200965270400047, 0.16905726492404938, -0.011863485909998417, 0.5792862176895142, 0.11562617868185043, 0.04290677234530449, 0.2145022451877594, -0.006573549006134272, -0.1191052496433258, 0.20691069960594177, 0.17621243000030518, 0.14471428096294403, -0.19439801573753357, -0.0792931616306305, 0.25286027789115906, 0.1812916100025177, -0.2351303994655609, 0.586736798286438, -0.041139546781778336, -0.11419778317213058, 0.4688447415828705, -0.08824113756418228, -0.22151507437229156, 0.41991686820983887, -0.06731043756008148, -0.09327171742916107, 0.1757073700428009, 0.124813012778759, 0.043958261609077454, -0.04372837394475937, -0.021119391545653343], [-0.17480149865150452, -0.07879612594842911, 0.4266335368156433, 0.3214479386806488, -0.12156390398740768, 0.05410418659448624, -0.4181896150112152, 0.2040892094373703, 0.04655854403972626, 0.4127097725868225, -0.15474843978881836, 0.15414927899837494, 0.5975281596183777, 0.5147765874862671, -0.04174328222870827, 0.0966542512178421, -0.29010799527168274, 0.2488105446100235, 0.14533859491348267, 0.15418098866939545, -0.11574600636959076, -0.033187270164489746, 0.04019387066364288, 0.23065483570098877, -0.17416316270828247, 0.10270487517118454, 0.03723558783531189, 0.40161052346229553, -0.23902501165866852, 0.01869860477745533, 0.379949688911438, -0.21705935895442963, 0.086766816675663, 0.09476994723081589, -0.04231239855289459, -0.2130567878484726, -0.03667128086090088, 0.49576038122177124, 0.17783111333847046, 0.3876701295375824, 0.011141384020447731, -0.16722063720226288, 0.09798470884561539, 0.23970599472522736, 0.3478393852710724, -0.2748946249485016, 0.2688369154930115, -0.3394436538219452], [0.3778402507305145, -0.0670866072177887, 0.048184480518102646, 0.34595057368278503, -0.21536202728748322, 0.36745360493659973, -0.5970824956893921, -0.07221657782793045, -0.02921398915350437, -0.7844207882881165, -0.3243354260921478, 0.4873565137386322, -0.20437036454677582, -0.3045879900455475, -0.09723066538572311, 0.03308064118027687, 0.17899689078330994, 0.43969660997390747, 0.22724249958992004, 0.08113425225019455, 0.28184187412261963, -0.22284261882305145, -0.06129361689090729, 0.072691410779953, 0.00547685194760561, 0.0994468703866005, -0.21717821061611176, -0.04146303981542587, 0.14976055920124054, 0.1272527426481247, 0.42111703753471375, 0.5305125117301941, 0.1502300649881363, -0.015387054532766342, -0.17635340988636017, -0.28068995475769043, -0.1970895230770111, -0.06419480592012405, 0.13465000689029694, -0.003929543774574995, 0.06769174337387085, -0.21858879923820496, -0.02160543017089367, 0.15376482903957367, 0.02319372072815895, 0.012043098919093609, 0.4070430099964142, -0.08693435788154602], [-0.3628764748573303, -0.2524743378162384, -0.6987767219543457, 0.011740678921341896, -0.04382052272558212, -0.24651363492012024, -0.35659974813461304, 0.13542795181274414, -0.027510013431310654, 0.3099215030670166, 0.04078024625778198, -0.4494333267211914, -0.3604779541492462, -0.008454931899905205, 0.16738289594650269, 0.06984357535839081, 0.21377933025360107, -0.10428965091705322, 0.38533103466033936, 0.059328339993953705, 0.3651098608970642, -0.42382583022117615, -0.08941367268562317, -0.0007839404861442745, -0.19486945867538452, 0.07270333170890808, 0.3107260763645172, 0.10552631318569183, 0.11292695999145508, -0.4449833631515503, -0.10612572729587555, -0.11138612776994705, -0.1784108579158783, -0.005641565192490816, -0.04188163951039314, -0.15624292194843292, -0.2081925868988037, -0.1633368730545044, -0.2665751576423645, -0.1259605586528778, -0.18880173563957214, -0.02231229655444622, -0.07359105348587036, 0.23151881992816925, 0.406260222196579, -0.049518413841724396, -0.01111312210559845, -0.22745433449745178], [0.14023450016975403, 0.08307486772537231, -0.24967335164546967, -0.07810670882463455, -0.1488652229309082, -0.190700963139534, -0.3344254195690155, 0.1396377831697464, 0.38271868228912354, 0.1179886981844902, -0.07253582030534744, -0.01207443792372942, 0.412539541721344, 0.1963064819574356, 0.33879753947257996, 0.10699296742677689, 0.2203131467103958, 0.1307414025068283, -0.5829495787620544, -0.27753427624702454, -0.38795703649520874, -0.5004937648773193, 0.3919092118740082, -0.0035967924632132053, 0.17384225130081177, 0.27554112672805786, 0.09805572032928467, 0.2909301519393921, -0.032276783138513565, 0.3631719946861267, -0.026578182354569435, 0.09988879412412643, 0.21976886689662933, -0.33688241243362427, -0.21841055154800415, -0.24097152054309845, 0.10080389678478241, -0.1829545795917511, 0.2647444009780884, -0.155550017952919, -0.05190393328666687, 0.16067999601364136, -0.2212541699409485, 0.052020296454429626, -0.3158029317855835, 0.5506057143211365, -0.4863041043281555, -0.39754119515419006], [0.013303355313837528, 0.08211331814527512, -0.4341088831424713, -0.1505848914384842, -0.2652125358581543, -0.5755033493041992, 0.27592721581459045, -0.05535176768898964, -0.40640580654144287, 0.3399139642715454, -0.5423800349235535, -0.21522974967956543, 0.3196718990802765, -0.2204269915819168, 0.3319472670555115, 0.044697366654872894, 0.16696619987487793, -0.1981615424156189, 0.37542611360549927, -0.2776452898979187, 0.4683464467525482, -0.009154252707958221, -0.1789010465145111, -0.040411677211523056, -0.47471556067466736, 0.014481252990663052, -0.25241169333457947, -0.013134941458702087, 0.17944157123565674, 0.32678133249282837, -0.1233927384018898, -0.30341270565986633, -0.283077210187912, -0.4037003219127655, -0.09152265638113022, -0.565552830696106, 0.38304024934768677, 0.11615006625652313, 0.04830402880907059, -0.33201733231544495, 0.23553699254989624, 0.12324614822864532, 0.02718614973127842, 0.26645413041114807, -0.05575833469629288, -0.4152112901210785, -0.051253143697977066, 0.2936222553253174], [0.6930607557296753, 0.50422203540802, -0.31624630093574524, 0.3758620619773865, -0.15412119030952454, 0.383733332157135, -0.8216893076896667, 0.983247697353363, -0.17980864644050598, 0.0922565758228302, -0.5243663787841797, 0.0461796373128891, 0.3187331259250641, 0.001160430838353932, 0.27698463201522827, -0.01722080633044243, -0.07271809875965118, -0.2434203177690506, -0.1386433094739914, 0.2810257375240326, -0.28896287083625793, -0.17638446390628815, 0.08876165002584457, -0.1786445826292038, -0.02236240729689598, -0.14894549548625946, -0.11671390384435654, 0.05608663707971573, -0.0019047752721235156, -0.13131408393383026, 0.09535744786262512, 0.019736379384994507, 0.028910396620631218, -0.09258180856704712, -0.07158036530017853, 0.12332183867692947, 0.11957330256700516, 0.021490078419446945, 0.1648218035697937, -0.1853230744600296, 0.08363357931375504, 0.2780625522136688, -0.19660042226314545, -0.009444187395274639, 0.021787328645586967, -0.11896265298128128, -0.05259524658322334, -0.22059738636016846], [0.3766930103302002, 0.11107753217220306, -0.27785417437553406, 0.3197166323661804, -0.430900514125824, 0.10049030184745789, -0.2446281760931015, 0.20054924488067627, -0.37896060943603516, -0.42973169684410095, -0.005910465959459543, -0.2809096872806549, -0.3344038724899292, 0.16494810581207275, 0.418024480342865, 0.3321768641471863, 0.23656445741653442, 0.2070770263671875, -0.2549518942832947, -0.14626513421535492, -0.3413269519805908, 0.19063277542591095, 0.48413124680519104, 0.18424052000045776, 0.4254843592643738, 0.0978754386305809, -0.2931192219257355, -0.021586252376437187, 0.574351966381073, 0.2229023277759552, -0.18921400606632233, -0.27632832527160645, -0.11002698540687561, 0.36736974120140076, 0.3416873812675476, 0.13873493671417236, 0.5409714579582214, -0.4053923487663269, -0.2754914462566376, -0.04716742783784866, -0.3559900224208832, -0.261726975440979, 0.19677026569843292, -0.19972014427185059, 0.28252410888671875, -0.2805972993373871, 0.3171752095222473, 0.10483093559741974], [-0.1360732614994049, 0.18579642474651337, 0.18902897834777832, -0.4689076840877533, 0.1313496083021164, 0.24441787600517273, 0.05926833301782608, 0.350963830947876, 0.14523783326148987, 0.22515061497688293, -0.19607391953468323, 0.008331704884767532, 0.035711485892534256, -0.615520715713501, 0.11515979468822479, 0.1344941258430481, -0.14226292073726654, 0.04545458033680916, -0.2974739074707031, 0.0070778424851596355, 0.22057005763053894, -0.2345155030488968, -0.14523474872112274, 0.2850787341594696, 0.03575294092297554, -0.2808723747730255, -0.11864423751831055, 0.31120261549949646, 0.16971313953399658, -0.11529232561588287, -0.23070979118347168, 0.3506760895252228, 0.017392102628946304, -0.10948094725608826, 0.3875430226325989, 0.5296782851219177, -0.09112457185983658, 0.008834929205477238, 0.5753011107444763, 0.26693007349967957, -0.1135236993432045, 0.12499396502971649, 0.3078123927116394, 0.34103184938430786, -0.3043334484100342, -0.23015224933624268, 0.073297418653965, 0.35173070430755615], [0.3874225914478302, 0.09356113523244858, 0.142860546708107, -0.08292093873023987, 0.6128310561180115, -0.5528948903083801, -0.4035660922527313, -0.32910048961639404, -0.17232276499271393, -0.1624903827905655, -0.5151157975196838, 0.15931245684623718, -0.28807637095451355, -0.11625241488218307, -0.05435924232006073, -0.20667223632335663, -0.02755075693130493, -0.2667864263057709, 0.19885076582431793, 0.21097472310066223, 0.19090323150157928, 0.08919313549995422, 0.049213845282793045, 0.08985775709152222, -0.24749943614006042, -0.07563416659832001, 0.5340102314949036, 0.2677678167819977, 0.25284343957901, -0.04120076820254326, -0.21398982405662537, 0.03879672288894653, -0.28613102436065674, -0.18076035380363464, 0.37015068531036377, -0.058311644941568375, -0.404885858297348, 0.07307033985853195, -0.34644845128059387, -0.06529439240694046, -0.055224496871232986, -0.13400869071483612, -0.35673096776008606, -0.13021335005760193, -0.2421770840883255, -0.48095327615737915, 0.07618124783039093, 0.16385869681835175], [-0.44351497292518616, 0.2797287106513977, -0.35689812898635864, -0.0162380188703537, 0.7911136746406555, 0.12708990275859833, 0.1898663341999054, -0.8024168610572815, -0.009953356347978115, -0.42168357968330383, -0.2024214118719101, 0.01881108619272709, -0.19271722435951233, 0.3402082026004791, 0.2774507701396942, -0.44331878423690796, -0.16912606358528137, 0.1613142490386963, 0.3495374917984009, 0.08411745727062225, 0.1629432737827301, 0.16111329197883606, 0.26163193583488464, 0.06132529303431511, -0.0011353589361533523, 0.177769735455513, -0.07012923061847687, 0.060672271996736526, 0.06550206243991852, 0.07183638215065002, -0.013191224075853825, 0.059733036905527115, 0.20080441236495972, -0.06841738522052765, -0.2709265947341919, 0.1295279711484909, -0.12302738428115845, 0.22149379551410675, 0.05794301629066467, 0.008339904248714447, -0.09395498037338257, -0.4299417734146118, -0.07360026985406876, -0.02437704987823963, 0.058438319712877274, -0.11846769601106644, 0.427368700504303, 0.2504928708076477], [-0.06826524436473846, 0.1541716605424881, 7.82624410931021e-05, 0.22198712825775146, -0.40257567167282104, 0.04696085676550865, -0.18756386637687683, -0.24592281877994537, -0.04904678836464882, 0.2506948709487915, -0.3390864133834839, -0.5686307549476624, 0.03434010222554207, -0.07130994647741318, -0.12117509543895721, -0.4056340157985687, 0.13747555017471313, -0.03758229315280914, 0.696118950843811, -0.3770681619644165, 0.38965997099876404, 0.237335667014122, 0.25304511189460754, -0.012143822386860847, -0.07629115134477615, 0.3195095956325531, 0.2894839346408844, -0.05127166956663132, -0.09080107510089874, -0.017206715419888496, 0.23715338110923767, 0.07514113187789917, 0.0029944567941129208, 0.28045839071273804, 0.12360552698373795, -0.15642432868480682, 0.06942348182201385, 0.36642518639564514, -0.03511546179652214, 0.5276587009429932, 0.08764470368623734, 0.4303136467933655, -0.1612691879272461, 0.6516005396842957, -0.07617133855819702, 0.01842692121863365, -0.1980358362197876, 0.24884407222270966], [-0.18080207705497742, -0.05920380353927612, -0.07814937084913254, -0.5625354051589966, 0.3525567650794983, 0.12382955104112625, 0.01915658265352249, 0.38831663131713867, 0.24275338649749756, 0.011220799759030342, -0.35936233401298523, -0.016377126798033714, 0.10192452371120453, 0.01982368715107441, -0.17210885882377625, 0.16625462472438812, -0.0282138604670763, -0.34705182909965515, -0.10606801509857178, -0.14979085326194763, 0.4091046154499054, 0.2371349036693573, 0.2800310254096985, -0.2321881502866745, 0.12919564545154572, -0.0702420249581337, -0.02151596173644066, 0.3808070421218872, 0.46955567598342896, -0.2975800335407257, -0.1184302493929863, 0.038765884935855865, 0.26790517568588257, 0.330271452665329, -0.31087154150009155, -0.2973935902118683, -0.4961349070072174, -0.33563825488090515, 0.21611036360263824, -0.13513056933879852, -0.2343924194574356, 0.006033346056938171, 0.028949424624443054, 0.004946843720972538, 0.15523271262645721, -0.1849254071712494, 0.07589253038167953, 0.01647815853357315], [0.09225321561098099, 0.3455652892589569, -0.08693268895149231, 0.49078628420829773, 0.4510413110256195, -0.2938738763332367, 0.2140621393918991, -0.021119941025972366, 0.05338290333747864, -0.07261567562818527, -0.5789890885353088, -0.5225012302398682, -0.4558250904083252, 0.17567230761051178, -0.024704188108444214, -0.18380384147167206, 0.33680659532546997, 0.11518305540084839, -0.21649442613124847, 0.1524631381034851, -0.2851351201534271, 0.03125210478901863, -0.19166257977485657, 0.008573378436267376, -0.2585752606391907, 0.209660604596138, 0.1547289937734604, 0.43093422055244446, 0.04965928569436073, 0.2896561026573181, 0.19849050045013428, 0.35494092106819153, -0.3840365707874298, 0.23666803538799286, 0.04877396300435066, 0.24911558628082275, 0.016710227355360985, 0.06261149793863297, 0.1209910660982132, -0.2253093421459198, 0.4083198010921478, 0.4423704147338867, -0.3081614375114441, -0.036016643047332764, 0.05322542041540146, -0.16298595070838928, 0.05539071559906006, -0.300616979598999], [-0.41844257712364197, 0.3870930075645447, 0.47451135516166687, -0.13613243401050568, 0.18628902733325958, -0.22694483399391174, -0.24698765575885773, -0.1381251960992813, -0.40698757767677307, 0.4328703284263611, 0.22442683577537537, -0.2167532593011856, 0.26648178696632385, -0.19860170781612396, 0.38587141036987305, 0.1539742350578308, 0.14244085550308228, -0.227879136800766, 0.005275967065244913, 0.14064686000347137, -0.10931664705276489, -0.3772182762622833, -0.32430893182754517, 0.37490981817245483, 0.1793653815984726, 0.3924415111541748, 0.02640894241631031, -0.09105442464351654, 0.10182151198387146, -0.33091527223587036, 0.012410503812134266, 0.11170952767133713, 0.04847902059555054, 0.028329240158200264, -0.04826364666223526, 0.0740538239479065, 0.15492933988571167, -0.32363760471343994, 0.27181950211524963, 0.24171967804431915, -0.06921889632940292, -0.4165880084037781, -0.28145700693130493, 0.3284044563770294, 0.2359224408864975, 0.10518056899309158, -0.22730055451393127, 0.010572529397904873]], "b": [0.09550456702709198, -0.029115930199623108, 0.10509403049945831, -0.023406844586133957, -0.018759222701191902, -0.04905892536044121, 0.025420188903808594, -0.1317753940820694, -0.11674050986766815, -0.054090965539216995, 0.0038925791159272194, -0.034167174249887466, 0.013649350963532925, -0.17687226831912994, 0.030443690717220306, -0.12544412910938263, 0.11504991352558136, -0.10872012376785278, -0.03431595489382744, -0.08132997900247574, -0.050689052790403366, -0.0007894412847235799, -0.05905234441161156, 0.12402401864528656, 0.07476317137479782, -0.06169622391462326, -0.00020266175852157176, 0.025832710787653923, 0.02187027782201767, 0.010691557079553604, 0.05262427404522896, -0.11192391812801361, -0.12314655631780624, -0.05674507096409798, -0.0054479618556797504, 0.15081165730953217, -0.03076055832207203, -0.09988286346197128, -0.02300308272242546, 0.15155768394470215, 0.23987524211406708, -0.09998022764921188, -0.14452116191387177, -0.063419871032238, -0.0444524884223938, -0.0023649188224226236, 0.06554136425256729, -0.17684069275856018, -0.04820017144083977, 0.059779126197099686, 0.058269307017326355, -0.22131848335266113, -0.014602096751332283, -0.12687841057777405, 0.04432354494929314, 0.009779324755072594, 0.038689207285642624, -0.07373461872339249, -0.04604761675000191, -0.12735985219478607, 0.06381342560052872, 0.09794984757900238, -0.058056171983480453, -0.002771324710920453], "activation": "tanh"}, {"w": [[-0.15072257816791534, -0.1827296018600464, -0.3539431691169739, 0.22251547873020172, -0.2634303867816925, 0.12747527658939362, 0.46356266736984253, -0.2959820330142975, -0.19387567043304443, -0.29739144444465637, -0.14422854781150818, -0.13376086950302124, 0.19268850982189178, 0.06606705486774445, 0.05948116257786751, 0.24466492235660553, -0.3237253725528717, -0.028246013447642326, 0.3515148162841797, 0.3125305771827698, 0.16869571805000305, 0.08775840699672699, -0.07368979603052139, 0.18760426342487335, -0.3211485743522644, -0.5366247296333313, -0.4494360089302063, 0.05214036628603935, 0.0041473666206002235, -0.059509288519620895, -0.15053702890872955, 0.32730329036712646, 0.0058133406564593315, -0.0821232870221138, 0.04311347380280495, -0.15407761931419373, -0.2708768844604492, 0.012666000984609127, 0.18548773229122162, 0.3117680549621582, -0.2202211171388626, -0.043483227491378784, 0.24504391849040985, 0.1370353251695633, 0.3336678147315979, -0.06740130484104156, -0.3251974284648895, 0.2852221131324768, 0.3350195288658142, -0.18248161673545837, 0.11324281245470047, 0.41948801279067993, 0.18666638433933258, 0.32411548495292664, -0.06382962316274643, -0.02056943252682686, 0.23519596457481384, -0.03916943445801735, -0.2211298793554306, -0.40659233927726746, 0.0217172522097826, 0.15794667601585388, -0.09184380620718002, -0.33208441734313965], [-0.14829353988170624, -0.03031768836081028, -0.23942214250564575, -0.14774419367313385, -0.4656103849411011, 0.08131712675094604, -0.25525084137916565, -0.17928771674633026, 0.11290895938873291, -0.26975518465042114, 0.30741241574287415, -0.02101775072515011, -0.43445658683776855, 0.20020683109760284, 0.004227966535836458, -0.10988827049732208, -0.4065331518650055, -0.10153788328170776, 0.22556722164154053, -0.210077702999115, -0.23035632073879242, 0.5350604057312012, 0.22091330587863922, 0.2613321542739868, -0.15050499141216278, -0.13714484870433807, -0.26628896594047546, -0.19832457602024078, -0.027575941756367683, -0.06007885932922363, 0.3256583511829376, -0.25421079993247986, 0.282274067401886, -0.43709397315979004, -0.35195276141166687, 0.4180352985858917, 0.1290169656276703, -0.1874694973230362, 0.01480396743863821, -0.026021573692560196, 0.13884925842285156, -0.008517853915691376, -0.19065819680690765, 0.12991349399089813, 0.1782492697238922, -0.15018759667873383, 0.07367733120918274, -0.23143254220485687, -0.043604932725429535, -0.1870737373828888, 0.2252431958913803, 0.03662867471575737, -0.16810528934001923, 0.03024962544441223, 0.047459155321121216, 0.2131267488002777, -0.5377485752105713, 0.37075427174568176, 0.3253529965877533, -0.42797452211380005, 0.11583800613880157, 0.02811199054121971, 0.26188772916793823, 0.01982283405959606], [0.06935541331768036, 0.34034475684165955, -0.0028578259516507387, 0.15776732563972473, 0.11032537370920181, -0.3261943459510803, -0.15210117399692535, -0.01299807894974947, -0.31713590025901794, 0.5313722491264343, -0.1228213906288147, -0.13360047340393066, 0.00799183826893568, -0.6516845226287842, -0.36056962609291077, -0.03559117391705513, -0.040534503757953644, 0.3995012044906616, -0.40766555070877075, 0.41160494089126587, 0.16775643825531006, -0.042687416076660156, 0.2704904079437256, 0.043491240590810776, 0.04355771094560623, -0.18454688787460327, 0.2492283582687378, -0.5376580953598022, 0.38714632391929626, -0.1051480621099472, -0.042310766875743866, -0.06903368979692459, -0.15630950033664703, -0.284501314163208, 0.12627650797367096, -0.1994701474905014, 0.370863139629364, -0.28138259053230286, 0.14815753698349, 0.03767121583223343, 0.18993455171585083, -0.19340699911117554, -0.11655689030885696, 0.1302456110715866, 0.3473520278930664, -0.13652005791664124, -0.09404688328504562, 0.09397948533296585, -0.2414911687374115, -0.3389565050601959, -0.016126355156302452, 0.13760417699813843, -0.2299068123102188, -0.23383040726184845, 0.22127953171730042, 0.5056028366088867, 0.12588848173618317, 0.253083199262619, 0.12125839293003082, 0.112948477268219, -0.44412145018577576, -0.3885749280452728, 0.209060937166214, -0.06519816070795059], [0.1453433781862259, 0.18037398159503937, -0.26637405157089233, -0.2967976927757263, 0.08149755001068115, 0.09698662906885147, 0.3269343972206116, -0.07250179350376129, 0.11691449582576752, -0.014004151336848736, -0.004916497506201267, 0.022481655701994896, -0.009030494838953018, 0.23196259140968323, 0.3075367212295532, 0.3337884545326233, 0.05873197317123413, 0.0964534804224968, -0.03953472524881363, 0.03834981843829155, -0.14047877490520477, 0.5683361887931824, 0.1717376559972763, 0.23644043505191803, -0.08248187601566315, 0.28559374809265137, 0.5745429396629333, -0.16726893186569214, 0.3075939118862152, 0.056171007454395294, -0.2758769690990448, -0.25523555278778076, -0.3154788315296173, 0.13215868175029755, 0.12226400524377823, 0.15341761708259583, 0.0781380906701088, 0.13145670294761658, 0.34409594535827637, 0.3867608606815338, -0.06422484666109085, -0.1482539027929306, -0.34071847796440125, 0.08229316025972366, 0.275277316570282, -0.14698845148086548, -0.2767464220523834, -0.13840827345848083, 0.14285904169082642, -0.27864527702331543, -0.26143157482147217, 0.45913058519363403, -0.3213934898376465, 0.050300538539886475, -0.056700319051742554, 0.8189724087715149, -0.16362135112285614, 0.3367083966732025, -0.043207474052906036, -0.022654056549072266, 0.0466403029859066, 0.22999055683612823, 0.47437697649002075, 0.5895737409591675], [-0.31850022077560425, 0.47431814670562744, -0.08965010941028595, 0.01610308699309826, -0.5178991556167603, -0.09205387532711029, -0.018035488203167915, -0.3531278967857361, 0.06758745014667511, -0.02597387321293354, -0.10629327595233917, 0.45776450634002686, 0.10023719072341919, -0.07063101977109909, -0.35846737027168274, 0.2424999475479126, 0.030049310997128487, 0.035320401191711426, -0.2685035765171051, 0.11656134575605392, 0.34442517161369324, 0.04254927486181259, -0.1807277500629425, -0.05918014422059059, -0.05729873850941658, -0.23686134815216064, -0.3836016356945038, -0.08704490214586258, -0.022316167131066322, -0.4809655249118805, -0.20422987639904022, -0.3064980208873749, 0.10316500067710876, 0.309309184551239, -0.3119608759880066, 0.39056283235549927, -0.4147928059101105, 0.10656173527240753, -0.09011579304933548, 0.00552011514082551, 0.07841549813747406, 0.07461749762296677, -0.20475563406944275, 0.36052265763282776, -0.13773579895496368, -0.005286796018481255, -0.041666626930236816, 0.0556781031191349, -0.37790194153785706, 0.0037839803844690323, 0.13871385157108307, -0.1761033833026886, 0.5530698299407959, 0.1603035181760788, 0.777614951133728, 0.05301288515329361, -0.03968313708901405, 0.05076482519507408, -0.3554341793060303, -0.09245314449071884, 0.19531024992465973, 0.2754012644290924, -0.29614534974098206, 0.32393574714660645], [-0.2695615887641907, 0.014995377510786057, -0.2545630633831024, -0.11014624685049057, 0.40048807859420776, -0.06832478940486908, -0.3233027458190918, -0.21413284540176392, -0.23830750584602356, -0.009267786517739296, -0.25864991545677185, 0.5143800377845764, -0.2329121232032776, -0.2230725884437561, 0.029809495434165, 0.04893495514988899, 0.16358214616775513, -0.38488760590553284, 0.2605772912502289, -0.10347706824541092, -0.18492566049098969, -0.259017676115036, -0.5981493592262268, -0.28143545985221863, 0.35683220624923706, 0.36413678526878357, -0.15671588480472565, -0.46601441502571106, 0.0963771790266037, -0.018295809626579285, -0.021502692252397537, -0.10171884298324585, -0.11400332301855087, 0.10974720865488052, -0.2913573384284973, 0.1096411719918251, -0.3890511393547058, -0.4696410894393921, 0.12596429884433746, 0.2727817893028259, 0.09293381869792938, 0.33813536167144775, 0.10650709271430969, -0.5103034377098083, 0.05932062119245529, 0.334887832403183, -0.18724246323108673, -0.24839313328266144, 0.35978198051452637, 0.23118823766708374, -0.17075225710868835, -0.15748843550682068, -0.11376164853572845, 0.5474473237991333, -0.1414366066455841, 0.017359402030706406, 0.029982827603816986, 0.1759190559387207, 0.031164590269327164, 0.1419816017150879, -0.10890384763479233, -0.12139729410409927, 0.05787692591547966, 0.10291843116283417], [-0.04849497228860855, -0.660864531993866, -0.36196547746658325, 0.18305419385433197, -0.25002291798591614, -0.053702037781476974, 0.33587872982025146, -0.09177647531032562, -0.19753627479076385, 0.1810835599899292, -0.10058677196502686, -0.025861386209726334, -0.04015841707587242, 0.32228899002075195, -0.03825477883219719, -0.281898558139801, -0.47976410388946533, -0.15309178829193115, -0.014969434589147568, -0.008228479884564877, 0.32722505927085876, -0.11631209403276443, 0.14211903512477875, -0.26925432682037354, 0.0682600811123848, 0.10356418043375015, -0.30541521310806274, -0.6632620096206665, 0.05612152814865112, -0.10874895006418228, -0.35703396797180176, 0.07943348586559296, -0.11862988770008087, -0.25969555974006653, 0.06193651258945465, 0.5955365300178528, -0.3689688444137573, 0.11236429959535599, -0.007777417078614235, -0.19727447628974915, -0.02704206481575966, 0.12788186967372894, 0.3108407258987427, -0.16146159172058105, -0.34771689772605896, 0.18741987645626068, 0.2810515761375427, -0.046525049954652786, -0.06888571381568909, 0.3934378921985626, -0.04858343303203583, -0.029140613973140717, -0.23577472567558289, -0.20379720628261566, 0.140899196267128, 0.265543133020401, -0.0014180202269926667, 0.10916876792907715, 0.2876375615596771, 0.18288840353488922, 0.19565729796886444, -0.3721778690814972, 0.1286424845457077, -0.18030616641044617], [-0.19108839333057404, -0.12027096748352051, 0.18547429144382477, 0.0088066216558218, -0.11516837030649185, 0.38660329580307007, -0.20011939108371735, -0.1644212007522583, 0.4432254135608673, 0.0643807128071785, -0.015014777891337872, 0.421314537525177, 0.16498585045337677, -0.1651727706193924, -0.2520265579223633, 0.43752288818359375, -0.27409788966178894, 0.12216677516698837, -0.33584868907928467, -0.001266979961656034, -0.17815859615802765, 0.06347288936376572, 0.11433552950620651, -0.26481184363365173, -0.11314762383699417, 0.25324589014053345, 0.13630887866020203, 0.12749743461608887, 0.0485960990190506, -0.17049190402030945, -0.3693993389606476, 0.41378992795944214, -0.19907160103321075, -0.4025009870529175, -0.09365212172269821, 0.189036563038826, -0.2680530548095703, 0.17468202114105225, -0.0795074999332428, -0.01297595351934433, 0.1426176130771637, -0.19328036904335022, 0.15348413586616516, -0.32778647541999817, 0.05939648300409317, 0.274163156747818, -0.5876670479774475, 0.34279996156692505, -0.3207342028617859, 0.13816244900226593, -0.3901945650577545, 0.2636696696281433, -0.10932279378175735, -0.456991046667099, -0.12621526420116425, -0.12749522924423218, -0.07537686824798584, 0.1964028775691986, 0.315052330493927, -0.039357803761959076, 0.31317996978759766, 0.1601402312517166, 0.209523543715477, -0.44133758544921875], [-0.37739792466163635, 0.128543883562088, -0.03127919137477875, -0.218620166182518, 0.0315386988222599, 0.06817915290594101, 0.45217061042785645, 0.35254740715026855, -0.0051329773850739, -0.09521321207284927, 0.6621068120002747, -0.0667872503399849, 0.2139291912317276, -0.0025832585524767637, 0.06654445827007294, -0.1022249162197113, 0.16363395750522614, 0.11735113710165024, 0.07685884088277817, -0.20995569229125977, 0.4186091721057892, -0.15941108763217926, 0.22914116084575653, -0.24028897285461426, -0.4586237072944641, 0.21089190244674683, 0.3175967335700989, -0.06584793329238892, -0.08994711190462112, -0.049802448600530624, 0.21549052000045776, 0.026474567130208015, 0.25490516424179077, -0.05012466013431549, -0.1307246834039688, 0.5381613373756409, -0.0976673811674118, -0.1404445469379425, -0.3370809555053711, -0.5448945760726929, -0.1268901526927948, -0.5873926877975464, -0.2321360558271408, 0.1433018147945404, 0.33892622590065, -0.21321193873882294, -0.08073952049016953, 0.41928449273109436, -0.16867336630821228, -0.3965386152267456, 0.07948720455169678, 0.09384988993406296, -0.057898394763469696, 0.4448705017566681, -0.028067389503121376, -0.05119435116648674, -0.11914493143558502, 0.5227344632148743, -0.06861716508865356, 0.23888970911502838, -0.10673718899488449, 0.16992324590682983, 0.19730116426944733, -0.04768575355410576], [-0.38037022948265076, -0.07933801412582397, 0.15815505385398865, 0.28150391578674316, 0.3980240523815155, -0.13496887683868408, -0.1429654210805893, 0.379332572221756, -0.05460888892412186, 0.2057441771030426, 0.42910608649253845, -0.3434828519821167, -0.20647428929805756, 0.07443569600582123, -0.16252534091472626, -0.11794259399175644, 0.09480086714029312, -0.32205715775489807, -0.46856674551963806, -0.02050480619072914, -0.08043485879898071, 0.11211107671260834, -0.007242999970912933, -0.2072664350271225, 0.11087546497583389, 0.04220721498131752, 0.15795506536960602, -0.1813797652721405, -0.06119849905371666, 0.25646209716796875, -0.02687409520149231, -0.11888377368450165, 0.08404956012964249, -0.19342002272605896, -0.13842681050300598, -0.08759646862745285, -0.38759541511535645, 0.2208660989999771, 0.1858925223350525, -0.0004499703354667872, 0.4314533770084381, 0.43405893445014954, 0.16060571372509003, -0.4561562240123749, -0.08422103524208069, -0.06505441665649414, 0.5676079392433167, -0.07881957292556763, -0.019877253100275993, 0.16414783895015717, 0.2347942590713501, 0.03665274381637573, -0.022468553856015205, 0.25437265634536743, 0.16535530984401703, 0.19517649710178375, -0.44087618589401245, 0.04769301414489746, 0.061610009521245956, 0.08422275632619858, 0.45359253883361816, -0.03720739111304283, 0.20132997632026672, -0.23827120661735535], [-0.32594117522239685, 0.7159366011619568, -0.1253403127193451, -0.6144130229949951, -0.05500979721546173, 0.019290519878268242, 0.024766869843006134, 0.05531030520796776, -0.14034897089004517, 0.16838686168193817, 0.05416948348283768, 0.2758465111255646, -0.01654856652021408, -0.003206366440281272, -0.5245980024337769, 0.0340251699090004, -0.1394631266593933, -0.24429358541965485, 0.1863500326871872, -0.055774908512830734, -0.11625759303569794, 0.13406513631343842, 0.32220137119293213, 0.135823592543602, -0.0717085599899292, -0.007268168963491917, 0.18895258009433746, 0.1454620361328125, 0.025007998570799828, -0.3881126642227173, 0.06875617057085037, 0.13140173256397247, -0.03277340903878212, 0.31196925044059753, 0.05218106880784035, 0.44511890411376953, 0.3787941336631775, -0.150894433259964, -0.3523252010345459, -0.07709503173828125, -0.4403245747089386, 0.11722464859485626, 0.226202130317688, -0.11508282274007797, 0.14630401134490967, 0.19210538268089294, -0.022410258650779724, -0.2865985333919525, 0.1091301217675209, -0.07366903871297836, 0.02887578308582306, 0.2093001902103424, 0.01757856085896492, -0.2427576184272766, 0.29082632064819336, 0.6017889380455017, 0.29623687267303467, -0.5590600371360779, 0.061810802668333054, -0.02007012628018856, 0.38874197006225586, -0.11942612379789352, -0.23023845255374908, -0.4768260419368744], [0.2981511652469635, 0.16002126038074493, 0.1385650485754013, -0.05875028297305107, 0.0616939403116703, 0.02030792087316513, -0.1541256159543991, 0.26200398802757263, 0.2706374526023865, -0.06904110312461853, -0.35578489303588867, 0.06316151469945908, 0.09714371711015701, 0.19970296323299408, -0.1830979436635971, -0.3800244629383087, 0.2966530919075012, -0.318082720041275, 0.16197675466537476, 0.32808423042297363, 0.1632406860589981, 0.21880501508712769, 0.07407400012016296, 0.184703528881073, 0.29933249950408936, -0.024536971002817154, -0.0105998944491148, -0.06292057037353516, -0.032919760793447495, -0.03783721104264259, 0.07497336715459824, 0.04466495290398598, 0.1478385329246521, -0.014583391137421131, 0.13374613225460052, 0.10584674775600433, 0.2193884551525116, -0.21547508239746094, -0.5581927299499512, 0.3495194911956787, 0.29083526134490967, -0.6510152220726013, 0.07155497372150421, -0.21330970525741577, -0.05466094985604286, 0.07412292063236237, 0.3120606243610382, -0.11320507526397705, 0.28814753890037537, 0.16781514883041382, 0.12024179100990295, -0.03027973510324955, 0.5710203647613525, -0.2543371021747589, -0.2510743737220764, 0.27409690618515015, -0.03393879160284996, -0.5126928091049194, 0.5389336347579956, -0.030040666460990906, 0.007063412107527256, -0.08671271800994873, 0.5253986120223999, 0.4374609887599945], [0.05966281518340111, 0.17837977409362793, 0.2269662469625473, -0.39531102776527405, 0.17020180821418762, -0.07268380373716354, 0.11414387077093124, -0.2807888388633728, 0.17708086967468262, -0.08898713439702988, -0.3202396035194397, -0.13854500651359558, 0.21981672942638397, 0.2225816398859024, -0.17082862555980682, 0.10119163990020752, -0.25883954763412476, 0.102789968252182, -0.02266511879861355, -0.5908607244491577, 0.07911014556884766, 0.20684608817100525, -0.1397669017314911, -0.18807867169380188, -0.08910474181175232, -0.08044569194316864, -0.28295639157295227, 0.01724650152027607, -0.4820564389228821, -0.0519188828766346, -0.09050160646438599, -0.023604094982147217, -0.30459079146385193, 0.2790292203426361, 0.1235983818769455, 0.4025617837905884, 0.1530991941690445, 0.15590934455394745, 0.08953994512557983, -0.002368133282288909, 0.3122972548007965, 0.1261785924434662, 0.01868198998272419, -0.043759893625974655, 0.8553462028503418, -0.2748282551765442, -0.07980803400278091, 0.2733932435512543, -0.21403253078460693, -0.04904365912079811, 0.00794139038771391, 0.09331453591585159, -0.09390037506818771, 0.6720254421234131, -0.11324602365493774, 0.6281691789627075, -0.09589626640081406, 0.29154494404792786, 0.22539234161376953, 0.10521399229764938, -0.006786257494240999, 0.2594386637210846, 0.18797367811203003, -0.10983609408140182], [-0.17413730919361115, -0.09732525050640106, 0.4612535536289215, 0.10030147433280945, 0.41840723156929016, 0.04667208716273308, 0.17572090029716492, -0.2495349794626236, 0.020052460953593254, 0.04040148854255676, 0.08741854876279831, -0.09741584956645966, 0.31497833132743835, -0.2249087393283844, -0.307535320520401, -0.13861782848834991, 0.042859625071287155, -0.11240749061107635, 0.35676905512809753, -0.29812565445899963, -0.13439245522022247, -0.026543596759438515, -0.3815953731536865, 0.5338603258132935, -0.41798868775367737, -0.08934716880321503, 0.07708769291639328, 0.19191154837608337, 0.09579727798700333, 0.4760369658470154, -0.028643371537327766, 0.23469728231430054, 0.18005849421024323, 0.08234048634767532, -0.0068768723867833614, -0.1019817441701889, -0.14111323654651642, 0.15924687683582306, 0.03951764106750488, 0.10404463112354279, 0.49072784185409546, 0.01772266812622547, 0.020993053913116455, -0.37440040707588196, -0.11329908668994904, -0.04398760199546814, -0.045261453837156296, -0.31808432936668396, 0.029691142961382866, 0.07316682487726212, 0.365450918674469, 0.357044517993927, -0.06197870895266533, 0.12392151355743408, 0.46667027473449707, 0.054781608283519745, 0.574593722820282, 0.2679780423641205, 0.16252140700817108, -0.5412742495536804, 0.04299336299300194, 0.06171128526329994, -0.4761771857738495, 0.44192856550216675], [-0.24377480149269104, 0.03930060565471649, -0.4359886944293976, -0.16950808465480804, 0.07739005237817764, -0.28021708130836487, -0.156663715839386, 0.042172834277153015, 0.2228940725326538, 0.13175928592681885, 0.21942225098609924, -0.38793957233428955, 0.6366366147994995, -0.07411898672580719, 0.07467345148324966, -0.031483061611652374, -0.3807241916656494, -0.1909279227256775, 0.03895358368754387, 0.3963019847869873, 0.03301175683736801, -0.2342265546321869, -0.10048501938581467, -0.002859995001927018, -0.12131975591182709, 0.18963749706745148, 0.07044880092144012, -0.15371766686439514, 0.2063886672258377, -0.04253584146499634, -0.01669447496533394, -0.11237549781799316, -0.035302478820085526, 0.34487226605415344, 0.12642861902713776, -0.018426215276122093, 0.011887024156749249, 0.422281414270401, -0.07548736780881882, 0.23680098354816437, -0.23900562524795532, 0.21551376581192017, 0.41844284534454346, -0.13498973846435547, 0.18919570744037628, 0.2141725718975067, -0.3042263388633728, -0.6000892519950867, 0.002409766661003232, -0.022500744089484215, 0.12654505670070648, -0.3563986122608185, -0.012214894406497478, 0.1925191432237625, -0.036356668919324875, 0.429514616727829, 0.4014853239059448, -0.004675957839936018, -0.04099506139755249, 0.03387225791811943, -0.18584196269512177, 0.46531176567077637, -0.1942843496799469, 0.031401120126247406], [-0.09099418669939041, 0.46045538783073425, 0.08864016085863113, -0.07521024346351624, 0.1463451087474823, -0.5244547128677368, -0.016508737578988075, -0.21779045462608337, 0.1661256104707718, -0.04123125597834587, 0.6036484837532043, -0.14876070618629456, 0.07501699775457382, -0.4963111877441406, 0.11122841387987137, -0.11536458879709244, 0.04266708344221115, -0.21317021548748016, 0.41376492381095886, -0.019948456436395645, 0.3798742890357971, 0.2802532911300659, -0.08978018909692764, -0.47136491537094116, 0.3194757103919983, -0.03600645810365677, 0.20658135414123535, 0.3333931863307953, -0.1022440642118454, -0.2865440845489502, -0.059147655963897705, 0.3788182735443115, 0.2817991077899933, -0.024268118664622307, -0.2201353907585144, -0.2310820370912552, -0.30762410163879395, 0.01903774030506611, 0.14185424149036407, -0.05444711819291115, -0.04895966872572899, 0.09719331562519073, 0.23734092712402344, 0.21469290554523468, -0.16124644875526428, 0.045927297323942184, 0.00521124480292201, -0.027479704469442368, -0.006198929622769356, 0.08504684269428253, -0.2910918593406677, 0.4259338080883026, 0.20480851829051971, 0.19343426823616028, -0.5678054094314575, 0.13388726115226746, 0.2904462218284607, -0.13972166180610657, 0.002509135054424405, -0.11031074076890945, 0.034984540194272995, -0.0929386168718338, 0.2114541381597519, 0.14421941339969635], [-0.7018744349479675, -0.033532507717609406, 0.1393858641386032, 0.32757341861724854, 0.06643873453140259, 0.4045739769935608, -0.014129342511296272, -0.22813667356967926, 0.18236790597438812, -0.1860957145690918, -0.14623935520648956, 0.13800649344921112, -0.23257295787334442, -0.03836742416024208, 0.1562182903289795, 0.03186071291565895, -0.2587375342845917, -0.6145545244216919, 0.41045740246772766, 0.19518275558948517, 0.34084129333496094, -0.2209835648536682, -0.18196533620357513, 0.1132252886891365, 0.07867451012134552, -0.1909584403038025, 0.16563570499420166, 0.38955599069595337, -0.13379965722560883, 0.13355648517608643, 0.19923745095729828, -0.0828646868467331, -0.2507803440093994, 0.0869026705622673, -0.10669390857219696, -0.09222201257944107, -0.2657003104686737, -0.08748074620962143, -0.08762391656637192, -0.39238253235816956, 0.0734381452202797, -0.07812684029340744, -0.7952618598937988, -0.16616512835025787, 0.12437687069177628, 0.10082270950078964, -0.15203335881233215, 0.4332491457462311, -0.06320016831159592, -0.11733781546354294, 0.13889597356319427, -0.27276065945625305, -0.01052206102758646, 0.008485985919833183, -0.07825145125389099, -0.24333685636520386, 0.11905693262815475, -0.3619145154953003, 0.11949863284826279, 0.08247653394937515, -0.10355532169342041, 0.15504035353660583, 0.17800354957580566, 0.0026115207001566887], [-0.07611751556396484, 0.18775975704193115, -0.2160668820142746, 0.40848028659820557, -0.1798502504825592, 0.022839630022644997, -0.2139524221420288, -0.1897698938846588, -0.12847913801670074, -0.09519010782241821, 0.3363388180732727, 0.11401201039552689, 0.15350693464279175, -0.07745825499296188, 0.7133563756942749, -0.04576222226023674, -0.07440043985843658, 0.045028287917375565, -0.02493421360850334, 0.07887490093708038, -0.43155398964881897, 0.04635665938258171, 0.24250392615795135, 0.291631817817688, -0.02988283894956112, -0.4085565209388733, -0.030787711963057518, -0.12024438381195068, 0.02135048434138298, 0.02625393494963646, -0.03980402648448944, -0.30021628737449646, 0.2578147053718567, 0.12282129377126694, -0.14114132523536682, 0.43095260858535767, 0.04676848649978638, 0.6994255185127258, 0.14041981101036072, 0.5542028546333313, 0.04833856225013733, -0.4355408251285553, -0.01456446386873722, -0.2234228104352951, 0.02235061675310135, -0.3003700375556946, 0.3472917377948761, 0.040096718817949295, -0.05678430199623108, 0.23565535247325897, -0.19554603099822998, -0.35146161913871765, 0.007567513734102249, 0.512252688407898, 0.1964184045791626, 0.233709916472435, 0.36174333095550537, -0.152216374874115, -0.0044501530937850475, 0.1331489384174347, -0.04068240150809288, -0.25940683484077454, 0.01896418258547783, -0.1337175965309143], [0.21870872378349304, -0.024471472948789597, 0.521294355392456, -0.10597948729991913, 0.23408564925193787, -0.2956160306930542, 0.6210763454437256, -0.2563367187976837, 0.08659710735082626, -0.47246718406677246, 0.06341487914323807, -0.07676342874765396, 0.32960987091064453, -0.06586364656686783, 0.034981388598680496, 0.2835231423377991, -0.2642842233181, -0.009768606163561344, 0.03611058369278908, -0.019089195877313614, 0.4328159987926483, -0.2414255291223526, -0.16614776849746704, -0.09404314309358597, 0.03232757747173309, 0.2386016994714737, -0.25131186842918396, 0.2055923193693161, -0.11417268216609955, 0.3930814862251282, 0.34061717987060547, 0.14784081280231476, 0.13615165650844574, 0.07015255838632584, 0.10952449589967728, -0.37220412492752075, 0.08787808567285538, -0.3878426253795624, 0.15745609998703003, -0.2612048387527466, 0.19457392394542694, -0.40375179052352905, 0.029562195762991905, 0.29463809728622437, -0.12120700627565384, 0.16974835097789764, -0.16047631204128265, -0.3193073272705078, -0.17263679206371307, -0.09719391167163849, -0.03085516393184662, -0.14749744534492493, -0.03200705349445343, 0.15255185961723328, 0.3082756996154785, -0.312523752450943, -0.012979071587324142, -0.17511627078056335, -0.09045512229204178, 0.37697771191596985, 0.3604638874530792, 0.16829654574394226, 0.18481266498565674, -0.4089028537273407], [-0.2372077852487564, 0.044564634561538696, 0.15173573791980743, -0.12195727229118347, -0.5531924962997437, -0.0862298458814621, -0.2530952990055084, -0.15238210558891296, 0.2748052179813385, 0.1435375064611435, 0.6305448412895203, 0.058921802788972855, -0.09366478770971298, 0.30539536476135254, -0.029997210949659348, 0.2972226142883301, -0.0399966798722744, -0.2942408621311188, 0.17254780232906342, -0.26134175062179565, 0.20708610117435455, -0.1373186856508255, -0.07858829945325851, 0.21058188378810883, -0.21785880625247955, 0.1442210078239441, 0.029953481629490852, -0.39139533042907715, 0.061894629150629044, -0.349487841129303, -0.1897411197423935, 0.3394809663295746, -0.30866947770118713, -0.12231400609016418, 0.355865478515625, -0.19998180866241455, 0.3553963899612427, 0.1970878541469574, 0.0755617693066597, 0.13199788331985474, -0.44085562229156494, -0.06602509319782257, 0.4138730764389038, -0.10521014034748077, 0.5552274584770203, -0.21615545451641083, 0.17430806159973145, -0.05646076798439026, 0.011140451766550541, -0.4513414204120636, -0.2135680913925171, 0.17762692272663116, 0.2139730453491211, -0.07680336385965347, 0.4849435091018677, -0.062177252024412155, -0.44662314653396606, -0.25194618105888367, 0.17046742141246796, 0.11126676201820374, -0.09483969956636429, 0.23698052763938904, 0.011171365156769753, 0.08034127950668335], [0.1948455572128296, 0.3206667900085449, -0.02424592338502407, -0.4153446555137634, 0.1288020759820938, 0.2285522222518921, -0.003192777745425701, -0.2861350476741791, -0.4185188412666321, 0.03114422596991062, 0.3837572932243347, -0.3040469288825989, 0.03273119404911995, -0.606766402721405, -0.08176591247320175, 0.12211844325065613, 0.1200186163187027, -0.018131494522094727, 0.4175001382827759, 0.0001915714965434745, -0.04236898198723793, 0.3533194065093994, 0.2650216519832611, 0.03281859681010246, -0.037918057292699814, -0.14272847771644592, 0.07594409584999084, 0.007970280013978481, -0.5345221757888794, 0.34531351923942566, 0.004147544503211975, -0.13456182181835175, -0.01688358746469021, -0.2257789671421051, -0.3798656463623047, 0.13978710770606995, -0.5068923234939575, 0.0508456714451313, 0.1869470328092575, -0.07100953161716461, 0.290803998708725, -0.3341863453388214, 0.10815426707267761, 0.0768490806221962, -0.132745623588562, 0.1289251297712326, 0.054763324558734894, -0.016510946676135063, 0.3110477924346924, 0.44496649503707886, 0.0958925187587738, -0.23001675307750702, -0.31550753116607666, -0.037087976932525635, -0.1514260619878769, 0.33123281598091125, -0.2325437068939209, 0.1109512448310852, -0.09335555881261826, 0.06396709382534027, -0.23764169216156006, -0.33652445673942566, 0.33226466178894043, -0.0062212105840444565], [0.12755994498729706, -0.02336084470152855, 0.17227739095687866, -0.23173528909683228, 0.332705020904541, 0.3035602867603302, 0.4453093707561493, -0.03159688413143158, -0.0011627887142822146, -0.19025442004203796, -0.10576964914798737, 0.15265916287899017, -0.1985509693622589, 0.14304764568805695, 0.10221974551677704, -0.24354030191898346, 0.1414320468902588, -0.020216135308146477, 0.019938845187425613, 0.25166577100753784, -0.43948888778686523, -0.06495688855648041, 0.03265988081693649, -0.1009715348482132, -0.26139119267463684, -0.14594842493534088, 0.11731701344251633, 0.16373974084854126, -0.5282458662986755, -0.4923357665538788, -0.0509188175201416, -0.44184479117393494, 0.0952131599187851, -0.0625382512807846, 0.09293767809867859, 0.08436626195907593, 7.98587134340778e-05, 0.44801217317581177, 0.3080035448074341, 0.04743284359574318, -0.687369167804718, -0.3082342743873596, 0.3008979260921478, -0.11976447701454163, 0.35037535429000854, 0.46640220284461975, -0.2989094853401184, -0.000339690683176741, -0.2627999782562256, -0.30132442712783813, -0.00648571876809001, 0.2518245279788971, -0.0058927773497998714, -0.2665928304195404, -0.06595426797866821, 0.4483826458454132, -0.2290167659521103, 0.13226808607578278, 0.07683905214071274, 0.27741941809654236, 0.19247914850711823, 0.4531867206096649, -0.2077859789133072, 0.19542142748832703], [0.3005511164665222, 0.14158475399017334, -0.06773236393928528, -0.133189395070076, 0.06628276407718658, -0.08342703431844711, 0.48718178272247314, 0.19691015779972076, -0.032879818230867386, -0.37052181363105774, 0.2056250125169754, -0.19999828934669495, 0.07070369273424149, -0.2697829008102417, -0.03894553706049919, -0.17214533686637878, 0.1398843377828598, -0.3437367081642151, -0.14351511001586914, 0.16944295167922974, -0.33682069182395935, 0.22953462600708008, 0.4946816861629486, 0.0974922701716423, -0.044351477175951004, -0.49149319529533386, 0.14677371084690094, -0.018814578652381897, -0.05538896471261978, -0.0993097648024559, -0.07756799459457397, 0.3386504054069519, 0.04241789132356644, 0.08159450441598892, -0.07162696868181229, -0.003424474038183689, -0.09957602620124817, -0.12837570905685425, -0.23930665850639343, -0.08841198682785034, -0.31270739436149597, -0.08269397914409637, -0.30405810475349426, 0.18170012533664703, 0.06941083818674088, 0.0071902163326740265, -0.1681576669216156, 0.33626866340637207, 0.002391462679952383, 0.2667548358440399, 0.15115348994731903, 0.4475609362125397, -0.12945963442325592, -0.07424759119749069, 0.2648618519306183, -0.12219913303852081, -0.3978157639503479, 0.005693018902093172, 0.4698568284511566, -0.0743810310959816, -0.2980670928955078, 0.23358382284641266, 0.6925815939903259, -0.3323877453804016], [0.16452349722385406, -0.09711119532585144, 0.05869317054748535, -0.24485477805137634, -0.1171831265091896, 0.530241072177887, -0.04787110909819603, 0.02794465236365795, 0.2327067255973816, 0.08277895301580429, -0.30456870794296265, -0.012391387484967709, 0.07756095379590988, -0.4579903185367584, -0.31509533524513245, 0.028074344620108604, -0.12121482193470001, -0.6618925929069519, -0.2936718463897705, -0.0857582613825798, -0.10226795822381973, -0.11758338660001755, -0.035704754292964935, -0.17981424927711487, 0.029275521636009216, 0.17655624449253082, -0.298309326171875, -0.2840729057788849, -0.36302968859672546, 0.010537511669099331, -0.24240727722644806, 0.1962689757347107, 0.27122607827186584, -0.26068785786628723, -0.37809380888938904, 0.005343085154891014, 0.13517031073570251, -0.3786986768245697, -0.16074103116989136, -0.24417278170585632, -0.07878246903419495, 0.07891956716775894, -0.23758326470851898, -0.29107847809791565, 0.4361491799354553, -0.17780597507953644, -0.05991457775235176, -0.2773061692714691, -0.04677337035536766, 0.18527162075042725, -0.0905597060918808, -0.07541904598474503, 0.19981077313423157, -0.029402652755379677, -0.5540013909339905, -0.24176210165023804, -0.19672420620918274, -0.09201411157846451, -0.3019401431083679, 0.057741835713386536, -0.18317463994026184, 0.42944419384002686, -0.4370412826538086, 0.07656219601631165], [0.12219663709402084, 0.0026573503855615854, 0.030617253854870796, -0.5966191291809082, -0.13605529069900513, 0.14446459710597992, -0.09283237904310226, 0.10912183672189713, -0.3093410134315491, -0.1817566156387329, 0.22054839134216309, 0.2259376496076584, 0.22393637895584106, 0.23765692114830017, 0.4702778160572052, -0.5388727784156799, 0.32880109548568726, -0.01982293277978897, -0.2748367190361023, -0.33343109488487244, 0.18919484317302704, 