{"name": "10k", "layers": [{"w": [[-0.2162395715713501, 0.4829930365085602, 0.01666162721812725, -0.26336154341697693, 0.7897073030471802, 0.41514983773231506, 0.6598392128944397, 0.38087108731269836, 0.07783103734254837, 0.4769037961959839, 0.5108202695846558, 0.8952956795692444, 0.23556329309940338, -0.7014387249946594, -0.14481279253959656, 0.13087007403373718, -0.7261379361152649, -0.10699634999036789, -0.14074744284152985, -0.4038928747177124, 0.000582888547796756, 0.7583805322647095, -0.4079962372779846, 0.13629965484142303, -0.44159725308418274, 0.3494729697704315, -0.48732033371925354, 0.15748372673988342, -0.8359037637710571, -0.09069671481847763, -0.6705144047737122, 0.3497052788734436, 0.19040916860103607, 0.20749253034591675, -0.22022192180156708, 0.08792690932750702, -0.11317630857229233, -0.1062234491109848, -0.13943921029567719, -0.29756245017051697, 0.3194475769996643, 0.8883012533187866, -0.040109556168317795, -0.15188975632190704, 0.15531893074512482, 0.5360067486763, -0.0841810330748558, -0.21032091975212097], [-0.03353259712457657, 0.45522481203079224, -0.9278358221054077, 0.4502613842487335, 0.44342127442359924, 0.06501235067844391, 0.23403263092041016, 0.8899462819099426, -0.1940830647945404, -0.5195127725601196, 0.14087790250778198, -0.12706321477890015, -0.28876253962516785, 0.13572420179843903, -0.7799263596534729, -0.6223738789558411, -0.47793763875961304, -0.25945812463760376, 0.27398714423179626, -0.4148312509059906, 0.03859696537256241, -0.17957064509391785, 0.16970597207546234, -0.20151977241039276, 0.9207782745361328, 0.2895084023475647, 0.3719436526298523, -0.06925564259290695, -0.051942065358161926, -0.6183854937553406, 0.49924322962760925, -0.2084122747182846, 0.2912841737270355, -0.1292959302663803, -0.1963811218738556, -0.5612404346466064, -0.45281150937080383, 0.15101070702075958, -0.10447288304567337, 0.29785051941871643, 0.421123743057251, -0.32726722955703735, 0.12074858695268631, -0.044226013123989105, -0.13434374332427979, 0.7033853530883789, 0.32181316614151, -0.4787895977497101], [-0.10222022235393524, -0.31425589323043823, 0.4096106290817261, -1.0742383003234863, 0.5632592439651489, 0.2264433205127716, 0.6328816413879395, -0.1601327806711197, -0.11172441393136978, -0.733930766582489, 0.7117589116096497, -0.8594369888305664, -0.15712901949882507, -0.7268034815788269, 0.29108357429504395, 0.380276083946228, 0.5561187863349915, -0.20691964030265808, -0.1311812400817871, -0.23583517968654633, -0.23770105838775635, -0.11951909959316254, -0.23018105328083038, 0.4705185294151306, -0.15967383980751038, -0.014702487736940384, 0.4758569598197937, -0.11972387135028839, 0.26021334528923035, -0.17796961963176727, 0.08765100687742233, 0.13486315310001373, 0.5606621503829956, 0.32066071033477783, 0.42007043957710266, -0.12118219584226608, 0.3886836767196655, 0.03508463501930237, -0.09860531985759735, -0.2815793752670288, 0.014308002777397633, -0.17474637925624847, -0.35344359278678894, 0.2260681390762329, -0.29718536138534546, -0.13245995342731476, -0.24032452702522278, 0.05176134407520294], [-0.6254474520683289, -0.522620439529419, -0.05127004161477089, 0.25428783893585205, -0.5490806102752686, 0.055099308490753174, 0.8528170585632324, -0.8984472155570984, -0.3679658770561218, 0.04405595362186432, -0.1332501769065857, -0.16643165051937103, -0.11501826345920563, -0.8287661075592041, 0.6117648482322693, 0.12774112820625305, 0.21425767242908478, -0.43823233246803284, -0.9305334091186523, 0.039422061294317245, -0.3685615658760071, -0.33182433247566223, -0.5600700974464417, 0.30533766746520996, 0.046273596584796906, 0.06887274980545044, -0.44126826524734497, 0.14740821719169617, 0.062376778572797775, 0.483364075422287, 0.00017078404198400676, 0.07864436507225037, 0.0017632440431043506, 0.21335996687412262, 0.5080903172492981, -0.6735697984695435, -0.4032958745956421, 0.10235609114170074, 0.31258246302604675, -0.021555759012699127, -0.14858701825141907, -0.28269317746162415, 0.3258306384086609, -0.873261034488678, -0.3138767182826996, 0.4190814793109894, -0.17570562660694122, 0.5380033850669861], [0.38276422023773193, 0.21294419467449188, 0.3372582793235779, -0.4363904893398285, 0.15751898288726807, 0.8469735383987427, -0.2359439730644226, -0.5221481919288635, 0.29277119040489197, 0.3679303228855133, -0.17110656201839447, 0.08427539467811584, 0.644042432308197, 0.8723019361495972, 0.6462840437889099, 0.003993361257016659, -0.14059855043888092, -0.2804436981678009, 0.4556354284286499, 0.49779266119003296, -0.37565767765045166, 0.37846699357032776, -0.7353096008300781, 0.5938264727592468, 0.2743190824985504, 0.058714669197797775, -0.12284932285547256, 0.26137691736221313, 0.027282580733299255, -0.16398854553699493, -0.5288812518119812, 0.33549436926841736, 1.0621230602264404, -0.20418980717658997, -0.5041197538375854, 0.4592165946960449, 0.2841116487979889, -0.28628668189048767, -0.20753322541713715, 0.036829978227615356, 0.01812751032412052, -0.38162150979042053, 0.4137271046638489, 0.1319293975830078, -0.5195525884628296, 0.8702229261398315, -0.18657885491847992, 0.26931193470954895], [-0.3342973589897156, -0.0542224682867527, -0.3005739748477936, -0.1808120310306549, -0.0328499972820282, -0.6052889823913574, -0.4003034830093384, -0.4055533707141876, 0.2854467034339905, -0.08833232522010803, -0.5061222314834595, 0.6041099429130554, -0.09682557731866837, -0.5945445895195007, 0.33265015482902527, 0.04780201241374016, 0.3216465413570404, 0.1707625538110733, 0.32303544878959656, -0.029173674061894417, -0.12048234790563583, -0.18262454867362976, -0.41839903593063354, -0.4474785327911377, -0.3837246298789978, -0.12193433195352554, 0.8323695063591003, -0.39447498321533203, -0.8314424157142639, 0.24878907203674316, -0.11950072646141052, 0.069076769053936, -0.029956690967082977, 0.5157327651977539, -0.4214935898780823, 0.05663314461708069, -0.6470767259597778, 0.030335476621985435, 0.6544418931007385, 0.27143797278404236, -0.11335428804159164, -0.27109870314598083, 0.3823206126689911, 0.33171916007995605, -0.3720243275165558, -0.32077232003211975, 0.14992274343967438, -0.5465010404586792], [0.5908819437026978, 0.48784124851226807, -0.18357878923416138, -0.44654345512390137, -0.7803221940994263, -0.18714593350887299, -0.5949140191078186, -1.1304429769515991, -0.1457250565290451, -0.06315908581018448, -0.6375365257263184, -0.181682750582695, 0.14605139195919037, -0.6511284112930298, -0.4530469477176666, 0.04175926744937897, 0.794522762298584, 0.15475161373615265, 0.2387317270040512, -0.008426380343735218, -0.015600764192640781, -0.022072117775678635, -0.1056009903550148, -0.22986634075641632, 0.900170624256134, -0.30013975501060486, -0.19560560584068298, -0.6103036999702454, 0.31801050901412964, -0.07170607149600983, 0.23295578360557556, 0.4781273305416107, 0.1219487190246582, 0.06430079787969589, 0.4369889199733734, -0.17293860018253326, -0.5404084324836731, 0.43832099437713623, -0.13648223876953125, 0.02606315165758133, -0.1513252705335617, 0.172608882188797, 0.5715497732162476, 0.25407499074935913, 0.18018881976604462, -0.47373032569885254, -0.2630383372306824, -0.44782453775405884], [-0.10485810786485672, 0.6109393835067749, 0.35440486669540405, 0.7024353742599487, -0.018138492479920387, 0.013111346401274204, 0.5153255462646484, 0.01415815856307745, -0.029959002509713173, 0.15129651129245758, -0.5162402987480164, 0.13513070344924927, 0.0114775775000453, -0.11415544897317886, 0.34205320477485657, 0.46216678619384766, -0.5940542817115784, 0.25582781434059143, -0.019851692020893097, 0.2567567527294159, -0.29834872484207153, 0.8548179864883423, 0.1505444049835205, -0.05553586408495903, 0.15713074803352356, 0.14533905684947968, 0.5133244395256042, 0.3556271493434906, -0.017838863655924797, 0.16861982643604279, -0.4636548161506653, -0.5865326523780823, -0.19086158275604248, 0.7699247002601624, -0.37975066900253296, 0.6795063018798828, 0.19449546933174133, -0.0016005020588636398, -0.263186514377594, -0.18301784992218018, 0.12555010616779327, 0.25411516427993774, 0.440117746591568, 0.1332651674747467, 0.4561903774738312, 0.09918754547834396, -0.42455625534057617, -0.604890763759613], [-0.09248019754886627, 0.35581856966018677, 0.5883443355560303, 0.3890661895275116, 0.9646283984184265, -0.44610267877578735, 1.4332380294799805, 0.2267686128616333, -0.025537144392728806, -0.40082496404647827, -0.38298264145851135, -0.6344577670097351, -0.6326918601989746, 1.1624163389205933, 0.7720147371292114, 0.3247091770172119, -0.4153203070163727, -0.11896931380033493, -0.1835838109254837, -0.448980450630188, -0.3485773801803589, 0.19673793017864227, 0.6415249705314636, 0.09612444043159485, -0.015167905949056149, -0.32943791151046753, 0.6067157983779907, -0.20439350605010986, 0.05995303764939308, -0.21072496473789215, 0.04636047035455704, 0.30041104555130005, 0.10840615630149841, 0.2859930098056793, -0.2928428649902344, -0.24588118493556976, -0.7050949931144714, 0.089359350502491, -0.3265071511268616, -0.027262145653367043, 0.10853401571512222, -0.45109912753105164, -0.24152326583862305, 0.24386315047740936, 0.555688738822937, 0.770548403263092, 0.7476829886436462, -0.49208658933639526], [-0.19304890930652618, -0.7448835372924805, 0.06779521703720093, -0.7729862928390503, 0.2432010918855667, 0.22997497022151947, 0.702417254447937, -0.6543023586273193, -0.5010806918144226, 0.12766221165657043, 0.24131637811660767, 0.2627214193344116, -0.5142419338226318, -0.3656471371650696, 0.40321874618530273, 0.05224316939711571, 0.14538578689098358, -0.49912694096565247, 0.15960252285003662, 0.28400683403015137, -0.18278183043003082, -0.4811137914657593, -0.4827888309955597, -0.09871462732553482, -0.2030322402715683, -0.30301716923713684, 0.32106515765190125, 0.2090408056974411, 0.12668472528457642, 0.590971827507019, 0.1441425383090973, 0.03766036406159401, 0.575100302696228, -0.3824073076248169, -0.3822987675666809, 0.049108315259218216, -0.011205131188035011, 0.06561456620693207, -0.5579727292060852, 0.4824444651603699, -0.0016272565117105842, 0.06398463994264603, -0.2985851764678955, -0.15128307044506073, -1.010628342628479, 0.19997605681419373, 0.6252320408821106, -0.14693480730056763], [0.5780046582221985, 0.6468898057937622, 0.2923189699649811, 0.040599629282951355, -0.568688154220581, -0.4841756820678711, -0.4708141088485718, 0.7332518100738525, 0.22257988154888153, -1.0729868412017822, -0.13884903490543365, -0.6100637912750244, 0.24001039564609528, 0.6401743292808533, 0.28712913393974304, 0.5167222619056702, -0.004365019500255585, 0.28432542085647583, -1.089286208152771, -0.49459683895111084, 0.07206521183252335, -0.04712902754545212, -0.978140115737915, 0.13503395020961761, 0.5094802975654602, -0.2572510540485382, -0.22208809852600098, -0.0902540311217308, 0.4786444306373596, 0.20267553627490997, 0.06650108844041824, -0.42766478657722473, -0.014677370898425579, 0.2176056057214737, 0.07137110829353333, 0.024908576160669327, 0.1397717148065567, 0.4467628300189972, 0.2874213755130768, -0.1455528885126114, 0.5155429244041443, 0.13606242835521698, -0.1347586065530777, 0.21652360260486603, 0.2864190340042114, 0.35349369049072266, 0.007212186232209206, -0.16993066668510437], [-0.498087078332901, 0.17058098316192627, 0.14979638159275055, 0.9705965518951416, -0.09122198820114136, -0.30478760600090027, -0.3043663203716278, 0.18005065619945526, -0.26170027256011963, -0.6102991104125977, -0.015202336013317108, 0.2701495289802551, -0.7782408595085144, -0.08507930487394333, 1.246415138244629, 0.5886128544807434, 0.22777532041072845, 0.14527951180934906, 0.14377880096435547, -0.45933473110198975, -0.5194169878959656, -0.1751449555158615, 0.7936744093894958, -0.04993411526083946, -0.0299490038305521, -0.002066122367978096, 1.3727003335952759, -0.017952028661966324, 1.0658246278762817, -0.24941293895244598, 0.09569144248962402, -0.21921475231647491, -0.08095546811819077, 0.19524434208869934, -0.4304407238960266, -0.20217885076999664, 0.05436518043279648, -0.2566567659378052, 0.1277892142534256, 0.3292222023010254, -0.20477430522441864, 0.3928406536579132, 0.3343537747859955, 0.19241759181022644, 0.03726880997419357, -0.7062917947769165, -0.05823135003447533, 0.8359420895576477], [-0.19863098859786987, 0.19292432069778442, -0.5973575711250305, -0.9047157168388367, 0.5517188906669617, 0.8940717577934265, -0.6890922784805298, 0.07900040596723557, 0.6313808560371399, 0.022677700966596603, 0.11916320025920868, 0.4672226905822754, 0.5853485465049744, -0.9365711212158203, -1.3019508123397827, 0.0586925707757473, -0.41483378410339355, 0.3719962537288666, 0.11420562863349915, -0.19357338547706604, -0.06757569313049316, 0.31096407771110535, 0.03849797695875168, 0.24850575625896454, 0.642315685749054, -0.4389561116695404, 0.12989677488803864, -0.38114798069000244, -0.9026246666908264, 0.2954008877277374, 0.7970651388168335, -0.19147956371307373, 0.14374485611915588, 0.37057408690452576, 0.17892637848854065, -0.12469207495450974, 0.1943153738975525, -0.1874711662530899, 0.16042229533195496, -0.025458557531237602, 0.11002586036920547, -0.23527684807777405, -0.11060802638530731, 0.021233143284916878, -0.2041957527399063, 0.6599293351173401, 0.24787217378616333, -0.3741472065448761], [0.09518519043922424, 0.05429105833172798, -0.22809743881225586, -0.4097181260585785, 0.32397332787513733, -1.2175805568695068, -0.3292407989501953, 0.38038089871406555, 0.11210214346647263, -0.7305124402046204, -0.3432773947715759, 0.1955125480890274, 0.028346797451376915, 0.4771091938018799, -0.5100511908531189, -0.3982318937778473, -0.5478897094726562, -0.08289173990488052, 0.5122790932655334, -0.4368366003036499, 0.24370785057544708, 0.21380099654197693, -1.0978492498397827, -0.1742667257785797, -0.136012464761734, -0.13229088485240936, 0.2716013491153717, -0.5498003363609314, 0.37250009179115295, -0.13317541778087616, 0.06734935194253922, 0.18848836421966553, -0.31335076689720154, -0.11873523145914078, 0.58515465259552, -0.13553383946418762, -0.14889635145664215, -0.30538541078567505, 0.7862768173217773, -0.21642683446407318, -0.8326606750488281, -0.30425968766212463, 0.16974303126335144, 0.4479168653488159, 0.09843448549509048, 0.2981533408164978, -0.46176326274871826, 1.080238699913025], [0.31558823585510254, 0.41757839918136597, -0.022741898894309998, 0.09914807975292206, 0.3067457973957062, 0.5598941445350647, 0.5675031542778015, 0.9713495969772339, 0.3418242931365967, -0.030859338119626045, 0.42731162905693054, 0.5624966621398926, 0.3209843933582306, 0.3187667727470398, -0.19587232172489166, -0.6479817032814026, 0.3810884654521942, 0.15380267798900604, -0.27264970541000366, -0.2117951661348343, -0.3485657572746277, -0.2542804479598999, -0.22089941799640656, 0.2935298979282379, -0.026377450674772263, -0.2103886753320694, 0.1020013839006424, -0.007887850515544415, 0.5241820812225342, -0.2522472143173218, -0.4833698868751526, -0.2341768443584442, -0.2507345974445343, 0.3160732686519623, 0.14872954785823822, -0.32847437262535095, -0.1371714472770691, -0.2909620404243469, -0.04516632482409477, 0.47510144114494324, -0.39158350229263306, 0.7753829956054688, 0.5820761919021606, -0.5117809772491455, 0.06818675249814987, -0.2868298888206482, 0.7234391570091248, -0.026611177250742912], [-0.5979756116867065, 0.33666497468948364, 0.18178187310695648, 0.46088171005249023, -0.7678489685058594, -0.7823522686958313, -0.010968429036438465, 0.5813454985618591, 0.22932177782058716, -0.03187118470668793, -0.581706702709198, 0.09247086942195892, 0.10521706193685532, 0.4466421902179718, -0.24233795702457428, -0.5086102485656738, 0.9413780570030212, -0.7225510478019714, -1.079480528831482, -0.00701322453096509, 0.31156840920448303, 0.07669764757156372, 0.28657445311546326, 0.17025665938854218, -0.8222154974937439, -0.24931006133556366, -0.1207805722951889, -0.1012384369969368, -0.3990456759929657, -0.1472303420305252, 0.13226191699504852, 0.1334560662508011, -0.0005106605240143836, -0.018020637333393097, 0.3839779198169708, 0.070559062063694, 0.10592591017484665, 0.13843953609466553, 0.14600719511508942, -0.10456332564353943, 0.03272393345832825, -1.308929443359375, 0.22728027403354645, 0.27335265278816223, -0.11077224463224411, -0.632885754108429, 0.31526511907577515, 0.4024306833744049], [0.052736081182956696, 0.9603960514068604, -0.18599745631217957, -0.06404458731412888, -0.4154742956161499, -0.28744783997535706, -0.4618228077888489, 0.05602341890335083, 0.3737454116344452, 0.17344366014003754, -0.34051254391670227, 0.2314186692237854, -1.0023473501205444, 0.35151708126068115, -0.41540583968162537, -0.2509782612323761, 0.4198349118232727, -0.23104223608970642, -0.2655525207519531, 0.2816113531589508, -0.1521950364112854, -0.24929417669773102, -1.2999649047851562, 0.1560637652873993, -0.18466101586818695, -0.0004984608967788517, -0.14332368969917297, -0.5245809555053711, -0.09654494374990463, -0.12555940449237823, -0.19267219305038452, -0.3732123076915741, 0.20698337256908417, -0.16434317827224731, -0.3784137964248657, -0.48298153281211853, 0.4529205560684204, 0.17888976633548737, 0.46904540061950684, 0.3329806923866272, 0.0036707317922264338, -0.02355301007628441, -0.16185757517814636, -0.05298242345452309, 0.00853353925049305, -0.22038358449935913, -0.45958811044692993, 0.6337584853172302], [0.2380024939775467, -0.10515093058347702, 0.26082125306129456, -0.23893849551677704, -0.4667544960975647, -0.5643532276153564, 0.9797036051750183, 0.3692854940891266, -0.16283932328224182, -0.12878483533859253, -0.45767855644226074, -0.16914543509483337, -0.7048057317733765, 0.38109856843948364, 0.5128851532936096, 0.20352578163146973, 0.2361162304878235, 0.6203911304473877, 0.10651494562625885, 0.45135653018951416, -0.3136124312877655, 0.16301986575126648, 0.12390178442001343, 0.05175551027059555, -0.48055166006088257, -0.2702663838863373, -1.6861435174942017, 0.23348261415958405, 0.6860144734382629, -0.3244016468524933, 0.1892046332359314, -0.3053492605686188, 0.3241446912288666, 0.3074854016304016, 0.04661447927355766, -0.23490718007087708, 0.6909491419792175, -0.10407928377389908, 0.022574974223971367, -0.6213982105255127, 0.02611037716269493, -0.031150300055742264, 0.681249737739563, 0.2504260838031769, 0.31908243894577026, 0.13671624660491943, 1.2893149852752686, 0.665844202041626], [0.8495104312896729, -0.36772939562797546, -0.09420736879110336, 0.6362884640693665, -0.25002604722976685, -0.7344753742218018, 0.6467151045799255, -0.7273049354553223, 0.11650236696004868, 0.7303357720375061, 0.10807784646749496, 0.0798489898443222, 0.055620379745960236, -0.09491734206676483, 1.6119023561477661, 0.1011645495891571, 0.2817612886428833, 0.16974729299545288, 0.9260566830635071, 0.03388340026140213, 0.6803801655769348, -0.11435755342245102, 0.5849388241767883, 0.15586280822753906, -0.5976850390434265, -0.19480162858963013, 0.299349844455719, -0.05903422459959984, 0.7806897163391113, 0.1863907277584076, 0.1083788350224495, -0.089522585272789, 0.2789531648159027, -0.08060476928949356, -0.41046082973480225, 0.4588276445865631, -0.38919979333877563, 0.10289060324430466, -0.19932274520397186, -0.2964839041233063, -0.469989538192749, -0.4247843325138092, -0.19549289345741272, 0.24058276414871216, 0.6356772184371948, 0.07417488098144531, -0.240813747048378, -0.3114723265171051], [0.03634186089038849, -0.29219865798950195, -0.18085290491580963, 0.44622164964675903, -0.4078778028488159, -1.4707624912261963, -0.9735962748527527, 0.4360261559486389, 0.031659841537475586, 0.6195346117019653, -0.016734376549720764, -0.05963542312383652, 0.25119420886039734, -0.25053784251213074, 0.4262714385986328, -0.33085137605667114, 0.13357986509799957, 0.1973455250263214, -0.2271658331155777, 0.3980632722377777, 0.488861083984375, 0.2994854152202606, 0.04082423076033592, -0.08305037021636963, -0.18367677927017212, -0.046092160046100616, 0.3747394382953644, -0.14298483729362488, -0.3138638436794281, -0.03039393201470375, -0.16637903451919556, 0.1050160676240921, 0.23627521097660065, -0.26046526432037354, 0.2404818832874298, -0.18192516267299652, 0.2532561719417572, 0.05923868343234062, -0.7852075695991516, -0.9255505800247192, -0.8361591696739197, -0.004941846244037151, 0.27700677514076233, -0.18234822154045105, 0.3975015878677368, 0.9371278882026672, 0.443806529045105, -0.3936106562614441], [0.33599990606307983, -0.2362748384475708, -1.0352742671966553, -0.0260761771351099, -0.35287028551101685, 0.07929907739162445, 0.1744793802499771, 0.21716447174549103, 0.9332556128501892, -0.5176664590835571, 0.479013592004776, -0.3087592124938965, 0.17443013191223145, 0.13273762166500092, 0.20937441289424896, -0.13744713366031647, 0.3933916985988617, 0.6245632767677307, 0.005839447025209665, 0.11349420994520187, 0.006952664349228144, 0.528678297996521, 0.2998218536376953, -0.2057647407054901, -0.49226683378219604, 0.31160637736320496, 0.0495695061981678, -0.15442539751529694, 0.2650471031665802, 0.7635720372200012, -0.06538075953722, -0.45511600375175476, -0.20423373579978943, -0.1984679102897644, -0.2384847104549408, 0.18677909672260284, -0.1496524214744568, 0.4130367040634155, 0.01100969035178423, 0.313499391078949, 0.29636266827583313, 0.3500628173351288, -0.3467518389225006, -0.02289223112165928, 0.8391594886779785, -0.10866083204746246, 0.6282538175582886, -0.5150763392448425], [-0.4256204664707184, 1.0948995351791382, 0.014492681249976158, -0.7235873937606812, -0.9234825372695923, 0.27195030450820923, 0.047379735857248306, 1.0980100631713867, -0.059550222009420395, -0.536765456199646, -0.9449517726898193, 0.1755666583776474, 0.3978075683116913, 0.2642180621623993, 0.18159013986587524, 0.32372888922691345, -0.47403404116630554, 0.011085385456681252, -0.13267730176448822, 0.24000656604766846, -0.509033203125, 0.1029311791062355, -0.3858851194381714, -0.048056162893772125, -0.5343121886253357, 0.44749271869659424, 0.33922749757766724, -0.16274291276931763, -0.4058300852775574, -0.16954496502876282, -0.05582508072257042, 0.19159138202667236, -0.001607026788406074, -0.29708331823349, 0.08792491257190704, 0.1673976182937622, 0.16279228031635284, 0.32589203119277954, -0.39814895391464233, -0.38453254103660583, 0.15404927730560303, -0.401254266500473, 0.31510090827941895, -0.11454460769891739, 0.1805388480424881, 0.24476414918899536, 0.5702459812164307, -0.011354546993970871], [-0.3761482834815979, 0.05047601833939552, -0.16051776707172394, 0.8157562613487244, 0.386362224817276, -0.14675013720989227, -0.04717657342553139, -0.6919258832931519, -0.3411369323730469, 0.586889386177063, -0.8807948231697083, -0.31710395216941833, -0.4902595281600952, -0.3615482747554779, 0.600906252861023, -0.03881753236055374, -0.9154319763183594, 0.6159241199493408, 0.14299526810646057, -0.3450356721878052, -0.09425605088472366, -0.2853049635887146, -0.7746791839599609, 0.1246229037642479, 0.3932071626186371, -0.45948803424835205, 0.2218461036682129, -0.16082537174224854, 0.7076774835586548, 0.13532711565494537, 0.11476675420999527, 0.07456003129482269, -0.16733069717884064, 0.2621527910232544, 0.23665393888950348, 0.10989990830421448, 0.14542920887470245, 0.13458141684532166, -0.475859671831131, 0.11704522371292114, 0.5953483581542969, 0.6499027013778687, -0.14723530411720276, -0.5738593339920044, 0.23036403954029083, -0.35392773151397705, 0.2627634108066559, -0.5532252788543701], [0.2226145714521408, -0.5332620739936829, -0.5997146368026733, -0.11957108974456787, -0.33743786811828613, 0.0682898610830307, -0.4465417265892029, 0.43945449590682983, 0.05916384235024452, 0.5553744435310364, -0.33425453305244446, 0.003318570088595152, -0.245351180434227, 0.6813880801200867, -0.3684018552303314, 0.406314492225647, 0.27321290969848633, -0.24109603464603424, -0.0016931886784732342, -0.0825696513056755, -0.6242634654045105, -0.09580179303884506, -0.339437872171402, 0.3370445668697357, 0.46955522894859314, 0.5604256391525269, -0.19851994514465332, -0.07473975419998169, 0.06078328564763069, 0.5466934442520142, 0.2925669252872467, -0.08652941882610321, 0.15997618436813354, -0.12279292941093445, 0.07021795958280563, -0.7726897597312927, -0.15512457489967346, -0.09697777777910233, -0.148968905210495, -0.2874419391155243, -0.4402030110359192, -0.23923026025295258, -0.5738343000411987, -0.29440537095069885, 0.4757543206214905, 0.4517841339111328, -0.13251851499080658, -0.37706246972084045], [-0.6141709089279175, -0.490303099155426, 0.0055221328511834145, -0.0028712612111121416, 0.5243194103240967, 0.06504294276237488, -0.4637141823768616, -0.5690977573394775, -0.07967150956392288, 0.5822131633758545, 0.2682992219924927, 0.00838006753474474, -0.45400795340538025, 0.5313056111335754, 0.6560811400413513, 0.10172150284051895, -0.10948916524648666, 0.4010465145111084, -1.0820194482803345, 0.5551314949989319, 0.3462671637535095, -0.18537157773971558, -0.7177146077156067, 0.09585366398096085, 0.30421504378318787, -0.13018324971199036, 0.299607515335083, 0.24962683022022247, -0.29072344303131104, 0.6428679823875427, -0.36247628927230835, 0.5512022376060486, 0.5416918396949768, 0.14137747883796692, -0.3444010317325592, 0.18183909356594086, 0.35754096508026123, 0.48639702796936035, 0.25493836402893066, 0.19252704083919525, -0.36463019251823425, -0.1754971295595169, -0.41284385323524475, -0.33958330750465393, -0.047376848757267, 0.13012577593326569, 0.8309358954429626, 0.1687450408935547], [-0.8359538316726685, 0.14262737333774567, 0.19377774000167847, -0.24329759180545807, 0.3738107681274414, 0.7807338237762451, -0.8939859867095947, 0.17605911195278168, 0.5820323824882507, -0.07430259138345718, 0.3901621103286743, 0.07214570790529251, 0.2612941563129425, -0.04971100762486458, -0.38858917355537415, -0.46629637479782104, -0.03720565512776375, 0.7499919533729553, -0.6088525056838989, 0.1462368667125702, -0.33833885192871094, -0.2898690700531006, -0.11424049735069275, 0.384598046541214, -0.5998824238777161, -0.4468616247177124, -0.17158378660678864, -0.05008108913898468, 0.43765124678611755, -0.09204276651144028, -0.2820582091808319, -0.17054952681064606, -0.4924345016479492, 0.2421317845582962, -0.14833751320838928, -0.07274741679430008, -0.04778902605175972, -0.15615835785865784, 0.1324394792318344, 0.5173616409301758, -0.1846616566181183, -0.07936523854732513, -0.6935545802116394, 0.1546303629875183, -0.15632428228855133, -0.08020491153001785, -1.1327515840530396, 0.2165968269109726], [0.23842988908290863, 0.38288336992263794, 0.6601585149765015, 0.2170611470937729, -0.8397483825683594, -0.595024049282074, -0.44324588775634766, -0.6380925178527832, -0.5074646472930908, -0.15139706432819366, -0.9340373873710632, -0.5500054955482483, 0.2931601405143738, 0.3152254819869995, 1.1074026823043823, -0.3100685477256775, -0.30380600690841675, 0.1013728529214859, -0.44292211532592773, -0.4240666627883911, 0.07674530148506165, -0.0807541087269783, -0.8620481491088867, 0.38565102219581604, -0.3370459973812103, 0.24228909611701965, -0.30917033553123474, 0.11620668321847916, 0.28041478991508484, 0.10911054909229279, -0.2288108766078949, -0.6219188570976257, -0.05793507769703865, -0.20464026927947998, -0.4082695245742798, 0.11132495850324631, 0.3307773470878601, -0.20217417180538177, -0.5483914017677307, -0.3051007091999054, 0.16564415395259857, 0.06408325582742691, 0.5215092301368713, 0.09473293274641037, 0.18752844631671906, -0.24226173758506775, 0.14150603115558624, 0.15668614208698273], [0.44905975461006165, 0.42722782492637634, -0.19590552151203156, -0.3143567740917206, -0.4353163540363312, -0.1436910480260849, 0.2767868638038635, -1.1012020111083984, -0.7589535117149353, 0.4797813892364502, -0.11023518443107605, 0.28979700803756714, 0.49503621459007263, 0.4246324300765991, -0.4448098838329315, 0.008375266566872597, 0.7886673212051392, -0.008508719503879547, 0.06485427170991898, -0.050193898379802704, 0.3442135453224182, 0.47181883454322815, -0.3189130127429962, -0.1667431741952896, 0.20056109130382538, -0.07772199809551239, 0.33210787177085876, -0.3456413149833679, 0.4474707543849945, -0.018135707825422287, -0.2747666537761688, 0.2624668776988983, -0.2068835198879242, 0.40049517154693604, -0.5352808833122253, 0.02044982649385929, -0.1306927353143692, -0.6717082262039185, 0.12868960201740265, -0.20264825224876404, -0.4850137531757355, -0.06746453791856766, -0.6115115284919739, 0.3630464971065521, -0.3570321500301361, -0.04756895825266838, 0.9820696115493774, -0.1812743991613388], [0.3764885663986206, -0.3720482587814331, 0.34338751435279846, -0.3404381275177002, 0.3846108615398407, -0.7292479276657104, -0.8081480860710144, -0.08960959315299988, 0.3862464427947998, 0.1428360790014267, 0.2623403072357178, 0.24069838225841522, 0.27393627166748047, 0.43073567748069763, 0.5971537232398987, -0.10244506597518921, -0.3771008551120758, -0.03294964134693146, -0.3000974655151367, 0.6471975445747375, 0.6758549809455872, 0.35121622681617737, -0.6397539973258972, 0.13743869960308075, 0.1416209489107132, 0.33817827701568604, -0.36077880859375, -0.14112569391727448, 0.4369271397590637, -0.09484104812145233, -0.14738929271697998, -0.06805980205535889, -0.7910367846488953, -0.4280747175216675, 0.4340772032737732, -0.2565394341945648, 0.6233543157577515, -0.5753082036972046, 0.02141723223030567, 0.33945488929748535, 0.41282975673675537, -0.08143723011016846, 0.06652314960956573, -0.34416699409484863, 0.2772619426250458, 0.03614896163344383, -0.3356214761734009, -0.453402578830719], [0.37046271562576294, 0.5538854002952576, -0.2217349410057068, 0.05155108496546745, -0.1490333527326584, 0.31136655807495117, 1.498285174369812, -0.01611252874135971, -0.4980403184890747, 0.37230128049850464, 0.10917701572179794, 0.3923828601837158, 0.635746419429779, 1.1765997409820557, -0.020777003839612007, -0.04424281045794487, -0.10695852339267731, 0.536149799823761, 0.0726860836148262, 0.29241663217544556, -0.25475019216537476, 0.629259467124939, -0.6438085436820984, -0.07394502311944962, 0.48050418496131897, -0.0004483430820982903, 0.4394221007823944, 0.2529599070549011, -0.5469077825546265, -0.04954630509018898, 0.24684453010559082, 0.22075903415679932, -0.34662631154060364, 0.13749532401561737, 0.11848116666078568, 0.21229179203510284, -0.09314797073602676, -0.21947599947452545, -0.2166353464126587, -0.20881816744804382, -0.023998158052563667, 0.553500771522522, 0.03391993045806885, 0.05743970349431038, -0.06835273653268814, -0.5986986756324768, -0.5705660581588745, 0.1383298635482788], [0.46964511275291443, -0.527620255947113, -0.47636735439300537, -0.09582231938838959, -0.4953952729701996, -0.18267935514450073, 0.4050622284412384, -0.26386067271232605, 0.12898586690425873, -0.18097226321697235, -0.0637107789516449, 0.8744864463806152, 0.38295862078666687, 0.3917006254196167, -0.7643219232559204, -0.24103812873363495, -0.5820764303207397, 0.005080229602754116, -0.5468064546585083, -0.6483114957809448, -0.15845905244350433, -0.5148201584815979, -0.6183141469955444, 0.11119483411312103, 0.2632993459701538, -0.11101417988538742, -1.2670129537582397, 0.1647472083568573, 0.8726596832275391, -0.2451113760471344, -0.1663551777601242, -0.4405132830142975, -0.346998006105423, -0.13410057127475739, -0.3158278465270996, 0.17723499238491058, 0.13663215935230255, 0.19873085618019104, -0.11418476700782776, -0.032135624438524246, -0.15368221700191498, 0.2976556420326233, -0.75440913438797, -0.5282186269760132, -0.5726156234741211, 0.17765095829963684, -0.7247759699821472, -0.02459358423948288], [0.28488901257514954, -0.4315798580646515, 0.12702618539333344, -0.13771823048591614, 0.5109980702400208, 0.6241053342819214, 0.26450687646865845, -0.45565265417099, -0.41532593965530396, -0.5173608064651489, 1.0830895900726318, -0.8610068559646606, -0.25945404171943665, -0.1672203242778778, -0.09996940940618515, -0.20017403364181519, -0.42244982719421387, 0.5900339484214783, 0.09706650674343109, 0.016783539205789566, -0.5049355030059814, 0.41638755798339844, 0.4587760269641876, 0.13179004192352295, -0.11116689443588257, -0.19207443296909332, 0.6843360662460327, 0.0027572005055844784, -0.11247417330741882, 0.3402111828327179, -0.0979536846280098, 0.5888708233833313, -0.5442185401916504, -0.11353867501020432, -0.4661293923854828, -0.37186387181282043, -0.18980129063129425, 0.40493103861808777, 0.10794529318809509, -0.32619550824165344, -0.08909101039171219, 0.013190885074436665, -0.06940967589616776, -0.39567452669143677, 0.09231603890657425, 0.9729558229446411, 0.14035478234291077, -0.42080557346343994], [-0.5505528450012207, -0.6127017736434937, -0.09633686393499374, 0.037968289107084274, -0.41847264766693115, -0.31312084197998047, -0.2665892541408539, 0.8208389282226562, 0.46947041153907776, -0.021216485649347305, 0.0886816754937172, 0.3537124991416931, 0.6010332107543945, -0.23223209381103516, -0.3554520308971405, -0.20183858275413513, 0.3156594932079315, -0.6321635842323303, -0.046547532081604004, -0.24229075014591217, -0.576597273349762, 0.20426002144813538, 0.07298145443201065, -0.2210826426744461, 0.8393959999084473, -0.7504467964172363, 0.9647548794746399, -0.2033902108669281, -0.43847501277923584, -0.13634999096393585, -0.29527947306632996, 0.20124183595180511, -0.7453339695930481, -0.11049994081258774, 0.05425628274679184, -0.04834982752799988, 0.0943085253238678, 0.43345919251441956, 0.08273070305585861, 0.12995953857898712, 0.4537246525287628, -0.14574892818927765, -0.18543778359889984, 0.05363766849040985, 0.42267823219299316, -0.35800498723983765, 0.1745578944683075, -0.919244647026062], [-0.22282689809799194, -0.21623888611793518, -0.12667877972126007, -0.8576991558074951, -0.12446421384811401, 0.5133056044578552, -0.9745261073112488, 0.7287131547927856, -0.3574199080467224, -0.24329957365989685, 0.13007579743862152, 0.8528552651405334, -0.07142611593008041, 0.21881651878356934, -0.1515454798936844, -0.179946631193161, 0.308948814868927, 0.35570016503334045, 0.17964349687099457, 0.2899381220340729, -0.04833747074007988, 0.0044297510758042336, 0.9447019696235657, 0.07183057814836502, 0.004182703327387571, 0.06669977307319641, -0.0669490396976471, -0.04270694777369499, -0.47277185320854187, 0.31006816029548645, -0.24572646617889404, 0.28249692916870117, -0.31989577412605286, 0.07569979876279831, -0.14606449007987976, 0.2828851640224457, -0.17160432040691376, 0.06749842315912247, -0.4186871647834778, -0.1098925918340683, 0.273386150598526, -0.12234637141227722, -0.32746621966362, 0.17373058199882507, -0.23677371442317963, -0.2658438980579376, 0.5614747405052185, -0.3123742938041687], [0.004368177615106106, 0.34919124841690063, -0.3071933090686798, 0.09262709319591522, -0.6502114534378052, 0.31310373544692993, -0.03399832546710968, 0.328069269657135, -0.21486052870750427, -0.04914339259266853, 0.03301337733864784, 0.056718092411756516, -0.1300242692232132, 0.6503289937973022, -0.76036137342453, -0.08055787533521652, 0.08259312063455582, 0.7009324431419373, 0.6401489973068237, -0.2365606278181076, -0.05417472496628761, 0.2975206673145294, -0.6406393647193909, -0.41458234190940857, -0.2864868938922882, -0.19649873673915863, -0.2884359061717987, 0.3689820468425751, -0.07122427225112915, -0.0022009732201695442, 0.026220764964818954, -0.2765803933143616, 0.25884512066841125, -0.7107218503952026, -0.7872883081436157, -0.3430260419845581, 0.2363983392715454, -0.8188196420669556, -0.6606088876724243, 0.07317718118429184, -0.4859367907047272, -0.20214204490184784, 0.22471605241298676, -0.24092772603034973, -0.051954735070466995, -0.09201354533433914, 0.36734238266944885, 0.32268452644348145], [-0.14847469329833984, 0.31868529319763184, 1.4039381742477417, 0.043111324310302734, -0.4085563123226166, 0.22614552080631256, 0.10969267040491104, 0.9384329915046692, -0.5426298975944519, 0.6007405519485474, -0.41723740100860596, 0.7918236255645752, 0.0356263741850853, 0.3702673017978668, -0.08526057004928589, -0.11052728444337845, 0.5422716736793518, 0.2511196732521057, 0.09650430083274841, 0.04569418728351593, 0.47191253304481506, 0.30682459473609924, 1.1491886377334595, 0.050728898495435715, 0.21057021617889404, -0.1572767049074173, -0.5924923419952393, 0.09965233504772186, 0.3942524790763855, 0.13764053583145142, -0.4649824798107147, 0.1326955258846283, -0.13857416808605194, -0.4321891665458679, 0.059772513806819916, -0.21291455626487732, -0.22899670898914337, -0.007250694092363119, -0.2136397808790207, -0.11889951676130295, 0.13091406226158142, -0.4125247299671173, -0.3773806691169739, 0.506899893283844, 0.1471857726573944, -0.11241669207811356, -0.057551298290491104, -0.7644073963165283], [-0.4001558721065521, -0.31413498520851135, 0.26954227685928345, 0.20524051785469055, -0.19838762283325195, -0.18195800483226776, 0.13503633439540863, 0.22408822178840637, -0.6912923455238342, 0.5203063488006592, -0.6676220297813416, -0.03435051441192627, 0.1429324597120285, -1.508540153503418, 0.19992154836654663, -0.05923575162887573, -0.8958574533462524, 0.09410500526428223, 0.3161104619503021, 0.14828962087631226, -0.08010115474462509, 0.14742198586463928, -0.4242199659347534, -0.04295850545167923, -0.09040015190839767, 0.39557090401649475, 0.2539602518081665, 0.030633458867669106, 0.26650989055633545, 0.08929894119501114, 0.19350802898406982, -0.3414234519004822, 0.13547749817371368, 0.8322396278381348, -0.3924542963504791, -0.24176007509231567, -0.6265965104103088, -0.5210466980934143, -0.5201598405838013, -0.2968534827232361, -0.034964751452207565, 0.6156498789787292, -0.16634978353977203, -0.29628610610961914, 0.47567617893218994, 0.060949843376874924, -0.3349631428718567, -0.35795092582702637], [0.1558164805173874, 0.6310334205627441, -0.2946052551269531, 0.2705627381801605, -1.1561931371688843, -0.19972307980060577, -0.981939971446991, 0.36200788617134094, -0.09784626215696335, -0.32087039947509766, -0.8139254450798035, -0.16647551953792572, 0.15175898373126984, 0.16408231854438782, 0.6158812046051025, -0.4650745391845703, -0.28896889090538025, -0.029432063922286034, -0.8470323085784912, -0.1748621016740799, -0.5779857635498047, -0.5061854124069214, 0.26076915860176086, -0.36247995495796204, 0.2755550146102905, 0.3376080393791199, -0.33808669447898865, -0.19726482033729553, -0.4799761474132538, -0.016564711928367615, -0.5335136651992798, -0.35207289457321167, 0.07657413184642792, 0.0664675161242485, 0.24421223998069763, -0.5455083250999451, -0.7922224402427673, -0.07725931704044342, 0.2244463413953781, 0.03870062902569771, -0.36458319425582886, -0.07784919440746307, 0.11294188350439072, -0.09247562289237976, -0.1882706731557846, -1.1341062784194946, -0.21311701834201813, -0.33443230390548706], [0.6187222003936768, 0.11327730864286423, -0.21881677210330963, -0.4970552325248718, 0.05368679016828537, 1.071286916732788, 0.07410763204097748, 0.5028731822967529, -0.3484993577003479, 0.6417530179023743, -0.14901180565357208, -0.07924864441156387, 0.38443562388420105, -1.1513564586639404, -0.9380399584770203, -0.6009736657142639, -0.07697918266057968, 0.5502954125404358, -0.8688527941703796, -0.4112955629825592, 0.07025213539600372, 0.18314005434513092, -0.03627806156873703, 0.0920272171497345, -0.9246664047241211, -0.287902295589447, -0.07709784805774689, 0.0345921628177166, 0.24663867056369781, 0.10254945605993271, -0.019158946350216866, 0.16166281700134277, 0.0027628953102976084, 0.027020666748285294, 0.13927827775478363, 0.5835098028182983, 0.3282884955406189, 0.0453244224190712, 0.8248417377471924, 0.6004073619842529, -0.12924052774906158, -0.27925339341163635, -0.0101983193308115, -0.7325803637504578, 0.1817931830883026, -0.37192246317863464, -0.13368968665599823, 0.10767021030187607], [-0.07878797501325607, -0.3112178444862366, -0.48225119709968567, 0.4248228967189789, -0.6750500798225403, -0.4052464962005615, -0.43497249484062195, -0.14605042338371277, -0.4184226989746094, 0.2636876106262207, -0.12069994956254959, 0.7832091450691223, -0.005539781413972378, 0.006437332835048437, 1.1583961248397827, 0.40130889415740967, 0.11687929928302765, -0.2563989758491516, 0.4343276917934418, -0.3582916557788849, -0.44464483857154846, -0.5343459844589233, -0.9028566479682922, -0.3490023910999298, -0.31352734565734863, 0.31747546792030334, 0.15245018899440765, 0.24822387099266052, -0.2171759456396103, 0.2285218983888626, -0.3861533999443054, 0.11056744307279587, -0.04431386664509773, 0.012813648208975792, 0.1320561319589615, 0.08196689188480377, 0.2710956335067749, -0.5103905200958252, -0.08328355103731155, -0.25586798787117004, -0.1652381420135498, -0.33200255036354065, -0.7014439702033997, -0.32123076915740967, 1.200179934501648, 1.0440399646759033, -1.0368632078170776, 0.7879092693328857], [0.13021817803382874, -0.9990309476852417, -0.12068965286016464, 0.34354081749916077, 0.013282949104905128, -0.07857249677181244, 0.2996678054332733, -0.7956831455230713, 0.036236394196748734, -0.32148391008377075, 0.22481369972229004, -0.39621615409851074, -0.40052342414855957, 0.10754451900720596, 0.363843709230423, 0.21255739033222198, 0.43653178215026855, 0.04509400203824043, 0.5940152406692505, -0.35061386227607727, -0.04636969417333603, 0.04397710785269737, 0.4335603415966034, 0.47048893570899963, 0.14081059396266937, 0.052715182304382324, -0.17486795783042908, 0.6132274270057678, -0.42568239569664, -0.42097902297973633, -0.04713790491223335, -0.06294991821050644, 0.30842944979667664, -0.4185454845428467, 0.05828440189361572, 0.6016464233398438, 0.2606716454029083, -0.47936487197875977, 0.5076945424079895, 0.525145947933197, 0.2455795258283615, 0.21109777688980103, -0.43001788854599, -0.08041215687990189, 0.3663654625415802, 0.5070874691009521, 0.24459043145179749, -0.17780134081840515], [0.03834519162774086, -0.7741259932518005, 0.11410262435674667, -0.4243803322315216, 0.14750662446022034, -0.5108018517494202, 0.34074437618255615, 0.41035082936286926, 0.029888011515140533, -0.17181164026260376, -0.10324116051197052, 0.8269917964935303, 0.05990416929125786, -0.23564006388187408, 0.3279919922351837, 0.3117593824863434, -0.11689242720603943, 0.31341513991355896, -0.8029453158378601, -0.43519970774650574, 0.013523383997380733, 0.567958652973175, 0.29191967844963074, -0.3007892370223999, -0.6408224701881409, -0.29204806685447693, 0.76522296667099, 0.06452307105064392, -0.3877219259738922, -0.3170017600059509, 0.11354388296604156, 0.37299326062202454, 0.05546145886182785, 0.450328528881073, 0.05302025005221367, -0.7150996923446655, -0.14080850780010223, 0.1923186331987381, 0.18029846251010895, -0.14035244286060333, 0.5793101191520691, -0.07621631026268005, -1.0334855318069458, 0.030528759583830833, -0.158040389418602, -0.012494750320911407, 0.057858698070049286, 0.11795812845230103], [0.1169545128941536, 0.39671504497528076, -0.02009410411119461, 0.6208801865577698, 0.4239073097705841, -0.6330960988998413, -0.6026824116706848, 0.2192343920469284, 0.48071232438087463, -0.07611392438411713, 0.8467628359794617, -0.8387974500656128, -0.15553908050060272, -0.12243302166461945, 0.5370358228683472, 0.17420066893100739, 0.1769590973854065, 0.10550695657730103, -0.07863965630531311, 0.01143726333975792, 0.08922267705202103, 0.16626527905464172, -0.5814408659934998, -0.5366858839988708, -0.8191369771957397, -0.30130159854888916, -0.4339350461959839, -0.2649330794811249, -0.2200116366147995, 0.11571373790502548, -0.19209972023963928, 0.007313874084502459, 0.5627843141555786, 0.08211688697338104, 0.34909436106681824, -0.3742682933807373, -0.2661549150943756, 0.27148860692977905, 0.04128574952483177, 0.40020278096199036, 0.4742855727672577, -0.5633456110954285, -0.2397764027118683, -0.06836681067943573, 0.10301099717617035, 0.4790607690811157, -0.8954318165779114, 0.07078900188207626], [0.32682004570961, 0.09831615537405014, -0.15700314939022064, 0.5501256585121155, -0.2655874788761139, 0.310851514339447, 1.1088266372680664, 0.4270455241203308, 0.16608384251594543, -0.1399751752614975, 0.5464071035385132, 0.09659420698881149, -0.08906733989715576, -1.329798936843872, -0.3851046860218048, -0.3082253336906433, -1.1509521007537842, -0.20642653107643127, 0.2450079321861267, -0.18088756501674652, 0.3633963465690613, -0.1841554045677185, -0.5259362459182739, 0.18306633830070496, -0.18694870173931122, 0.09749957919120789, -0.3202390670776367, -0.17353637516498566, -0.2416674643754959, 0.29159313440322876, 0.22380408644676208, 0.8883854746818542, -0.04298696666955948, -0.1727045178413391, 0.015538782812654972, 0.1792389154434204, 0.24191591143608093, -0.08727722615003586, 0.249564990401268, -0.19942401349544525, 0.18833741545677185, 0.33022621273994446, 0.4494684040546417, 0.06702827662229538, 0.47851428389549255, 0.4638559818267822, 0.4191725254058838, -0.10036303102970123], [0.007201564032584429, 0.5108926296234131, 0.5023068189620972, -0.627876877784729, -0.18105895817279816, 0.8518953323364258, -0.2999151349067688, 0.32775047421455383, -0.27203717827796936, -0.1708531379699707, -0.2350570261478424, -0.2099800407886505, 0.31521469354629517, 0.7887246608734131, -0.31846392154693604, 0.04025201499462128, 0.007856032811105251, 0.32170891761779785, -0.9869091510772705, 0.4941288232803345, 0.32267433404922485, 0.08392439782619476, -0.9513722062110901, -0.44010406732559204, 0.3695577085018158, -0.2861041724681854, 0.4928847849369049, -0.07547055184841156, 0.6438509821891785, 0.1265689879655838, -0.1522500365972519, -0.3281936049461365, 0.5004473924636841, -0.4513288140296936, -0.2502054274082184, 0.618439257144928, -0.1690610647201538, -0.45277416706085205, 0.5231035947799683, 0.11657590419054031, -0.15926921367645264, 0.04896331578493118, -0.1490650475025177, -0.014179172925651073, 0.22465725243091583, -0.028838204219937325, -0.3113955855369568, -0.3852423131465912], [-0.9860346913337708, -0.005998831242322922, -0.17766544222831726, 0.0677526667714119, 0.15985609591007233, -0.17876407504081726, -0.26590654253959656, 0.12058383971452713, 0.0028686814475804567, -0.2539290487766266, 0.1542990505695343, -0.15896981954574585, 0.207246333360672, 0.3663041293621063, 0.0505232997238636, -0.035175222903490067, 0.503966748714447, 0.19740968942642212, 1.0224584341049194, -0.3136318325996399, 0.22595925629138947, -0.4709904193878174, -0.061295658349990845, 0.3033721446990967, -0.3317720592021942, 0.1179344654083252, -0.15720658004283905, 0.04178624227643013, 0.24597813189029694, -0.3905864357948303, -0.11638469994068146, 0.38433054089546204, -0.3676357567310333, -0.022885458543896675, -0.08070595562458038, 0.05447637289762497, 0.17387159168720245, -0.22211714088916779, -0.28537794947624207, 0.14354656636714935, 0.6642157435417175, -1.3883174657821655, 0.4457762837409973, -0.18497514724731445, -0.11896572262048721, -0.28658732771873474, -0.5735458135604858, 0.20342177152633667], [-0.019982852041721344, 0.22216759622097015, -0.13055938482284546, -0.28763049840927124, -0.2223241776227951, 0.81653892993927, -0.5079699754714966, 0.012202241457998753, -0.414463073015213, -0.4586935341358185, 0.36951911449432373, 1.0916718244552612, 0.22451095283031464, 0.5317623019218445, -0.11990315467119217, 0.34662914276123047, -1.0286586284637451, 0.024772414937615395, 0.6931933164596558, -0.19648011028766632, 0.02642642892897129, 0.02520550787448883, -1.0040143728256226, 0.09977511316537857, 0.41085538268089294, 0.5291858911514282, 1.025549292564392, 0.344487726688385, 0.05748988315463066, -0.09090960770845413, -0.42883044481277466, -0.10263679176568985, 0.1836894303560257, -0.19691932201385498, 0.05403558537364006, -0.5126176476478577, 0.07603342831134796, -0.2596796452999115, -0.014263899065554142, 0.14025911688804626, 0.49752965569496155, -0.40632471442222595, -0.24328398704528809, 0.4470255970954895, 0.06632297486066818, 0.4350997507572174, -0.46228039264678955, -0.13450340926647186], [-0.2051602154970169, 0.26003989577293396, 0.011529265902936459, 0.582653820514679, -0.009153369814157486, -0.9183171391487122, 0.23641780018806458, -0.9794816374778748, 0.3697895407676697, -0.3279232084751129, -0.3388104736804962, 0.27502313256263733, -0.8636527061462402, 0.7327942252159119, 0.622119128704071, -0.011045139282941818, 0.235187366604805, -0.20277610421180725, -0.6718301773071289, 0.2133791595697403, 0.03420507162809372, 0.2668532729148865, 0.1564284861087799, -0.5341622829437256, -0.1488364040851593, 0.313448429107666, -0.16818809509277344, 0.13943514227867126, 0.51363605260849, 0.4810519814491272, -0.03095109388232231, 0.3852653205394745, -0.31647229194641113, -0.09742379933595657, 0.38699638843536377, -0.636758029460907, 0.17754854261875153, -0.26648566126823425, 0.3749634325504303, -0.40486735105514526, -0.3733413815498352, -0.20441561937332153, 0.08387153595685959, 0.37749388813972473, 0.0639835000038147, 0.23067784309387207, 1.0160648822784424, -0.3904201090335846], [-0.09313058853149414, -0.38386276364326477, 0.4154457151889801, 0.6667870879173279, 0.40189680457115173, 0.17598724365234375, 0.27355045080184937, 0.23542064428329468, 0.0005733598954975605, 0.6547472476959229, -0.0914808064699173, -0.1370183229446411, -0.3098364770412445, 0.037809863686561584, 0.47121956944465637, 0.6652073860168457, 0.22706954181194305, -0.004070510156452656, -0.3859110474586487, 0.13891589641571045, 0.9881154894828796, 0.18538376688957214, -0.46510669589042664, 0.4521526098251343, -0.26703083515167236, 0.32591503858566284, 0.1436789333820343, 0.14566481113433838, 1.2282164096832275, 0.288360595703125, -0.8763298392295837, 0.39643633365631104, -0.30441179871559143, -0.12592805922031403, 0.20919552445411682, 0.5131992101669312, -0.32993289828300476, -0.23125363886356354, 0.18296225368976593, 0.07400598376989365, 0.4572787880897522, 0.26564642786979675, -0.6462534666061401, -0.036071114242076874, -0.07011803239583969, -0.07214824855327606, 0.8340049982070923, 0.19409380853176117], [-0.265999436378479, 0.23157505691051483, -0.12314478307962418, 0.896117627620697, 0.6747790575027466, -0.9947589635848999, -0.6443854570388794, -0.3176834285259247, -0.9512198567390442, -0.5371793508529663, 0.18644697964191437, 0.7804667353630066, 0.7364106178283691, -0.3113461434841156, 0.20423008501529694, 0.38534167408943176, 0.5195170640945435, 0.06392431259155273, 0.11111029982566833, -0.08059646934270859, 0.9866588711738586, -0.005894261412322521, 0.07126636058092117, 0.22837471961975098, -0.45162174105644226, -0.01304184552282095, 0.6375192403793335, 0.47814372181892395, -0.8659186363220215, -0.22455796599388123, -0.2922036349773407, 0.3637967109680176, 0.3384326100349426, -0.10572639107704163, 0.5144385695457458, -0.031497471034526825, -0.13158370554447174, 0.2824109196662903, -0.40936803817749023, -0.29110026359558105, 0.2870459258556366, -0.10167013108730316, -0.003139910288155079, 0.34336057305336, 0.5139143466949463, -0.6629283428192139, 0.09959039837121964, -0.09427293390035629], [-0.6331354975700378, -0.3112001419067383, 0.8780485987663269, 0.4463268518447876, -0.4873111844062805, 0.23089218139648438, -0.9051921963691711, 0.43776535987854004, 0.38031256198883057, 0.5107830166816711, -0.3104865550994873, 0.34751009941101074, 0.7349029183387756, 0.5456502437591553, 0.17578764259815216, 0.5084152817726135, -0.28756949305534363, 0.07876043021678925, 0.449968546628952, 0.04102532938122749, -0.30887335538864136, -0.15074707567691803, -0.09959739446640015, 0.17204485833644867, 0.25798648595809937, 0.11965588480234146, 0.13287273049354553, 0.23688103258609772, -0.40925467014312744, 0.05898754298686981, 0.22909089922904968, -0.25967976450920105, 0.2984684705734253, 0.02147720381617546, -0.06582976132631302, -0.11142325401306152, -0.27868762612342834, 0.3491702973842621, 0.3170194625854492, 0.41491714119911194, -0.07129842042922974, -0.319923996925354, 0.20154166221618652, 0.39174747467041016, 0.6903617978096008, -0.2221708744764328, 0.2684752941131592, -0.301111102104187], [0.7599798440933228, -0.06724520027637482, 0.06962233781814575, 0.7110037803649902, -0.9485841393470764, -0.37563779950141907, -0.756317675113678, -0.24145077168941498, 0.1773453801870346, -1.0666366815567017, -0.6363993883132935, 0.5295373201370239, -0.15613843500614166, -0.26153984665870667, 0.4996083378791809, 0.07412102818489075, 0.36073973774909973, 0.5595925450325012, 0.3715858459472656, 0.33530423045158386, -0.26229414343833923, -0.06572543829679489, -0.1740957796573639, 0.010701439343392849, -0.04474712535738945, 0.027209650725126266, -0.41136759519577026, 0.0240408256649971, 0.3415427803993225, 0.08739487826824188, 0.4639149308204651, 0.5146403908729553, 0.2644205689430237, -0.3077547550201416, -0.48252740502357483, -0.4331713616847992, -0.07346823066473007, 0.0017367290565744042, 0.4427209198474884, -0.159612774848938, 0.2995339334011078, -0.1029476746916771, 0.36811497807502747, 0.18608209490776062, 0.2961186170578003, -0.1913062334060669, 0.3198542296886444, -0.18927612900733948], [-0.3871307969093323, -0.7863644361495972, -0.9609019160270691, 0.1447010636329651, -0.0838654637336731, -0.4877305030822754, -0.8331831693649292, 0.22567863762378693, -0.26193729043006897, 0.7188014984130859, 0.19636209309101105, -0.7099295854568481, -0.5068010091781616, -0.05354463681578636, 0.34326738119125366, -0.06788933277130127, 0.06547330319881439, 0.012465165928006172, 0.21727107465267181, 0.39407482743263245, 0.7114570736885071, -0.3142396807670593, -0.22987735271453857, -0.04946864768862724, 0.09978660196065903, 0.21275708079338074, 0.398861825466156, 0.21215535700321198, 0.5485128164291382, -0.49016842246055603, -0.11723146587610245, 0.03991564363241196, 0.12511353194713593, -0.03208968788385391, -0.07056429237127304, -0.42889639735221863, -0.047118522226810455, 0.08546805381774902, -0.5973406434059143, -0.11802320927381516, -0.34895652532577515, 0.0679970532655716, -0.19563178718090057, 0.13039058446884155, 0.42287638783454895, -0.1493280977010727, 1.0843806266784668, -0.562228798866272], [0.18701763451099396, -0.07718074321746826, -0.18518592417240143, -0.2529372274875641, -0.5334594249725342, 0.31933850049972534, -0.5888604521751404, 0.5828210115432739, 0.6571741104125977, -0.270230233669281, 0.17116785049438477, 0.17381733655929565, 0.6406221389770508, 0.25616535544395447, -0.03890812769532204, 0.3326551616191864, 0.3841615915298462, 0.5358858108520508, -0.67398601770401, -0.5270962715148926, -1.1395152807235718, -0.6721838712692261, 0.7205075621604919, -0.018648842349648476, 0.18623454868793488, 0.18253780901432037, -0.408504456281662, 0.28075313568115234, -0.3489956259727478, 0.26746952533721924, 0.0612761527299881, 0.2233508974313736, 0.15543505549430847, -0.4369748830795288, -0.27628371119499207, -0.37709617614746094, 0.24463561177253723, -0.5058124661445618, 0.09545744210481644, -0.23083148896694183, -0.23289278149604797, -0.012671665288507938, -0.5291492342948914, 0.2214345932006836, -0.2798745334148407, 0.5903329849243164, -0.29272982478141785, -0.7001841068267822], [0.09981716424226761, -0.17467357218265533, -0.6139923930168152, -0.27653101086616516, 0.806183934211731, -0.5049642324447632, 0.36005598306655884, 0.13358737528324127, -0.5298156142234802, 0.45170921087265015, -0.6541027426719666, -0.2617562413215637, 0.7607685923576355, -0.3475804030895233, -0.3858112692832947, 0.04000147059559822, 0.15100084245204926, 0.185251384973526, 0.35602784156799316, -0.5624712705612183, 0.5611833930015564, -0.13800209760665894, -0.33490145206451416, 0.06116658076643944, -1.4214543104171753, -0.21199563145637512, -0.854476809501648, 0.003787060035392642, -0.8332329988479614, 0.3518650531768799, -0.029027463868260384, -0.3634336292743683, -0.16828030347824097, -0.5304202437400818, 0.2724107503890991, -0.6095852851867676, 0.11601019650697708, 0.35646072030067444, 0.09890665858983994, -0.2884867489337921, 0.23133906722068787, 0.16579744219779968, -0.14660537242889404, 0.3588480055332184, -0.2573096752166748, -0.1871255338191986, -0.019143950194120407, 0.05048880726099014], [0.9430313110351562, 0.6490856409072876, -0.4307953715324402, 0.5572261214256287, -0.5742927193641663, 0.16707922518253326, -1.4697271585464478, 1.260328769683838, -0.3885229527950287, -0.0877443477511406, -0.7285319566726685, 0.2873370349407196, 0.33674684166908264, 0.2494310587644577, 0.4007447361946106, 0.18298910558223724, 0.0678144097328186, -0.26808613538742065, -0.24924194812774658, 0.30897945165634155, -0.14109396934509277, 0.04087669774889946, 0.16216233372688293, -0.25663086771965027, -0.18282009661197662, -0.17403632402420044, -0.18810032308101654, 0.17105518281459808, 0.3392345905303955, -0.23076455295085907, 0.17257602512836456, 0.06392611563205719, -0.09934654831886292, -0.015101521275937557, -0.16383996605873108, 0.07433037459850311, 0.09130240231752396, 0.0018772411858662963, -0.10459024459123611, -0.0490870475769043, 0.048142530024051666, 0.25317779183387756, -0.06432519853115082, -0.06874198466539383, 0.12790308892726898, 0.2044694423675537, 0.09764724969863892, -0.44843804836273193], [0.3967847526073456, 0.2841565012931824, -0.5020104050636292, 0.25864607095718384, 0.1352721005678177, 0.08776002377271652, -0.12475273758172989, -0.16549982130527496, -0.3089681565761566, -0.4847293198108673, -0.2141447365283966, -0.2633073329925537, -1.1327286958694458, 0.6893373727798462, -0.053096476942300797, 0.1384793221950531, 0.2789669632911682, 0.313854843378067, -0.4605146646499634, -0.4896412789821625, 0.4300927519798279, -0.11703812330961227, 0.6761518120765686, 0.026850631460547447, 0.8700625896453857, 0.35148897767066956, -0.2619089186191559, -0.17049700021743774, 0.579938530921936, 0.38758519291877747, -0.01431060116738081, -0.21919108927249908, -0.5264124870300293, 0.8775746822357178, 0.4284787178039551, 0.30706214904785156, 0.4243776500225067, -0.5185309052467346, -0.087447389960289, -0.18184347450733185, -0.5745496153831482, -0.006046118680387735, 0.25382453203201294, -0.19684068858623505, 0.46548718214035034, -0.6204563975334167, 0.604295551776886, 0.28662192821502686], [0.16217662394046783, 0.21459771692752838, 0.26046377420425415, -0.5208019614219666, 0.02529020607471466, -0.07046449929475784, 0.3722248375415802, 0.7900112271308899, 0.293086439371109, 0.19858132302761078, -0.1746046394109726, -0.26307493448257446, -0.036378588527441025, -0.13922929763793945, -0.3605949878692627, 0.24211975932121277, -0.308197945356369, -0.048584576696157455, -0.317679762840271, 0.09569305181503296, 0.5234404802322388, -0.7739989161491394, -0.7156326770782471, 0.03618195652961731, -0.3350398540496826, -0.6379226446151733, 0.2123996615409851, 0.19788217544555664, -0.2937090992927551, -0.03825148195028305, -0.23691025376319885, 0.3385433554649353, 0.3151332139968872, -0.21561157703399658, 0.6146455407142639, 0.8990125060081482, -0.124545618891716, 0.21447345614433289, 0.6709141731262207, 0.057178400456905365, -0.14065031707286835, 0.2889260947704315, 0.34182944893836975, 0.20097821950912476, -0.40911954641342163, -0.5796758532524109, 0.16491974890232086, 0.44779953360557556], [0.6677470803260803, -0.07159651815891266, 0.0680341124534607, 0.04285210743546486, 0.5852900147438049, -0.9057997465133667, -0.5175870060920715, -0.41239631175994873, -0.29121649265289307, -0.19665193557739258, -1.0178699493408203, 0.17834579944610596, -0.2395530343055725, 0.33568719029426575, 0.30616992712020874, -0.6720286011695862, 0.38391798734664917, -0.44275158643722534, 0.3900830149650574, 0.10694891214370728, 0.21903428435325623, 0.46246272325515747, 0.2847502827644348, -0.23306819796562195, -0.041131213307380676, -0.23408301174640656, 0.807500422000885, 0.26395732164382935, 0.38271796703338623, -0.11579037457704544, -0.04493585601449013, -0.08157004415988922, -0.01835566572844982, -0.24420496821403503, 0.3673839867115021, 0.007708401419222355, -0.5173014998435974, -0.033734917640686035, -0.11117861419916153, -0.058054886758327484, -0.159566730260849, -0.20792238414287567, -0.6219286918640137, -0.16139066219329834, -0.38067835569381714, -0.6057129502296448, -0.07210668176412582, 0.8198250532150269], [-0.2975991368293762, 0.6950498223304749, -0.3155328035354614, 0.0466887541115284, 0.955047607421875, -0.05706026032567024, 0.6444400548934937, -1.405315637588501, 0.013004299253225327, -0.9008727073669434, -0.41232120990753174, -0.08734294027090073, -0.09071647375822067, 1.0303847789764404, 0.871537446975708, -0.17086376249790192, -0.11856747418642044, -0.01378049049526453, 0.15367235243320465, 0.17154480516910553, -0.15227364003658295, 0.21505244076251984, -0.15438663959503174, 0.1499173641204834, -0.4395364224910736, 0.420583039522171, -0.6133628487586975, 0.13600140810012817, 0.36069199442863464, 0.11434036493301392, -0.21824605762958527, 0.2964394986629486, 0.1990048736333847, -0.1627839058637619, -0.39774224162101746, 0.22464674711227417, -0.1878931224346161, 0.26665329933166504, 0.1823491007089615, -0.2085760086774826, -0.07572588324546814, -0.3158896863460541, -0.059070270508527756, -0.03905276954174042, 0.30033257603645325, -1.1965750455856323, 0.3500162661075592, 0.5169029831886292], [-0.06379564851522446, 0.08626732230186462, 0.038019225001335144, 0.4388655722141266, -1.4806416034698486, -0.42527562379837036, -0.3939219117164612, -0.21433618664741516, 0.08323400467634201, 0.3555786907672882, -1.0206756591796875, -0.8248555660247803, -0.05758960545063019, -0.23527084290981293, 0.3035427927970886, -0.47075802087783813, 0.04428044334053993, -0.04265085607767105, 0.2653205096721649, -0.6109411120414734, -0.10259457677602768, 0.5526991486549377, 0.225687637925148, 0.057521358132362366, -0.09200642257928848, 0.00273899850435555, 0.4379764199256897, 0.03021078370511532, 0.028226865455508232, 0.10762257128953934, 0.7316581606864929, 0.2620755732059479, 0.05338113009929657, 0.4052877128124237, 0.09478677809238434, 0.14021052420139313, -0.10821285098791122, 0.48723742365837097, -0.07326989620923996, 0.6806075572967529, 0.10963653028011322, 0.5229738354682922, 0.27245035767555237, 0.8144623041152954, 0.17449703812599182, 0.052459895610809326, -0.08262604475021362, 0.24887128174304962], [-0.37805190682411194, -0.23817677795886993, -0.08049336075782776, -0.8033120036125183, 0.5302630066871643, 0.3180275857448578, -0.1200644001364708, 0.5160328149795532, 0.5831518769264221, 0.34374767541885376, -0.3834773302078247, -0.2409701943397522, 0.08688244968652725, -0.31540659070014954, -0.8264850974082947, 0.423017293214798, 0.12598858773708344, -0.45355531573295593, -0.232819601893425, -0.15938234329223633, 0.7298991680145264, 0.34759989380836487, 0.20518554747104645, -0.0918489396572113, -0.013437896966934204, -0.005979402922093868, 0.2597448527812958, 0.5667946338653564, 0.7635087370872498, -0.11263766139745712, -0.07327535003423691, 0.05516953393816948, 0.3997253179550171, 0.5251542925834656, -0.2628409266471863, -0.4210793972015381, -0.5817229151725769, -0.3035200834274292, 0.8049347400665283, -0.35397693514823914, -0.21571941673755646, 0.2526874542236328, 0.1013907641172409, -0.06675729900598526, 0.3215680420398712, -0.010268963873386383, 0.17030060291290283, -0.2806119918823242], [0.543949544429779, 0.4877769649028778, 0.3219181001186371, 0.8009155988693237, 0.2543395161628723, -1.1677321195602417, 0.7584695219993591, 0.17642901837825775, -0.30324071645736694, 0.013750210404396057, -0.8784473538398743, -0.5459319949150085, -0.5318125486373901, 0.36249294877052307, 0.5308156609535217, -0.38987472653388977, 0.5593726634979248, 0.002750179497525096, -0.5284832119941711, 0.07455333322286606, -0.27919527888298035, -0.1325078308582306, -0.0852135643362999, 0.256999671459198, -0.6606401205062866, 0.5855352282524109, -0.21025796234607697, 0.5252084136009216, 0.36075863242149353, 0.3499108850955963, 0.1854812353849411, 0.23155584931373596, -0.21265815198421478, 0.3383430540561676, 0.2528199851512909, 0.0196108166128397, -0.014899632893502712, -0.17053139209747314, 0.3557620048522949, -0.5255091786384583, 0.6459391117095947, 0.6198084950447083, -0.26645201444625854, -0.03663783147931099, 0.1893390268087387, -0.5328443050384521, 0.16038267314434052, -0.42774462699890137], [-0.4269741177558899, 0.38639673590660095, 1.0687791109085083, -0.11211707442998886, 0.07677539438009262, -0.28324219584465027, -0.26848310232162476, -0.2055939882993698, -0.8096475601196289, 0.23890918493270874, 0.1827714443206787, -0.316836416721344, 0.37076011300086975, 0.042688921093940735, 1.014629602432251, 0.5539238452911377, 0.18520456552505493, -0.01699524186551571, -0.2027914673089981, 0.15876412391662598, -0.2486073225736618, -0.5410130023956299, -0.46075624227523804, 0.27818334102630615, 0.6613059639930725, 0.5019972920417786, -0.5226417779922485, -0.2244560420513153, -0.8317335844039917, -0.4206386208534241, -0.02659018337726593, 0.28404366970062256, 0.05799665302038193, 0.05031541734933853, 0.21223542094230652, 0.4358518123626709, 0.13189348578453064, -0.3812059462070465, 0.34807565808296204, 0.35765111446380615, -0.09840533882379532, -0.42985790967941284, 0.17636409401893616, 0.4429835081100464, 0.2717887759208679, 0.5691354274749756, -0.6659191250801086, 0.28318852186203003]], "b": [0.11918310075998306, -0.08088374137878418, 0.127969890832901, 0.09888186305761337, -0.22814425826072693, -0.15569888055324554, 0.14451384544372559, -0.13038961589336395, -0.3117470145225525, -0.034252576529979706, -0.14185714721679688, -0.046238262206315994, 0.16808634996414185, -0.19358745217323303, 0.24295511841773987, 0.017957398667931557, 0.21394336223602295, -0.02847691811621189, 0.06870874762535095, -0.14002306759357452, -0.3186506927013397, -0.16322606801986694, -0.08862566947937012, 0.17497748136520386, 0.028729284182190895, -0.022067589685320854, -0.11501352488994598, 0.14961348474025726, -0.05673574283719063, -0.3621605932712555, -0.031056171283125877, -0.18392173945903778, -0.1491599678993225, -0.10831955820322037, -0.169650599360466, 0.1339375078678131, 0.1560361087322235, 0.0568365640938282, -0.1367252916097641, 0.241343155503273, 0.2916198968887329, -0.13637948036193848, -0.09674933552742004, -0.0063070920296013355, -0.0753210186958313, -0.2709818184375763, 0.21990063786506653, -0.0973535105586052, 0.06083817407488823, 0.3139387369155884, 0.13190627098083496, -0.18621252477169037, -0.241109699010849, -0.29616281390190125, 0.09142886102199554, -0.0012887096963822842, -0.13654282689094543, -0.23597389459609985, -0.012438333593308926, -0.29547595977783203, 0.04527251794934273, 0.1170453429222107, -0.13853612542152405, -0.09037880599498749], "activation": "tanh"}, {"w": [[-0.34069618582725525, -0.2854577302932739, -0.43740904331207275, -0.042005110532045364, -0.27871325612068176, -0.20492102205753326, 0.7037376165390015, -0.15791696310043335, -0.3396211564540863, 0.10125351697206497, -0.3901359438896179, -0.30349066853523254, -0.08924051374197006, -0.3978644907474518, 0.2668900191783905, -0.02662244811654091, -0.46154043078422546, -0.1472977250814438, 0.6916815042495728, 0.19380807876586914, -0.19417333602905273, 0.009680383838713169, 0.24238678812980652, 0.02193576842546463, 0.04928718879818916, -0.9784250855445862, -0.4179771840572357, -0.29075124859809875, 0.04782314598560333, -0.02079213410615921, 0.07119197398424149, -0.10968182981014252, -0.09368683397769928, -0.23194779455661774, -0.162248894572258, -0.02305532619357109, -0.752860963344574, -0.4919064939022064, 0.20575913786888123, 0.3924317955970764, -0.1937812864780426, -0.28985387086868286, 0.03107784129679203, 0.2768247127532959, 0.08972746878862381, -0.07596515119075775, -0.6124279499053955, 0.1077485978603363, 0.6808329820632935, -0.5243712067604065, -0.23429030179977417, 0.19176866114139557, 0.29930371046066284, 0.39243435859680176, 0.0416170097887516, 0.06359710544347763, 0.3744615316390991, 0.4064037799835205, 0.13945965468883514, -0.5586965680122375, 0.2734030485153198, 0.2531069219112396, 0.042742859572172165, -0.44231078028678894], [-0.14973345398902893, 0.10820797085762024, -0.38011279702186584, -0.2848740816116333, -1.0310183763504028, 0.32552558183670044, -0.30365189909935, 0.007447944022715092, -0.0036252010613679886, -0.6379534006118774, 0.4466385841369629, 0.3080405294895172, -0.509815514087677, 0.5180741548538208, 0.7662162780761719, 0.008328882046043873, 0.021167756989598274, 0.11390874534845352, 0.2766571342945099, -0.04948440566658974, -0.38892507553100586, 0.48660808801651, 0.38966691493988037, -0.03714505583047867, -0.42713358998298645, -0.2590412199497223, -0.057896312326192856, -0.09571996331214905, 0.046339455991983414, 0.1500677466392517, 0.4762597680091858, -0.1385650783777237, 0.33139321208000183, -0.6766825914382935, -0.5280937552452087, 0.6427243947982788, 0.2825195789337158, -0.4306095242500305, 0.46785882115364075, 0.13240079581737518, -0.0010009536053985357, 0.04535270854830742, -0.4953905940055847, 0.23591946065425873, -0.06970052421092987, -0.10161492973566055, -0.24026399850845337, -0.2929898202419281, -0.03355476260185242, 0.00822496134787798, 0.29948723316192627, -0.12573009729385376, -0.15516269207000732, -0.21416354179382324, 0.06419730186462402, 0.46580061316490173, -0.3185276389122009, 0.4416239261627197, 0.17207378149032593, -0.9095957279205322, 0.22705769538879395, 0.14234130084514618, 0.7271428108215332, -0.11895276606082916], [-0.26729556918144226, 0.29403725266456604, 0.054781198501586914, 0.04541768878698349, 0.2778341770172119, -0.24135488271713257, -0.33749520778656006, -0.026968004181981087, -0.33304885029792786, 0.8253223299980164, -0.4073287844657898, -0.03243404999375343, -0.050495561212301254, -0.7925354838371277, -0.6760390400886536, 0.13125143945217133, -0.06517842411994934, 0.423258513212204, -0.3863416910171509, 0.41761910915374756, 0.23299571871757507, 0.1860642284154892, 0.5261967778205872, 0.2197691649198532, 0.2930370271205902, -0.11276540160179138, 0.7357179522514343, -1.1389341354370117, 0.3652806580066681, -0.06812701374292374, -0.05558811128139496, -0.010531461797654629, -0.45352834463119507, -0.1539953649044037, 0.44550761580467224, 0.12747915089130402, 0.24057216942310333, 0.20884862542152405, 0.13175252079963684, -0.02503606304526329, 0.135110542178154, -0.473340779542923, -0.01924186199903488, 0.33255821466445923, 0.3164753019809723, -0.023873910307884216, -0.12117212265729904, -0.13533799350261688, -0.3558027446269989, -0.8857091069221497, 0.10473540425300598, 0.3631969690322876, 0.02320699580013752, -0.00771538820117712, 0.19324369728565216, 0.6563006639480591, 0.2438785582780838, 0.31009599566459656, -0.010081330314278603, 0.4513147175312042, -0.5344749093055725, -0.8941037654876709, 0.47294726967811584, 0.190149188041687], [0.31258150935173035, 0.043146952986717224, -0.3492017984390259, -0.6438556909561157, 0.12881331145763397, 0.009175959974527359, 0.4052107036113739, 0.18970145285129547, 0.5586661696434021, 0.08853333443403244, 0.3203274607658386, -0.0027230405248701572, -0.041120436042547226, 0.15690863132476807, 0.7006863951683044, 0.7427583932876587, 0.1260843425989151, 0.2775828242301941, -0.1291625201702118, -0.08666104078292847, -0.3864501714706421, 0.5730088949203491, 0.3452146351337433, 0.24990493059158325, -0.13076049089431763, 0.2451614886522293, 0.6980416178703308, -0.17614872753620148, -0.05522135645151138, 0.14094196259975433, -0.008629937656223774, -0.27436694502830505, -0.1020229160785675, -0.018555637449026108, 0.183180034160614, 0.6376932859420776, 0.15574941039085388, 0.5036526322364807, 0.5729131698608398, 0.13487572968006134, -0.364918977022171, -0.10131096094846725, -0.2560572326183319, 0.38445648550987244, 0.6313585638999939, -0.1746734082698822, -0.38902294635772705, -0.3147493302822113, 0.2903613746166229, -0.36166438460350037, -0.28443706035614014, 0.5036835670471191, -0.39968401193618774, -0.1738249659538269, 0.15417276322841644, 1.2791686058044434, -0.03499375283718109, 0.45916232466697693, -0.07403989881277084, -0.15515325963497162, 0.18004372715950012, 0.41658225655555725, 0.449385404586792, 0.5877916812896729], [-0.5043852925300598, 0.7539183497428894, -0.05366400256752968, 0.2264471799135208, -0.902021586894989, -0.12557671964168549, -0.08948377519845963, -0.28569260239601135, 0.16901269555091858, 0.1126754954457283, -0.29160547256469727, 0.4484551250934601, 0.1724736988544464, 0.1152355894446373, -0.3367560803890228, 0.27288660407066345, -0.12157844007015228, 0.12013909965753555, -0.21311156451702118, 0.08774029463529587, 0.1803113967180252, -0.044519875198602676, -0.3495495915412903, -0.6162233352661133, 0.05877850577235222, -0.31151190400123596, -0.7277674674987793, -0.08486279100179672, 0.09787723422050476, -0.5745009779930115, -0.4100836515426636, -0.0813072994351387, -0.15009698271751404, 0.285281777381897, -0.5075611472129822, 0.344345360994339, -0.3753916323184967, 0.0806548073887825, 0.07344213873147964, -0.36090660095214844, 0.17253024876117706, 0.21610745787620544, -0.43092450499534607, 0.8069071769714355, -0.3127267062664032, -0.06583419442176819, -0.013107720762491226, 0.12594090402126312, -0.7670621871948242, 0.24085895717144012, -0.02341204695403576, -0.07050272077322006, 0.6267902851104736, -0.17436715960502625, 1.0427008867263794, -0.0581844300031662, 0.08001713454723358, 0.26206377148628235, -0.3516724705696106, 0.35805290937423706, -0.13148927688598633, 0.4334496259689331, -0.1820518970489502, 0.09537529945373535], [-0.15850979089736938, 0.03457322716712952, -0.22910024225711823, -0.33549389243125916, 0.5124723315238953, -0.011408194899559021, -0.472289502620697, -0.2603072226047516, -0.06426016241312027, 0.19607548415660858, -0.21088384091854095, 0.8151804208755493, -0.447348028421402, -0.27893388271331787, 0.24074198305606842, 0.01644040457904339, 0.3013048470020294, -0.29517489671707153, 0.47231101989746094, -0.2266772836446762, -0.3057410717010498, -0.341388076543808, -0.9457284808158875, -0.39869624376296997, 0.40074336528778076, 0.6489213705062866, 0.06882592290639877, -0.7669957280158997, 0.15457727015018463, -0.17576339840888977, -0.07833800464868546, -0.19813483953475952, 0.17587924003601074, 0.4017156958580017, -0.2840713858604431, 0.31895512342453003, -0.42495331168174744, -0.3596528172492981, 0.10655714571475983, -0.1323714703321457, -0.06437141448259354, 0.7306145429611206, -0.012259894981980324, -0.6300489902496338, 0.12122899293899536, 0.6323487162590027, -0.11006491631269455, -0.45502719283103943, 0.4681554138660431, 0.2857498526573181, -0.1342887580394745, 0.04443160444498062, -0.17561796307563782, 0.7988447546958923, -0.20343534648418427, -0.08203589171171188, 0.03548642620444298, 0.1581411063671112, 0.08379770815372467, 0.1750790774822235, -0.421455442905426, 0.26794302463531494, -0.21365897357463837, 0.23111790418624878], [0.29119038581848145, -0.4703463912010193, -0.5247281193733215, 0.14474108815193176, -0.32632848620414734, 0.018936192616820335, 0.5286426544189453, -0.12785865366458893, -0.5393355488777161, 0.25112059712409973, 0.211417093873024, -0.1888161450624466, -0.36230066418647766, 0.2886870801448822, -0.3252459168434143, -0.7732639312744141, -0.015025164000689983, -0.3158358037471771, 0.14313389360904694, -0.03641126677393913, 0.31714680790901184, -0.28603366017341614, 0.031261809170246124, -0.10833698511123657, 0.2385154664516449, -0.10969199985265732, -0.5575117468833923, -0.7560689449310303, 0.07488454133272171, -0.5816932320594788, -0.1053723469376564, 0.5332581996917725, -0.1712130457162857, 0.009040803648531437, 0.19647736847400665, 0.6088152527809143, -0.7077315449714661, 0.5297425389289856, -0.12825289368629456, 0.002951124683022499, -0.25783076882362366, 0.15222027897834778, 1.1574032306671143, -0.041308384388685226, -0.5415955781936646, 0.16524876654148102, 0.41485416889190674, -0.22511255741119385, 0.22174440324306488, 0.6105541586875916, 0.01893814094364643, 0.2483559548854828, -0.2709812819957733, -0.2690454125404358, 0.23346370458602905, 0.6616296768188477, -0.11784482002258301, -0.019789697602391243, 0.15863992273807526, 0.09166406095027924, 0.11618915945291519, -0.5066157579421997, 0.15154685080051422, -0.1248488500714302], [-0.27473184466362, -0.055254388600587845, -0.001199302263557911, 0.4667317867279053, -0.34631824493408203, 0.39684179425239563, -0.38751059770584106, -0.21180708706378937, 0.7111332416534424, 0.012043925933539867, -0.3888666331768036, 0.4660952389240265, 0.19352403283119202, 0.02692757546901703, -0.7780868411064148, 0.921748161315918, -0.4642309844493866, 0.5179657936096191, -0.4093690514564514, 0.3041554093360901, -0.03703887388110161, 0.22091218829154968, 0.40349081158638, -0.18943873047828674, -0.19980065524578094, 0.04716138169169426, 0.059080470353364944, 0.16367925703525543, -0.17236365377902985, -0.1752954125404358, -0.5830926299095154, 0.3427533209323883, -0.10370746999979019, -0.44395577907562256, -0.04124430939555168, -0.13690155744552612, -0.32814547419548035, 0.5669228434562683, -0.35214540362358093, 0.025292271748185158, -0.14566463232040405, -0.055408865213394165, 0.12165206670761108, -0.026188557967543602, 0.0540689192712307, 0.21677707135677338, -1.2957724332809448, 0.6958142518997192, -0.46696165204048157, 0.2757599353790283, -0.8053003549575806, 0.7810920476913452, -0.06304016709327698, -0.4440368711948395, 0.014341028407216072, -0.4394797384738922, 0.21919548511505127, -0.018003154546022415, 0.35265353322029114, 0.361434668302536, 0.22529155015945435, 0.3163169026374817, 0.8081585168838501, -0.5805168151855469], [-0.5696291923522949, 0.16844114661216736, 0.259651243686676, -0.3030458688735962, 0.26961520314216614, 0.10244069993495941, 0.4453621804714203, 0.65828537940979, -0.13746277987957, -0.1282539665699005, 0.5575965046882629, -0.0020806030370295048, 0.3046902120113373, -0.004486695397645235, 0.1600562036037445, -0.04034247621893883, 0.09792514145374298, 0.23528924584388733, -0.22931815683841705, -0.6005479097366333, 0.14007116854190826, 0.0964062437415123, 0.5846750140190125, -0.20575234293937683, -0.5259600281715393, 0.3201915919780731, 0.5134421586990356, 0.1936105340719223, -0.007494756020605564, -0.08224773406982422, 0.6815910339355469, -0.5892818570137024, -0.010853416286408901, -0.3671117424964905, -0.14052549004554749, 0.5512239336967468, 0.23360884189605713, 0.23233243823051453, -0.3813566267490387, -0.6927478313446045, -0.1279749721288681, -0.9417284727096558, -0.5896797776222229, -0.4201088547706604, 0.7861077785491943, -0.38626155257225037, -0.3547574281692505, 0.057121239602565765, -0.2154371291399002, -0.8149872422218323, 0.028744833543896675, -0.12718306481838226, -0.1708081215620041, 0.3153749704360962, -0.11817765235900879, 0.1680760234594345, 0.2971556782722473, 0.6709375381469727, 0.4539737105369568, 0.17849424481391907, -0.06258822977542877, 0.35996514558792114, -0.0007469186675734818, -0.11983653903007507], [-0.3936327397823334, 0.26478636264801025, 0.5222348570823669, 0.7033641338348389, 0.3898294270038605, 0.18779484927654266, -0.46496614813804626, -0.05434824898838997, -0.3119417428970337, 0.4428673982620239, 0.30887073278427124, -0.590518057346344, -0.059805236756801605, -0.039268892258405685, -0.3792772889137268, 0.09068214893341064, 0.2845644950866699, -0.24843163788318634, -0.8438149690628052, -0.20919424295425415, -0.14972440898418427, -0.0333574153482914, -0.21355795860290527, -0.28526169061660767, 0.1381857991218567, 0.2875300645828247, 0.04786873981356621, -0.133546382188797, -0.03770093247294426, 0.2187376469373703, 0.6369895339012146, -0.3539731502532959, 0.2602367401123047, -0.10951263457536697, -0.24778324365615845, -0.080695740878582, -0.3976030647754669, -0.11043839156627655, 0.25908908247947693, 0.06830540299415588, 0.18740332126617432, 0.8558257222175598, 0.3221782445907593, -0.7018548250198364, -0.32142987847328186, 0.2536409795284271, 0.7589099407196045, -0.20093649625778198, 0.2581833004951477, 0.1809138059616089, 0.17723201215267181, 0.17954517900943756, 0.05818389728665352, 0.6420955657958984, 0.46593791246414185, -0.029141495004296303, -0.9481085538864136, 0.1446773111820221, 0.27411210536956787, -0.09007033705711365, 0.28257429599761963, 0.19710089266300201, 0.2733536660671234, -0.2013370394706726], [-0.12699760496616364, 0.991261899471283, -0.11338414996862411, -0.435931533575058, 0.00875724758952856, 0.14371493458747864, -0.0835244283080101, 0.04988550394773483, -0.3850760757923126, 0.4128083884716034, 0.2484152764081955, 0.5437271595001221, -0.036261022090911865, 0.061864499002695084, -0.26286572217941284, -0.24342866241931915, 0.20059184730052948, -0.6205275654792786, -0.20439288020133972, -0.33041661977767944, -0.18788301944732666, 0.10286117345094681, 0.38610297441482544, -0.11174701154232025, -0.10347537696361542, -0.23825132846832275, 0.6002817749977112, 0.22523920238018036, 0.10465645790100098, -0.5083760619163513, -0.12359476089477539, 0.13391494750976562, 0.35897296667099, 0.347480833530426, -0.37386825680732727, 0.12223411351442337, 0.4918482005596161, -0.5703287720680237, -0.2932016849517822, 0.0803113728761673, -0.7331772446632385, -0.2385299652814865, 0.17067532241344452, -0.16329100728034973, 0.05847497656941414, 0.3879317045211792, -0.1345844864845276, -0.5730407238006592, -0.10737352073192596, -0.01884464919567108, 0.21902424097061157, 0.08029121905565262, -0.10113608092069626, -0.5352992415428162, 0.7778795957565308, 0.9819161295890808, 0.07473533600568771, -0.7039059400558472, 0.3191213607788086, 0.023792728781700134, 0.7634265422821045, -0.02064235880970955, -0.20575839281082153, -0.3305450677871704], [0.14635790884494781, 0.41060206294059753, 0.33322957158088684, 0.1530209183692932, 0.14117519557476044, 0.10581673681735992, -0.1641918271780014, 0.5801559090614319, 0.18676641583442688, -0.09841836243867874, -0.28581467270851135, 0.1213439404964447, -0.27603617310523987, 0.2391035109758377, -0.29128918051719666, -0.43128737807273865, 0.19247548282146454, -0.5917015075683594, 0.2508927285671234, 0.4754384160041809, 0.08444340527057648, -0.01212698221206665, -0.17590852081775665, 0.2931796908378601, 0.638472318649292, -0.09884139895439148, 0.5671494603157043, -0.2120257318019867, -0.05574961379170418, -0.5187698602676392, -0.050030261278152466, -0.20148392021656036, -0.16727891564369202, -0.24663320183753967, 0.09794464707374573, -0.10873987525701523, 0.38962191343307495, -0.04258156940340996, -0.7850778698921204, 0.6031032204627991, 0.6063728928565979, -0.442734032869339, 0.062090229243040085, -0.35759225487709045, -0.12560231983661652, -0.1052827313542366, 0.5030990839004517, -0.17589274048805237, 0.22989404201507568, 0.21304267644882202, 0.17248648405075073, 0.07868120074272156, 1.1217443943023682, -0.2390105277299881, -0.806199848651886, 0.3258536756038666, 0.0921451598405838, -0.51468825340271, 0.964218258857727, -0.21097432076931, 0.1672215312719345, -0.28386595845222473, 0.43762561678886414, 0.5134155750274658], [-0.0948500782251358, 0.5906304717063904, 0.5926339626312256, -0.40473589301109314, 0.2749077379703522, -0.230610191822052, -0.012309054844081402, -0.38626036047935486, 0.5139346122741699, 0.18423062562942505, -0.27706649899482727, 0.33014562726020813, -0.30903637409210205, 0.15365396440029144, -0.32706862688064575, 0.12343194335699081, -0.12531141936779022, 0.25722408294677734, -0.4294477105140686, -0.7438244223594666, 0.17890509963035583, 0.3989312946796417, -0.22619052231311798, -0.3581184446811676, -0.09587997198104858, -0.2263808697462082, -0.4924720823764801, 0.11943797767162323, -0.7023326754570007, 0.18432411551475525, -0.36436018347740173, -0.23040679097175598, -0.31619879603385925, 0.08624138683080673, 0.01518726721405983, 0.7251548171043396, -0.20287516713142395, -0.3737122118473053, 0.007955611683428288, 0.041009023785591125, 0.587977409362793, 0.546852171421051, -0.15934093296527863, -0.17285209894180298, 0.9728268384933472, -0.39693522453308105, 0.3348388969898224, 0.2816891372203827, 0.06776371598243713, -0.09209106117486954, -0.3149240016937256, 0.11403757333755493, -0.11849740147590637, 0.14754712581634521, -0.21459732949733734, 0.753644585609436, -0.1353311538696289, 0.6506184339523315, 0.12615332007408142, -0.05441708117723465, -0.06860944628715515, 0.027527447789907455, 0.4185798168182373, 0.21202023327350616], [-0.6344276070594788, -0.16860322654247284, 0.40176960825920105, 0.22239728271961212, 0.43204930424690247, -0.1882757693529129, 0.541351854801178, -0.2179180532693863, -0.20282459259033203, -0.20931889116764069, 0.1512080281972885, -0.503323495388031, 0.45976999402046204, 0.016975773498415947, -0.5102585554122925, -0.15794140100479126, 0.13255131244659424, -0.15798026323318481, 0.4985450804233551, -0.171698197722435, 0.09661243855953217, 0.07000528275966644, -0.42940226197242737, 1.005815029144287, -0.31479522585868835, -0.257571280002594, 0.08627018332481384, 0.17513923346996307, -0.06048459932208061, 0.37960031628608704, -0.17086267471313477, 0.2990170121192932, 0.42487648129463196, 0.17640751600265503, -0.23792040348052979, -0.18908031284809113, -0.29850950837135315, 0.3847140371799469, 0.19146887958049774, 0.3664081394672394, 0.6482416987419128, 0.058917753398418427, 0.21536454558372498, -0.5666884779930115, 0.2203901708126068, -0.04776524379849434, 0.2292155772447586, -0.15173619985580444, -1.729718678689096e-05, 0.12066616117954254, 0.5259612798690796, 0.6670311093330383, 0.031704917550086975, 0.42091503739356995, 0.5526405572891235, 0.3043868839740753, 0.6658221483230591, -0.0012417653342708945, 0.4365006685256958, -0.8065280318260193, 0.22821971774101257, 0.21502640843391418, -0.5826032161712646, 0.36769288778305054], [0.08413489907979965, -0.08330099284648895, -0.43732088804244995, -0.550517201423645, 0.37103110551834106, -0.44324368238449097, -0.2009645253419876, 0.3173818588256836, -0.10405149310827255, 0.16280736029148102, 0.11201688647270203, -0.5411008596420288, 0.8551720380783081, -0.2606864273548126, 0.09730677306652069, 0.16480770707130432, -0.3898142874240875, -0.2988089919090271, -0.1801752895116806, 0.6051015853881836, 0.45162075757980347, -0.30397355556488037, -0.6711419224739075, 0.041399259120225906, -0.3425552248954773, 0.3165167570114136, 0.03295870125293732, -0.2734120488166809, 0.09246963262557983, -0.12750080227851868, -0.13376185297966003, -0.09751945734024048, -0.26167726516723633, 0.20368637144565582, 0.2526687979698181, -0.5447221398353577, -0.0918852910399437, 0.18575519323349, -0.11011097580194473, 0.15629950165748596, -0.4100283980369568, 0.04810745269060135, 0.18641297519207, -0.31129351258277893, 0.06650262326002121, 0.650397777557373, -0.3359396457672119, -0.7882582545280457, 0.051768604665994644, 0.3145160973072052, 0.17074362933635712, -0.7987956404685974, 0.04859684407711029, 0.30085769295692444, -0.3977104425430298, 0.6305249333381653, 0.5653935074806213, 0.02792472578585148, -0.5304210782051086, 0.01574171893298626, -0.5610089898109436, 0.6952565908432007, -0.39199191331863403, -0.059023551642894745], [-0.09813885390758514, 0.6596332788467407, 0.24598363041877747, 0.28642547130584717, -0.35184669494628906, -0.4866533875465393, -0.09135644882917404, -0.3163078725337982, 0.27552491426467896, 0.25883156061172485, 0.832335889339447, 0.003211387898772955, -0.07958123087882996, -0.7392197847366333, 0.16229845583438873, 0.11954072117805481, 0.45772942900657654, -0.039158787578344345, -0.16600476205348969, -0.1697608381509781, 0.3291492462158203, 0.4972229301929474, 0.1360202431678772, -0.5146536827087402, 0.2234438955783844, -0.14129720628261566, 0.017532408237457275, 0.4007376730442047, -0.2786255180835724, -0.24161197245121002, -0.04117773100733757, 0.6676257848739624, 0.7082384824752808, -0.14647457003593445, -0.35123634338378906, 0.14681489765644073, -0.3466346561908722, -0.26729243993759155, -0.023754112422466278, 0.026695890352129936, -0.03616246208548546, 0.5525636076927185, 0.36635467410087585, 0.3366123139858246, -0.2250242680311203, 0.3207102119922638, -0.19904592633247375, 0.16311000287532806, -0.24485023319721222, -0.06792270392179489, -0.46258580684661865, 0.6945719718933105, 0.04043113440275192, -0.15346525609493256, -0.5608417987823486, -0.07932668924331665, 0.2718927264213562, -0.31370705366134644, 0.08137734234333038, -0.2728523313999176, 0.4098151922225952, -0.27592572569847107, 0.6090619564056396, 0.17006929218769073], [-1.1497161388397217, 0.03590242192149162, 0.19359983503818512, 0.6499384045600891, 0.5547047853469849, 0.6031509041786194, 0.46231478452682495, -0.5597229599952698, 0.15477028489112854, -0.25153055787086487, 0.0594269298017025, 0.05100349336862564, -0.3373444378376007, 0.005611295346170664, 0.11288964003324509, 0.3760257661342621, -0.4173372983932495, -0.8135111331939697, 0.5397249460220337, 0.17771396040916443, 0.16341355443000793, -0.588603675365448, -0.28902292251586914, -0.013678532093763351, -0.1174473986029625, -0.2832188606262207, 0.17910796403884888, 0.6728132963180542, -0.05325305834412575, 0.03916933014988899, -0.3441636860370636, -0.11168485879898071, -0.5514912605285645, 0.032328054308891296, 0.061267103999853134, -0.20470872521400452, -0.1537749022245407, 0.28228655457496643, -0.3412202298641205, -0.5836186408996582, 0.25980144739151, -0.026163725182414055, -0.6792638301849365, -0.3117704391479492, -0.058534227311611176, -0.011325640603899956, -0.04377593472599983, 0.6997315287590027, -0.2498912662267685, 0.0847790390253067, 0.06330985575914383, 0.17585240304470062, -0.008438734337687492, 0.4067012667655945, -0.4031451940536499, -0.18783225119113922, 0.012809199281036854, -0.4864235818386078, 0.5636718273162842, 0.13164447247982025, 0.08556067198514938, 0.11732377856969833, 0.3557569682598114, -0.03759828582406044], [0.7340065240859985, 0.5045300722122192, -0.3941195011138916, 0.4587985873222351, -0.2384173721075058, 0.6207526922225952, -0.17220519483089447, -0.17358674108982086, -0.03628836199641228, -0.32561981678009033, 0.6406452655792236, 0.0683542862534523, -0.09854442626237869, -0.7657641172409058, 0.6484376788139343, 0.08149204403162003, 0.1588420867919922, -0.24320484697818756, -0.11649495363235474, -0.3526661694049835, -0.06154664605855942, 0.2864774763584137, 0.24183888733386993, 0.2582778036594391, 0.004024401307106018, -0.32422760128974915, -0.09158852696418762, -0.06241326779127121, -0.3334726095199585, 0.2454981803894043, 0.37383681535720825, -0.3985354006290436, 0.43226099014282227, 0.1680627167224884, -0.053275857120752335, 0.4773106276988983, -0.16327503323554993, 1.005441665649414, 0.28622373938560486, 0.37991780042648315, -0.33753108978271484, -0.21180365979671478, -0.0298443753272295, -0.3425300121307373, -0.0666089653968811, -0.47188135981559753, 0.5954827666282654, -0.0145011767745018, 0.004107870161533356, 0.33485502004623413, -0.31345078349113464, -0.5927404761314392, -0.1575591266155243, 0.6998000144958496, 0.37604957818984985, 0.4718840718269348, 0.16135184466838837, -0.20911484956741333, 0.007525513879954815, 0.3508353531360626, -0.03245420753955841, -0.11305449157953262, 0.14428982138633728, -0.47639644145965576], [0.1452476978302002, 0.01969200000166893, 0.5245510935783386, 0.22671253979206085, 0.043373800814151764, -0.0353122279047966, 0.6774228811264038, 0.1247066780924797, 0.30218935012817383, -0.6432181596755981, 0.04125608131289482, -0.5296575427055359, 0.39460238814353943, 0.05989211052656174, 0.29087531566619873, 0.20677588880062103, -0.740439236164093, -0.009363633580505848, -0.06622470170259476, -0.12589050829410553, 0.1759643256664276, 0.04998665302991867, -0.3501831889152527, -0.3983990550041199, -0.4955928921699524, 0.35450729727745056, -0.5183801054954529, 0.44333416223526, -0.12168704718351364, 0.41559499502182007, 0.71541827917099, 0.47535812854766846, 0.02139340527355671, -0.28062883019447327, -0.08104677498340607, -0.41901272535324097, -0.22120074927806854, -0.5009021759033203, 0.44542476534843445, -0.4409761130809784, 0.4419916272163391, -0.24822452664375305, -0.2707425355911255, 0.2021792083978653, -0.1615149974822998, 0.6270849108695984, -0.17561858892440796, -0.5785736441612244, -0.25837641954421997, -0.38153520226478577, -0.10525190085172653, -0.41599100828170776, -0.18088433146476746, 0.058469660580158234, 0.5452544689178467, -0.42260900139808655, -0.22477704286575317, -0.013513214886188507, -0.16950471699237823, 0.3932824432849884, 0.11351410299539566, 0.21428556740283966, 0.051649387925863266, -0.34198617935180664], [-0.7293215394020081, 0.29831069707870483, 0.3975687026977539, -0.1691998690366745, -0.8619170784950256, -0.18300385773181915, -0.16669444739818573, -0.051086410880088806, 0.6640936732292175, 0.07923275232315063, 0.9728590846061707, 0.2215832769870758, -0.5405071377754211, 0.4215245842933655, -0.07875311374664307, 0.24255268275737762, -0.039691291749477386, -0.3816624879837036, 0.2649417221546173, -0.3209446668624878, 0.37915462255477905, -0.18740245699882507, 0.17564132809638977, 0.13051149249076843, -0.2569597661495209, 0.054822888225317, 0.47453972697257996, -0.3361372649669647, 0.15012073516845703, -0.4984019994735718, -0.06569679826498032, 0.5964481234550476, 0.0021458487026393414, -0.12299452722072601, 0.4943249821662903, -0.46979665756225586, 0.24556010961532593, 0.16592228412628174, -0.32289832830429077, 0.38280338048934937, -0.3832319378852844, -0.10565728694200516, 0.7976044416427612, -0.08211475610733032, 0.6804630756378174, -0.351582407951355, 0.14595694839954376, -0.1873069703578949, -0.011443188413977623, -0.6100409626960754, -0.4775933027267456, 0.2998581528663635, 0.36799299716949463, -0.06581193953752518, 0.750953197479248, 0.02837333269417286, -0.6122055649757385, -0.2515542507171631, 0.11339782923460007, 0.3993891775608063, -0.2236718386411667, -0.2601871192455292, -0.11459239572286606, -0.021311214193701744], [0.40145760774612427, 0.6090838313102722, 0.13978412747383118, -0.012550637125968933, 0.18427418172359467, -0.2404693365097046, 0.178628072142601, 0.004796313121914864, -0.4058071970939636, -0.09876638650894165, 0.6159177422523499, -0.5490173101425171, -0.12769149243831635, -0.6075581312179565, 0.16027073562145233, -0.27521073818206787, -0.030914580449461937, 0.03472910448908806, 0.22731386125087738, 0.18180012702941895, 0.12796801328659058, 0.8153085112571716, 0.548871636390686, -0.2660520672798157, 0.3100392520427704, -0.004315444268286228, 0.009590285830199718, -0.3745826184749603, -0.49675577878952026, 0.2524943947792053, 0.14530274271965027, 0.4134034812450409, 0.416348934173584, -0.3094778060913086, -0.45482075214385986, 0.14179016649723053, -0.3331148624420166, 0.1947009563446045, 0.2741105258464813, 0.0462736152112484, -0.024475498124957085, -0.35752198100090027, 0.34421372413635254, 0.38226765394210815, -0.1726614236831665, -0.10487040877342224, 0.21913845837116241, -0.2410651594400406, 0.18949709832668304, 0.9137302041053772, 0.2452143430709839, -0.2710748612880707, -0.14016078412532806, -0.4845263361930847, -0.1651938259601593, 0.4521321952342987, -0.32459673285484314, 0.21802741289138794, -0.1361396610736847, 0.22953172028064728, -0.3830716013908386, -0.9829155206680298, 0.4247256815433502, -0.2909126281738281], [0.3720824420452118, -0.06696959584951401, 0.12388153374195099, -0.4230315387248993, 0.4477965831756592, 0.2535375952720642, 0.5640779733657837, -0.1593635231256485, 0.2986718416213989, -0.008207474835216999, -0.08748476207256317, 0.214063361287117, -0.43040919303894043, 0.5602831840515137, 0.30285653471946716, -0.21477524936199188, -0.03337516635656357, 0.1586301177740097, 0.09211156517267227, 0.3408131003379822, -0.8037574887275696, 0.15870410203933716, -0.3801136016845703, -0.4064866304397583, -0.15618839859962463, -0.4177897870540619, -0.2664712965488434, 0.024959275498986244, -0.7625535726547241, -0.5620762705802917, -0.21160705387592316, -0.5181769728660583, 0.06619793176651001, -0.23017506301403046, 0.10015711933374405, 0.13307343423366547, 0.1591235101222992, 0.5899726748466492, 0.5426385998725891, 0.3625870943069458, -1.0235639810562134, -0.07577630132436752, 0.5044538974761963, 0.46373558044433594, 0.348245233297348, 0.34833961725234985, -0.1434796303510666, 0.09401363879442215, -0.5685314536094666, -0.21520929038524628, -0.03974437713623047, 0.20174051821231842, -0.0922146886587143, -0.006207968574017286, 0.027150988578796387, 0.9250922799110413, -0.32492196559906006, 0.31773537397384644, 0.32598572969436646, 0.055681195110082626, 0.3482195734977722, 0.3421079218387604, -0.6000270843505859, 0.2316567301750183], [0.2563428282737732, 0.4075232148170471, 0.3350280225276947, -0.2816306948661804, 0.06375773251056671, 0.1640079915523529, 0.6595576405525208, 0.07386374473571777, 0.23533274233341217, -0.6466075778007507, 0.7300991415977478, -0.1441442221403122, -0.05566990375518799, 0.061871156096458435, -0.22579580545425415, -0.22034694254398346, -0.015596415847539902, -0.2799975275993347, -0.1823725402355194, 0.23453447222709656, -0.31072109937667847, 0.0938568115234375, 0.6128890514373779, 0.08455362915992737, -0.38664117455482483, -0.6625195145606995, 0.3558814823627472, 0.12182622402906418, -0.052654020488262177, -0.09434736520051956, -0.28078362345695496, 0.624813437461853, 0.05941498652100563, 0.11546140909194946, -0.014839164912700653, -0.0907316580414772, 0.10628790408372879, -0.30954936146736145, -0.544961154460907, -0.43476974964141846, -0.11028993129730225, -0.10666683316230774, -0.22015297412872314, 0.2682301104068756, 0.15471400320529938, -0.29197338223457336, -0.39162105321884155, 0.48599934577941895, -0.07980401813983917, 0.4303226172924042, -0.0264236181974411, 0.5550771355628967, -0.5730743408203125, -0.01067357324063778, 0.5174673795700073, 0.11015036702156067, -0.23462121188640594, -0.48008042573928833, 0.582851767539978, -0.13627207279205322, -0.3737521767616272, 0.4918045699596405, 1.1367383003234863, -0.5465618371963501], [0.12990693747997284, -0.1407025009393692, -0.015308470465242863, 0.17248274385929108, 0.10050047188997269, 0.9133923649787903, 0.16664861142635345, 0.3122888505458832, 0.2577527165412903, 0.24582332372665405, -0.3558483123779297, -0.28892722725868225, 0.319769024848938, -0.3657548129558563, -0.23350165784358978, 0.18175356090068817, -0.20401227474212646, -0.9035216569900513, 0.21167273819446564, -0.45503848791122437, -0.4317741394042969, -0.4828261733055115, -0.2444087117910385, -0.031045373529195786, -0.11335396766662598, 0.24095292389392853, -0.6340206861495972, -0.17604094743728638, -0.4835802912712097, 0.500260591506958, -0.1826764941215515, 0.7377448678016663, 0.4472337067127228, -0.25174984335899353, -0.42369142174720764, 0.03456414118409157, 0.2335999608039856, -0.3161035478115082, 0.006575524806976318, -0.2944174110889435, -0.037315838038921356, -0.20179219543933868, -0.2334502786397934, -0.3249669075012207, 0.16537316143512726, -0.24880482256412506, -0.06520907580852509, -0.41178128123283386, -0.08510986715555191, 0.1337715983390808, -0.3539815843105316, -0.027429521083831787, 0.23764477670192719, -0.15970177948474884, -0.6428056955337524, -0.4013707935810089, -0.4024762511253357, 0.07589861750602722, -0.5268288850784302, 0.32937589287757874, -0.0727587565779686, 0.6326984167098999, -0.40857842564582825, -0.09515751153230667], [0.36338961124420166, -0.23421581089496613, -0.28948917984962463, -1.0664054155349731, -0.1414583921432495, 0.20720331370830536, -0.26782307028770447, -0.0619034580886364, -0.680073618888855, -0.1354726105928421, -0.040030062198638916, 0.22453446686267853, 0.3492067754268646, 0.37394359707832336, 0.6624884009361267, -0.5496165752410889, 0.5820843577384949, -0.03081081248819828, -0.4531814754009247, -0.10344971716403961, 0.3036169111728668, -0.6918227672576904, -0.0397811233997345, -0.4824987053871155, 0.12022964656352997, 0.30310165882110596, 0.5267127752304077, 0.44015026092529297, 0.39571329951286316, -0.10482735931873322, 0.08161662518978119, -0.6496127843856812, 0.10328224301338196, -0.017044881358742714, 0.5754095315933228, -0.28504040837287903, 0.18207044899463654, -0.019098350778222084, 0.5504729747772217, 0.4956158399581909, 0.05021107941865921, 0.0919068455696106, -1.0505201816558838, 0.1944935917854309, 0.42666754126548767, -0.284056693315506, 0.5162258744239807, -0.13080263137817383, 0.34542691707611084, -0.04180339351296425, 0.17193607985973358, -0.23080073297023773, 0.09564865380525589, -0.3112438917160034, 0.07387024909257889, 0.35770875215530396, 0.6974565982818604, 0.2225467562675476, -0.014073150232434273, 0.10375679284334183, 0.07230217009782791, 0.097078837454319, -0.1025247871875763, 0.2128463238477707], [-0.8253939151763916, 0.02277374640107155, -0.39812222123146057, 