{"name": "1k", "layers": [{"w": [[-0.22118188440799713, 0.36214393377304077, 0.07734961062669754, -0.5303300023078918, 0.13646841049194336, -0.689730703830719, -0.24619704484939575, -0.5273018479347229, 0.12627866864204407, 0.23884928226470947, 0.033861417323350906, 0.44407594203948975, -0.45469242334365845, -0.32860368490219116, -0.1986672431230545, -0.2769627571105957, 0.07071810215711594, 0.04939565062522888, -0.20649009943008423, -0.06417949497699738, 0.3913104832172394, 0.011448528617620468, 0.16880983114242554, 0.19053378701210022, 0.03265669196844101, -0.1674046665430069, -0.1443396657705307, -0.13272175192832947, -0.1415765881538391, 0.3999975025653839, 0.3935994505882263, -0.1531367003917694, -0.24123935401439667, -0.20827148854732513, 0.007973856292665005, 0.15109668672084808, -0.1275390386581421, -0.1302841752767563, 0.39404064416885376, -0.0414038822054863, -0.2619447112083435, 0.577143132686615, 0.3618788421154022, -0.20831498503684998, 0.10226713120937347, -0.05369497090578079, 0.14924968779087067, 0.16731087863445282], [-0.12401656806468964, 0.006835311185568571, -0.2694067060947418, -0.07183191925287247, 0.5082547068595886, -0.18891800940036774, 0.6080904603004456, -0.23168064653873444, 0.3374412953853607, 0.47776541113853455, 0.1799386590719223, 0.012608816847205162, 0.30156055092811584, -0.0003273093607276678, -0.1862114518880844, 0.24214473366737366, 0.3086784780025482, -0.58124178647995, -0.4327269494533539, 0.08147425949573517, 0.0702936053276062, 0.23071230947971344, -0.2168201357126236, -0.1376907229423523, 0.330510675907135, -0.18770132958889008, -0.07433348149061203, -0.11402618885040283, -0.10436982661485672, -0.12925438582897186, -0.15183547139167786, -0.10529771447181702, 0.11135560274124146, -0.3133762776851654, -0.08398357033729553, 0.32693052291870117, -0.0647764578461647, -0.34309810400009155, 0.362095445394516, 0.5210655927658081, -0.42890700697898865, 0.09145428985357285, -0.05505283549427986, -0.07096168398857117, -0.05760028585791588, 0.05878624692559242, -0.04292049631476402, 0.1879463791847229], [0.43843379616737366, 0.03644149377942085, -0.5392009019851685, -0.08376923203468323, 0.017041025683283806, 0.17212440073490143, -0.8072667717933655, 0.4851019084453583, 0.18645256757736206, 0.27822357416152954, -0.29731571674346924, -0.06192781776189804, 0.4273422360420227, 0.15202878415584564, -0.7718362212181091, -0.1669856309890747, 0.07927712053060532, 0.1534631997346878, -0.18968737125396729, -0.1421128660440445, 0.023752929642796516, -0.12125040590763092, 0.18307338654994965, 0.1582590788602829, 0.5439519882202148, -0.2787434160709381, 0.2322344332933426, -0.09790957719087601, -0.22406898438930511, -0.1253793090581894, -0.043575745075941086, -0.07499857991933823, -0.08335849642753601, -0.2027188092470169, -0.179648295044899, -0.16146515309810638, -0.1480829268693924, 0.2880374789237976, -0.057030193507671356, -0.1428125947713852, -0.32684212923049927, -0.023840855807065964, 0.06050567701458931, -0.2303488701581955, 0.08605898171663284, -0.3494882583618164, -0.5847471952438354, -0.03352275863289833], [-0.1919269561767578, -0.5362650752067566, -0.0720563605427742, -0.022908056154847145, -0.013018826022744179, 0.2924431264400482, 0.4887484610080719, -0.4946381747722626, 0.3188166618347168, 0.04888107255101204, -0.013071710243821144, 0.4951901435852051, 0.4961176812648773, -0.20490075647830963, 0.015907369554042816, -0.010566327720880508, -0.26357629895210266, 0.054960038512945175, -0.2487180382013321, 0.09253508597612381, -0.154814675450325, -0.4542798101902008, 0.14780746400356293, 0.4059916138648987, 0.17828619480133057, 0.0661151260137558, 0.3416232764720917, -0.18590782582759857, 0.1578930914402008, -0.28121164441108704, -0.1366821974515915, -0.1294138878583908, -0.0013022664934396744, -0.15708377957344055, -0.0072398195043206215, 0.41040199995040894, -0.33616793155670166, 0.16373299062252045, -0.010588869452476501, 0.17998680472373962, 0.4843125641345978, -0.1618448793888092, -0.593653678894043, -0.2475501149892807, 0.001881339936517179, 0.2040090411901474, -0.2266974002122879, 0.28948286175727844], [-0.5309484601020813, 0.4408422112464905, -0.10204928368330002, -0.0990203246474266, -0.08021831512451172, 0.09514105319976807, -0.19339467585086823, -0.3730926513671875, 0.02311917021870613, -0.265563040971756, 0.8312877416610718, -0.3026868402957916, -0.30183783173561096, 0.0020485599525272846, 0.2640438377857208, 0.20418547093868256, -0.19394317269325256, -0.31634214520454407, -0.27596989274024963, -0.005318447016179562, 0.24440594017505646, 0.16226926445960999, 0.3860545754432678, 0.11574449390172958, 0.15373072028160095, -0.03690679371356964, -0.3599996268749237, 0.3472414016723633, -0.0004292793746571988, -0.024423468858003616, 0.19348201155662537, 0.13559916615486145, -0.13661684095859528, -0.38210979104042053, -0.1504119336605072, -0.09135838598012924, -0.2602439820766449, 0.18058818578720093, -0.38898149132728577, -0.035628482699394226, 0.2891046702861786, 0.2627227306365967, 0.1270798146724701, -0.014407549053430557, 0.4748305678367615, -0.3725338578224182, -0.13601669669151306, -0.13570427894592285], [-0.08988860994577408, -0.03860381990671158, 0.14099298417568207, -0.4769113063812256, -0.0849236324429512, 0.12828701734542847, -0.23263992369174957, -0.19994284212589264, 0.22848951816558838, -0.04686778038740158, 0.3075990080833435, 0.4233015477657318, -0.28377631306648254, -0.10436390340328217, -0.3417731523513794, 0.49169740080833435, 0.4610368013381958, -0.013752439990639687, 0.13344579935073853, -0.3692188560962677, 0.23957891762256622, 0.0734698623418808, -0.2914492189884186, 0.0949070155620575, -0.18142558634281158, -0.0933370515704155, 0.33185893297195435, -0.15168140828609467, -0.44858068227767944, -0.07547330111265182, 0.4276227355003357, -0.08616779744625092, -0.19161424040794373, 0.07176413387060165, 0.32679370045661926, 0.17337378859519958, 0.08777124434709549, 0.4390341341495514, 0.32454201579093933, -0.2010020613670349, 0.10933748632669449, 0.4239847958087921, -0.6234793663024902, 0.2572546601295471, -0.0774698257446289, 0.059002697467803955, 0.3836250603199005, -0.07484172284603119], [-0.18747520446777344, 0.4398189187049866, 0.07874959707260132, -0.0005959597765468061, -0.1064181849360466, 0.1820971518754959, 0.5614793300628662, -0.1712941974401474, 0.09232671558856964, -0.21357445418834686, -0.5199968814849854, -0.6145118474960327, -0.35638099908828735, 0.19905784726142883, 0.2466505467891693, 0.09562105685472488, -0.03872703015804291, -0.17173749208450317, 0.5258139967918396, -0.05894169211387634, 0.58229660987854, 0.06963066756725311, -0.05989369750022888, 0.33239051699638367, -0.21806195378303528, 0.06194327026605606, 0.12215540558099747, -0.20652468502521515, -0.32285240292549133, -0.106448695063591, -0.10918682813644409, 0.3693396747112274, 0.4135834872722626, 0.08602821826934814, -0.08124638348817825, 0.26526421308517456, 0.05242156237363815, 0.25221624970436096, -0.018713612109422684, -0.020284676924347878, -0.07923747599124908, -0.03354474529623985, 0.4842897653579712, 0.1880987286567688, 0.6169445514678955, -0.4669543504714966, 0.06006661802530289, -0.057142291218042374], [0.05642251297831535, 0.04353240132331848, -0.14809522032737732, 0.33742186427116394, -0.6420992612838745, -0.34037721157073975, -0.9269965887069702, -0.3268232047557831, -0.371904581785202, -0.19857975840568542, -0.17926637828350067, 0.4788678288459778, -0.2043316811323166, -0.11820276826620102, 0.19678841531276703, 0.22444044053554535, 0.035331662744283676, 0.3197420537471771, 0.28853780031204224, -0.39826205372810364, 0.1102459579706192, 0.20752139389514923, -0.28859493136405945, -0.010480753146111965, -0.2883337140083313, -0.11509998887777328, 0.37566208839416504, 0.1379329115152359, 0.1577470600605011, 0.5087733864784241, 0.12307824194431305, -0.2740797698497772, 0.032242901623249054, -0.08090054988861084, 0.12580041587352753, 0.29408130049705505, -0.18992191553115845, -0.06515973806381226, -0.0331571027636528, 0.3123898208141327, -0.11791485548019409, -0.27809759974479675, -0.07172748446464539, 0.01327372808009386, 0.562000036239624, -0.12333821505308151, -0.3693106174468994, -0.26441311836242676], [0.07795366644859314, 0.14952674508094788, 0.5680612325668335, 0.062129341065883636, 0.4303387403488159, -0.01427331194281578, 0.10915163904428482, 0.8076333999633789, -0.2534477412700653, -0.38323378562927246, -0.32763174176216125, -0.1888045370578766, 0.5101704001426697, -0.15140074491500854, -0.23239579796791077, 0.0857151597738266, -0.0541459284722805, -0.22644412517547607, -0.20417346060276031, 0.24177466332912445, 0.17713381350040436, 0.061991505324840546, 0.3927237391471863, 0.22610467672348022, 0.1010986939072609, -0.19520390033721924, -0.7569219470024109, 0.11202022433280945, 0.44295668601989746, -0.5076023936271667, 0.2217937856912613, -0.03836233913898468, -0.32169756293296814, -0.1840665489435196, 0.11501743644475937, -0.08678838610649109, 0.11879348009824753, -0.08867197483778, -0.15071746706962585, 0.1788252592086792, -0.2193746417760849, -0.0836755707859993, -0.28678083419799805, 0.32640841603279114, 0.014409524388611317, -0.060018572956323624, 0.24009551107883453, -0.041678816080093384], [0.12815549969673157, 0.2478003054857254, 0.0008388796122744679, -0.3158407211303711, -0.15966106951236725, 0.11385782063007355, -0.5166162252426147, 0.3452816903591156, 0.05780039727687836, -0.09796282649040222, 0.4630829691886902, -0.28436368703842163, 0.23432067036628723, 0.024608977138996124, 0.14079256355762482, 0.35681161284446716, 0.20811563730239868, 0.02010383829474449, -0.4120774269104004, 0.8431302905082703, -0.8081476092338562, -0.21480022370815277, 0.14477896690368652, -0.27321305871009827, -0.42853692173957825, 0.11358113586902618, 0.10322553664445877, -0.47401636838912964, -0.38378003239631653, 0.29805535078048706, 0.039980556815862656, 0.20722052454948425, 0.3471439480781555, -0.1583683043718338, -0.2664012014865875, 0.18756110966205597, -0.3854936957359314, -0.038500893861055374, 0.0351482629776001, -0.04776616767048836, 0.2519354224205017, 0.21723265945911407, 0.18825256824493408, 0.09221811592578888, -0.1593027412891388, 0.019268566742539406, -0.18042457103729248, -0.08776269853115082], [-0.3659600019454956, -0.09354236721992493, 0.3029178977012634, -0.12979723513126373, 0.3078712821006775, -0.37714871764183044, 0.2257111668586731, -0.7841055989265442, 0.03452012687921524, -0.23706677556037903, 0.39407262206077576, 0.00020938983652740717, -0.20634625852108002, -0.29259610176086426, 0.10868620127439499, 0.20157895982265472, -0.26674389839172363, -0.002689420012757182, 0.12887917459011078, -0.16906598210334778, 0.015315794385969639, 0.2876114845275879, 0.061564359813928604, -0.1470317840576172, 0.32532861828804016, -0.04264651611447334, -0.32715365290641785, -0.19008749723434448, -0.05877130478620529, -0.1361503303050995, -0.4072774052619934, -0.05127382650971413, -0.0794103816151619, 0.09282862395048141, 0.6413339972496033, 0.26745522022247314, -0.235982283949852, -0.16720329225063324, -0.06693708151578903, -0.45995959639549255, -0.10161848366260529, -0.20621952414512634, 0.6731224060058594, 0.013916448689997196, -0.11397065967321396, 0.3734167218208313, -0.14541779458522797, -0.16150924563407898], [-0.2158147245645523, -0.1362338811159134, 0.32411885261535645, -0.28086838126182556, 0.11480504274368286, 0.18563996255397797, 0.027870286256074905, -0.22027429938316345, 0.24563226103782654, -0.3409769535064697, 0.12540753185749054, -0.37667492032051086, 0.25774016976356506, -0.07528522610664368, -0.23250599205493927, -0.12183589488267899, 0.008271985687315464, -0.2658880352973938, -0.4349406957626343, -0.13219299912452698, 0.13793841004371643, -0.21539293229579926, -0.16334199905395508, -0.04579485207796097, -0.09274349361658096, -0.35878539085388184, 0.2455567717552185, -0.17029058933258057, 0.12755654752254486, 0.5528610944747925, -0.20116260647773743, -0.06528531759977341, 0.4200901389122009, -0.11205058544874191, 0.19510897994041443, -0.07579111307859421, 0.5504907965660095, -0.48463764786720276, -0.2936913073062897, -0.08955134451389313, 0.3147909343242645, -0.05897935852408409, -0.44138580560684204, 0.004413952119648457, -0.40820446610450745, -0.45737743377685547, 0.17092227935791016, 0.13044972717761993], [0.045554641634225845, 0.2685774266719818, 0.5475955009460449, -0.18921589851379395, 0.07561256736516953, -0.7471172213554382, -0.431479275226593, -0.153389111161232, 0.14028431475162506, -0.05031846463680267, -0.5413108468055725, 0.03219997510313988, -0.372214674949646, 0.5012602806091309, 0.28697070479393005, 0.319698691368103, -0.19175788760185242, -0.07722117006778717, 0.1608561873435974, -0.009124526754021645, -0.35072532296180725, -0.3791276812553406, -0.2584165334701538, -0.3321635127067566, -0.021847568452358246, -0.5062586069107056, 0.21991698443889618, 0.1068473532795906, -0.6419373154640198, 0.22272135317325592, -0.43692857027053833, 0.1830163598060608, -0.19557079672813416, 0.01965341344475746, -0.34630706906318665, 0.376312792301178, -0.011125918477773666, 0.06834948807954788, -0.09064701944589615, 0.03076697327196598, -0.17327336966991425, -0.08471988886594772, -0.1328977793455124, 0.1334984302520752, -0.3033156096935272, 0.019546817988157272, 0.22350086271762848, 0.19753339886665344], [0.05318973585963249, -0.17201098799705505, 0.38942205905914307, -0.006506404373794794, 0.3819688558578491, -0.49747434258461, -0.20955978333950043, -0.26741763949394226, -0.1687975525856018, 0.45675569772720337, 0.05303475633263588, -0.15465344488620758, -0.5110587477684021, 0.11215166002511978, -0.207172229886055, 0.6894234418869019, 0.01347480621188879, 0.19825159013271332, 0.1841636449098587, 0.0842299610376358, 0.04271382838487625, -0.04879656434059143, -0.13059929013252258, 0.018609562888741493, 0.06021365895867348, 0.3303791284561157, -0.12383425235748291, -0.15935836732387543, 0.24282129108905792, 0.291927695274353, -0.027216259390115738, 0.015581658110022545, 0.1141175925731659, -0.5031578540802002, -0.08911103755235672, -0.26308703422546387, 0.3143405020236969, 0.22167907655239105, 0.18686693906784058, 0.050298821181058884, 0.40656596422195435, -0.24000339210033417, -0.03196604549884796, -0.01025712676346302, 0.29998019337654114, -0.19672618806362152, 0.4894166588783264, 0.015185296535491943], [0.35914069414138794, 0.4482651948928833, -0.5817492008209229, -0.7006737589836121, -0.16060040891170502, -0.06146543100476265, -1.0787346363067627, 0.12865759432315826, 0.37017932534217834, -0.12597331404685974, -0.34810304641723633, -0.13823740184307098, 0.162107452750206, 0.16427211463451385, 0.11353562027215958, 0.23919889330863953, 0.3138168752193451, 0.03270081803202629, -0.4470871686935425, 0.18404154479503632, -0.038996439427137375, -0.20555178821086884, -0.023080158978700638, -0.09127099066972733, -0.35827574133872986, 0.09599167108535767, -0.01001325249671936, 0.2276899218559265, 0.4492994248867035, -0.1136188954114914, -0.09305121749639511, -0.2816123068332672, 0.08015645295381546, 0.0672496035695076, 0.03552956134080887, 0.020680269226431847, -0.12419284135103226, 0.05427580699324608, -0.052820056676864624, -0.11421936005353928, 0.17077107727527618, 0.37537437677383423, -0.121949203312397, 0.09004826098680496, -0.26752153038978577, -0.04194270819425583, -0.10654403269290924, -0.28917086124420166], [0.2507774829864502, 0.46990999579429626, 0.25055068731307983, 0.08178616315126419, -0.11945433169603348, 0.13124355673789978, 0.06764745712280273, 0.13795433938503265, 0.3901402950286865, -0.31497788429260254, 0.06517668813467026, 0.5856819748878479, 0.5972899198532104, 0.6558920741081238, 0.2994779944419861, 0.21347296237945557, 0.25992870330810547, 0.21000808477401733, -0.12828873097896576, -0.3471231460571289, -0.1680767834186554, 0.3696719706058502, -0.0988408625125885, -0.12040846049785614, 0.19049277901649475, -0.029674457386136055, -0.030474985018372536, -0.01376432552933693, 0.10641443729400635, 0.05754302442073822, 0.1750275194644928, -0.28145405650138855, -0.3630995750427246, -0.04001254215836525, 0.0838586762547493, -0.32646963000297546, 0.08860474079847336, -0.019433094188570976, -0.16150490939617157, -0.36407262086868286, -0.019212843850255013, -0.2596275210380554, 0.1955294907093048, -0.3058294355869293, 0.12359818071126938, 0.06070324033498764, -0.49989697337150574, -0.14151008427143097], [0.06648751348257065, 0.05221011862158775, -0.23173123598098755, -0.5096953511238098, 0.02932889387011528, 0.18913927674293518, -0.5951490998268127, 0.7130124568939209, 0.3782976567745209, 0.23413968086242676, -0.0029899177607148886, -0.25145259499549866, -0.2711952030658722, 0.21350817382335663, 0.2481849044561386, -0.01002648938447237, -0.3852490782737732, -0.15430837869644165, -0.10381283611059189, -0.4988876283168793, 0.186079740524292, -0.2811545729637146, -0.2572724223136902, 0.05145401880145073, 0.2799482047557831, -0.029662426561117172, -0.22820024192333221, -0.14087511599063873, 0.0480528362095356, -0.21724750101566315, 0.1095363050699234, 0.014279789291322231, -0.24718838930130005, 0.4267912805080414, 0.044570282101631165, -0.24038474261760712, 0.13637425005435944, -0.315045565366745, 0.24607835710048676, -0.008620863780379295, 0.0436558797955513, -0.24568656086921692, 0.03572753071784973, 0.005241093225777149, -0.03959731012582779, 0.4874856173992157, -0.336820125579834, 0.016489116474986076], [0.37866219878196716, 0.2732533812522888, 0.14495202898979187, -0.5450130701065063, -0.36158108711242676, -0.47899487614631653, -0.234220489859581, 0.5924913287162781, -0.29605385661125183, 0.23798449337482452, -0.013851775787770748, 0.35346654057502747, 0.615768313407898, 0.12358495593070984, -0.3866289258003235, 0.6728742718696594, -0.28987428545951843, 0.19651295244693756, 0.07955165207386017, -0.0795276015996933, 0.12284892052412033, -0.011900393292307854, 0.28835633397102356, -0.3174665570259094, 0.029076596722006798, 0.23686614632606506, 0.12654055655002594, -0.3045121729373932, -0.1794561743736267, 0.029377399012446404, -0.4321099519729614, 0.02276073582470417, -0.10906609147787094, -0.29750165343284607, 0.05169474706053734, 0.04601137340068817, 0.43690264225006104, -0.023945864289999008, 0.12117280066013336, 0.11297903954982758, -0.026786908507347107, 0.1525384485721588, 0.2741101086139679, 0.22024939954280853, -0.22901809215545654, -0.04287562146782875, -0.527509331703186, -0.002460655989125371], [-0.11634321510791779, -0.2895500361919403, -0.21737922728061676, -0.17570284008979797, -0.4544007182121277, -0.3245156407356262, -0.2112054079771042, 0.4968527853488922, -0.24488067626953125, 0.06811190396547318, -0.12568604946136475, -0.6305041313171387, 0.4691295921802521, 0.04511883482336998, -0.42438533902168274, -0.21700215339660645, -0.4237101376056671, 0.0909821167588234, 0.02502044104039669, -0.03248515725135803, 0.20420454442501068, 0.22714482247829437, 0.18767163157463074, -0.19971789419651031, 0.2809406816959381, -0.39809519052505493, -0.002291372511535883, -0.3129881024360657, 0.023671844974160194, 0.1615953892469406, -0.06488069146871567, -0.48053398728370667, -0.1607166975736618, 0.23110319674015045, -0.27575168013572693, 0.1513211727142334, 0.0718010887503624, 0.016155574470758438, 0.02308950014412403, -0.2115522176027298, 0.1479543298482895, -0.21392500400543213, 0.10309606045484543, 0.15415872633457184, 0.4462302625179291, 0.01922284997999668, 0.27120140194892883, -0.1712656021118164], [0.2554967999458313, 0.07148364186286926, 0.22249315679073334, 0.18216268718242645, 0.3919961750507355, 0.7609513998031616, -0.31856560707092285, 0.12975305318832397, -0.039469439536333084, 0.08103340119123459, -0.13333749771118164, -0.18907880783081055, -0.7354243397712708, 0.23069921135902405, -0.21631528437137604, -0.06257785111665726, -0.3292430639266968, 0.19290778040885925, 0.13669398427009583, -0.29979407787323, -0.07480274140834808, -0.08096107095479965, -0.059579890221357346, 0.11114467680454254, 0.07560300081968307, 0.33368048071861267, 0.3319534957408905, -0.30711600184440613, -0.03241848573088646, -0.09731769561767578, 0.06423252820968628, -0.09823163598775864, -0.277922660112381, 0.13544870913028717, -0.3602471351623535, 0.4631531238555908, -0.1729426085948944, -0.039053965359926224, -0.04667938873171806, -0.07850736379623413, -0.009116597473621368, 0.27061399817466736, 0.46599268913269043, -0.7412734031677246, 0.4025201201438904, 0.24126894772052765, 0.03389476612210274, -0.10585225373506546], [-0.4436132609844208, 0.4012588858604431, -0.12356533855199814, 0.11591427028179169, -0.3346330523490906, 0.1674077808856964, -0.725081205368042, 0.5796139240264893, -0.056867409497499466, -0.33273670077323914, -0.7982317805290222, -0.4262174069881439, -0.05730396509170532, 0.45594942569732666, -0.29406213760375977, 0.0473824068903923, -0.1604345738887787, -0.13485455513000488, -0.009073937311768532, 0.07284862548112869, -0.3742491602897644, 0.11980755627155304, 0.05688095837831497, 0.0354883186519146, -0.23343805968761444, -0.15281905233860016, -0.00531751848757267, 0.05886690318584442, 0.6573705673217773, -0.13488170504570007, -0.056476179510354996, -0.04013536125421524, -0.14153935015201569, -0.3415378928184509, 0.10650292783975601, 0.05496557056903839, 0.2913016080856323, 0.2985767722129822, 0.48415830731391907, -0.13782957196235657, 0.0711902305483818, -0.0961688905954361, 0.021691953763365746, 0.1551533192396164, 0.09620293974876404, -0.2905842661857605, -0.27727875113487244, 0.1420508623123169], [-0.27868056297302246, -0.06187064200639725, -0.039003029465675354, 0.3540594279766083, -0.18578504025936127, -0.11617417633533478, -0.5961636900901794, 0.180385023355484, -0.40898630023002625, 0.7607966661453247, 0.21385012567043304, 0.14903464913368225, 0.419329434633255, 0.4086659252643585, -0.21667779982089996, 0.1647324562072754, -0.22107844054698944, 0.30261245369911194, 0.06214851513504982, -0.3768993020057678, -0.2705327868461609, -0.11245278269052505, 0.6450215578079224, -0.1920183300971985, 0.38409000635147095, -0.15097452700138092, -0.05606358125805855, 0.014562268741428852, -0.034402236342430115, -0.046035490930080414, 0.014732304029166698, 0.4400637745857239, 0.0002399998193141073, 0.046532534062862396, 0.6081748008728027, 0.13631846010684967, -0.25240033864974976, -0.00788827333599329, 0.033128559589385986, -0.16604332625865936, 0.3702707886695862, -0.30201029777526855, 0.2287483960390091, -0.28038522601127625, 0.0770983099937439, 0.05656752362847328, 0.07618847489356995, 0.46442684531211853], [-0.379342645406723, 0.3296906054019928, -0.2497265487909317, -0.20267432928085327, -0.3337957561016083, 0.001932602608576417, -0.3544444441795349, 0.05854860320687294, 0.04912479594349861, -0.2747780382633209, 0.28591278195381165, -0.01735810376703739, 0.12669314444065094, -0.04182666912674904, -0.13843321800231934, 0.20124594867229462, 0.37744176387786865, -0.013860833831131458, -0.2871660888195038, 0.2874525785446167, 0.1543053537607193, 0.1158105805516243, -0.14022895693778992, 0.29859644174575806, -0.10629970580339432, 0.12780627608299255, -0.0003338298702146858, 0.1638161987066269, 0.42637336254119873, 0.27580511569976807, -0.6418653130531311, 0.23731866478919983, -0.293725848197937, 0.05233284831047058, 0.05941202864050865, 0.3387805223464966, -0.29390835762023926, -0.34841880202293396, -0.006548465229570866, -0.22654488682746887, 0.6202495098114014, -0.15142971277236938, 0.05933334678411484, -0.31600332260131836, -0.2669222354888916, 0.1756519079208374, 0.0797533169388771, -0.6163666248321533], [0.15341562032699585, 0.23727934062480927, -0.09078401327133179, -0.069334477186203, -0.33681681752204895, -0.07668570429086685, -0.367181658744812, 0.29493406414985657, 0.3024398982524872, 0.34891068935394287, 0.13999667763710022, 0.11036738753318787, 0.061167407780885696, -0.19693656265735626, -0.3736076354980469, -0.07792576402425766, 0.1818053275346756, -0.0965423434972763, -0.2682036757469177, 0.37704548239707947, 0.5039242506027222, 0.24301014840602875, 0.153300479054451, -0.015385648235678673, -0.24809467792510986, 0.5986821055412292, 0.021784527227282524, 0.23421360552310944, 0.070717453956604, -0.31995677947998047, -0.5041671991348267, -0.18753214180469513, -0.2801406681537628, -0.1119617447257042, 0.1494855284690857, 0.21849589049816132, -0.3009031414985657, -0.3480117917060852, 0.12626095116138458, 0.17710578441619873, -0.42334339022636414, -0.03814248368144035, -0.16806116700172424, 0.1528577208518982, 0.14178891479969025, -0.5871804356575012, 0.10164382308721542, -0.03507658839225769], [-0.27157172560691833, 0.06943439692258835, -0.576701283454895, -0.006122190970927477, -0.4815504252910614, 0.048298969864845276, -0.06595699489116669, 0.0010229683248326182, -0.25341928005218506, -0.18414223194122314, -0.5559943318367004, 0.5341041088104248, -0.2726636230945587, -0.2864629626274109, -0.39183488488197327, 0.32168105244636536, -0.3117355704307556, -0.10662882775068283, -0.37383511662483215, -0.41757047176361084, 0.17025206983089447, -0.3649154305458069, 0.20135121047496796, 0.2579018473625183, -0.21554870903491974, 0.06302617490291595, 0.00474937679246068, -0.29258987307548523, -0.3761085569858551, 0.06486174464225769, 0.2771957516670227, 0.10182107239961624, -0.008431836031377316, 0.5215580463409424, -0.4713622033596039, -0.2245774269104004, -0.11615677922964096, 0.1742410510778427, 0.31139224767684937, -0.2029341459274292, -0.02067970111966133, -0.07603485882282257, -0.00919121690094471, 0.028558410704135895, 0.02280484139919281, 0.048507388681173325, 0.2268778532743454, 0.15456628799438477], [0.36459311842918396, -0.609494149684906, -0.19819045066833496, 0.11005187034606934, 0.06901278346776962, 0.2579980790615082, -0.11460310965776443, 0.6583083271980286, 0.023995758965611458, 0.54300856590271, -0.03132616728544235, 0.781526505947113, 0.023618005216121674, 0.27564966678619385, -0.10323795676231384, 0.3711298704147339, 0.25855177640914917, 0.23004278540611267, -0.11363784223794937, 0.08748757839202881, 0.1555318981409073, 0.4470505118370056, 0.11612299829721451, -0.08163773268461227, -0.21470947563648224, -0.49199509620666504, 0.21915194392204285, 0.08061164617538452, 0.11477271467447281, 0.12502819299697876, 0.08443775773048401, 0.20115022361278534, 0.15008947253227234, -0.10524905472993851, -0.13615302741527557, -0.2257634699344635, 0.03978182375431061, -0.0775064080953598, -0.13814370334148407, 0.3834724426269531, 0.3290083408355713, -0.053573623299598694, 0.1720941960811615, -0.07291693240404129, -0.11663014441728592, -0.16009938716888428, -0.06578796356916428, 0.17470338940620422], [0.3753574788570404, -0.22349080443382263, 0.07504216581583023, 0.01429755613207817, 0.560897171497345, -0.0359848253428936, -0.32363396883010864, 0.20359206199645996, -0.6513875722885132, 0.005337326321750879, 0.1926232874393463, 0.5126577019691467, 0.38006842136383057, 0.20090806484222412, 0.1869337409734726, -0.13364289700984955, 0.1613946408033371, -0.17440612614154816, -0.35123589634895325, -0.025652790442109108, 0.07756152749061584, 0.1339210867881775, -0.05417280271649361, -0.07072953879833221, -0.16311293840408325, 0.5510963797569275, -0.15226060152053833, -0.3289910554885864, -0.546407163143158, 0.13282619416713715, -0.18521392345428467, 0.07701661437749863, -0.1362207680940628, 0.4157438278198242, 0.42202192544937134, 0.2247767299413681, 0.222123920917511, 0.2804138958454132, -0.23931670188903809, 0.4152466058731079, 0.3812713027000427, 0.10371194034814835, -0.027098821476101875, -0.1359839290380478, 0.043567635118961334, 0.3526668846607208, -0.18964743614196777, -0.24258355796337128], [0.14668095111846924, -0.29246649146080017, -0.4104140102863312, 0.09961610287427902, 0.20164650678634644, -0.2556440532207489, -0.10223610699176788, 0.10555310547351837, 0.0579117052257061, -0.36506369709968567, -0.3593180477619171, 0.47988519072532654, 0.4318999946117401, 0.2616857588291168, -0.2860855162143707, 0.18958880007266998, -0.036111682653427124, 0.04108090698719025, -0.17242784798145294, -0.2923886477947235, 0.04404652863740921, -0.0999257043004036, -0.043780744075775146, -0.1598241925239563, 0.0781683400273323, -0.057965390384197235, 0.22577069699764252, -0.011983239091932774, 0.3256146311759949, 0.17205427587032318, 0.16775749623775482, 0.42835119366645813, -0.4906536340713501, 0.04139715060591698, -0.15032561123371124, 0.3186352550983429, -0.03448323905467987, -0.4615786671638489, 0.14084340631961823, 0.10832370072603226, 0.3484702706336975, 0.15875408053398132, 0.13601315021514893, -0.6485595703125, 0.3504366874694824, -0.5935640335083008, 0.029116932302713394, 0.6435914635658264], [0.47641900181770325, -0.1574159562587738, 0.5460343360900879, 0.6104767322540283, -0.21844401955604553, 0.015346826054155827, -0.09878253936767578, 0.21485956013202667, -0.24760651588439941, 0.02023371495306492, -0.16826747357845306, -0.17108455300331116, -0.0497782863676548, 0.4444059431552887, 0.20408569276332855, 0.10443686693906784, -0.23462282121181488, -0.20136499404907227, -0.027990518137812614, 0.1384487897157669, 0.013054782524704933, -0.0698104202747345, 0.42305126786231995, 0.26661235094070435, 0.20396724343299866, 0.05517236143350601, 0.1326724737882614, 0.10642581433057785, 0.004340703599154949, 0.4230284094810486, 0.08288435637950897, -0.25676223635673523, -0.04511219635605812, -0.31172919273376465, 0.5277489423751831, -0.25535890460014343, -0.3341691195964813, 0.04392491653561592, -0.024135908111929893, 0.31185999512672424, 0.10609208047389984, 0.5213428139686584, 0.0675939992070198, -0.05560345575213432, 0.453077107667923, -0.11329833418130875, -0.06166444346308708, 0.0830511674284935], [0.14474010467529297, -0.3536263406276703, -0.05785830318927765, -0.20340940356254578, -0.17405588924884796, -0.5186523199081421, 0.4014933705329895, -0.9666451811790466, 0.04708348214626312, 0.08506964892148972, 0.16271761059761047, 0.2650757133960724, -0.2063325047492981, 0.3073945939540863, 0.04726303368806839, 0.17545318603515625, 0.04079942777752876, 0.22002817690372467, -0.6569257974624634, -0.13229142129421234, -0.24706120789051056, -0.052225593477487564, 0.059090640395879745, 0.312100887298584, -0.5373185276985168, 0.03288804739713669, -0.40006351470947266, 0.15744774043560028, -0.09874626249074936, -0.41950222849845886, -0.029525812715291977, -0.04214007034897804, 0.07205584645271301, 0.0640394538640976, -0.19190101325511932, 0.1068195179104805, 0.05788237228989601, 0.05578644201159477, 0.225552037358284, 0.14232280850410461, -0.3376953899860382, -0.44325733184814453, -0.21113045513629913, 0.11304745823144913, 0.12150558829307556, 0.012249971739947796, -0.07069731503725052, -0.28909316658973694], [-0.05887024849653244, 0.16008225083351135, 0.6804456114768982, -0.5209305286407471, 0.260094553232193, 0.18655899167060852, 0.7591422200202942, 0.23855501413345337, -0.0693151205778122, 0.08127661049365997, -0.16888687014579773, 0.33969825506210327, 0.34125956892967224, -0.021423595026135445, -0.5623800158500671, -0.3787263035774231, -0.2501257061958313, -0.19937336444854736, -0.31794342398643494, 0.5829078555107117, -0.26083022356033325, 0.10539428889751434, 0.0314348079264164, -0.06457013636827469, 0.05381462723016739, -0.2711332440376282, 0.4524795114994049, 0.12365745007991791, -0.161895751953125, -0.26438894867897034, -0.03940282016992569, 0.4342559576034546, 0.14209653437137604, 0.09500295668840408, -0.21637946367263794, -0.2132696658372879, 0.36171576380729675, -0.3237704038619995, 0.40485578775405884, -0.08593517541885376, 0.12256968021392822, -0.2240239828824997, 0.06790575385093689, 0.24464429914951324, 0.006515247281640768, -0.322845458984375, 0.08718576282262802, -0.38487157225608826], [-0.31814420223236084, -0.3159795105457306, -0.26030197739601135, 0.28288525342941284, 0.323604017496109, 0.06425406783819199, -0.38564810156822205, 0.23851968348026276, 0.7591248750686646, -0.018552854657173157, 0.04640432819724083, -0.11752231419086456, 0.3775962293148041, -0.10483133047819138, 0.4066004455089569, 0.0895020142197609, -0.5774251222610474, 0.1476910412311554, -0.05133206769824028, 0.17048732936382294, -0.2589609622955322, 0.21293607354164124, -0.0016421002801507711, -0.1037953570485115, -0.0304594486951828, 0.20017601549625397, 0.20876412093639374, -0.042507611215114594, -0.17235825955867767, -0.24888840317726135, -0.33320483565330505, 0.386778324842453, 0.0035936234053224325, 0.2137727290391922, 0.24258862435817719, -0.5585606694221497, 0.09065576642751694, 0.0012929500080645084, -0.2025567889213562, 0.02482338808476925, -0.10447855293750763, 0.0487266406416893, -0.039178356528282166, -0.013055023737251759, 0.6878745555877686, -0.18216316401958466, 0.3281228542327881, -0.08769233524799347]], "b": [-0.16009311378002167, -0.1639697104692459, 0.00019309330673422664, -0.06227416545152664, -0.06354750692844391, -0.19083218276500702, -0.05876971408724785, -0.044904354959726334, -0.0016747575718909502, -0.04557317867875099, -0.16594025492668152, 0.09018635004758835, -0.2208905816078186, -0.1086164265871048, -0.06522092968225479, 0.19856183230876923, -0.10640419274568558, 0.11909184604883194, -0.12641960382461548, -0.08615753054618835, -0.06523511558771133, 0.0615878701210022, -0.04838448390364647, 0.18205994367599487, 0.043607961386442184, -0.10857491195201874, -0.0797782689332962, 0.14252330362796783, 0.18709541857242584, 0.19639579951763153, -0.03351591154932976, 0.0408022478222847], "activation": "tanh"}, {"w": [[-0.18975552916526794, 0.038086265325546265, -0.04625517874956131, 0.17622362077236176, -0.20712387561798096, 0.09286192059516907, 0.37363073229789734, 0.5753921270370483, -0.2986025810241699, -0.32167157530784607, -0.20461495220661163, 0.14543387293815613, 0.36353859305381775, 0.36930814385414124, -0.20031392574310303, 0.4943494498729706, -0.16155768930912018, 0.42623093724250793, 0.47916027903556824, 0.041375406086444855, 0.42015933990478516, -0.5198235511779785, -0.26541146636009216, -0.5340520739555359, -0.03219105675816536, 0.46445274353027344, -0.01851939782500267, 0.6976273655891418, 0.21572205424308777, -0.6372963786125183, 0.04968459904193878, -0.5373496413230896], [0.0851198136806488, 0.08826874196529388, 0.33623725175857544, 0.5694844126701355, 0.6046192646026611, -0.5188921689987183, -0.050668828189373016, -0.24637921154499054, -0.11130888760089874, 0.5303097367286682, 0.45264384150505066, -0.34274667501449585, -0.6921449899673462, -0.051807086914777756, 0.38049861788749695, 0.47348248958587646, -0.37920427322387695, 0.02445819042623043, 0.2298949807882309, -0.1176048070192337, -0.18410125374794006, 0.10382995754480362, 0.1232856884598732, 0.15146179497241974, 0.19726012647151947, 0.162100687623024, 0.21832382678985596, 0.4252999722957611, 0.15924523770809174, -0.09418804198503494, -0.3383960723876953, -0.2088560163974762], [-0.24535122513771057, 0.3455365002155304, 0.4577953517436981, 0.47601333260536194, 0.4673612713813782, 0.34531691670417786, 0.512830913066864, -0.11843610554933548, -0.27292242646217346, -0.06394452601671219, -0.6845062971115112, 0.1601690649986267, 0.23919734358787537, -0.09163755923509598, -0.19342496991157532, -0.47900569438934326, 0.14829404652118683, 0.006957275327295065, 0.3100331723690033, 0.3438321352005005, 0.18390361964702606, 0.19447879493236542, -0.507320761680603, -0.31856662034988403, 0.28286758065223694, -0.15883618593215942, 0.18824666738510132, 0.2922985255718231, -0.05025365203619003, 0.036984458565711975, 0.3637884259223938, -0.10123062878847122], [-0.2250111699104309, -0.4266265034675598, 0.04753279313445091, -0.2466282993555069, 0.5435456037521362, -0.10736530274152756, 0.4033842086791992, 0.2418021261692047, -0.3153849244117737, -0.4647068381309509, -0.08594910055398941, -0.39350321888923645, -0.45206210017204285, 0.03069501370191574, -0.39283886551856995, 0.13071881234645844, -0.09773609787225723, -0.13788379728794098, 0.7967067360877991, 0.2248690128326416, -0.23108425736427307, 0.02565946988761425, -0.07107126712799072, -0.16060791909694672, 0.2949681580066681, -0.3424428403377533, -0.694178581237793, -0.414224773645401, -0.31333643198013306, 0.2022193819284439, -0.1766475886106491, -0.08581401407718658], [0.24100618064403534, 0.1005466878414154, -0.02578522078692913, 0.8224114179611206, -0.30458924174308777, -0.046295665204524994, -0.09960432350635529, -0.08903723210096359, 0.06242506578564644, 0.2965346872806549, -0.30923348665237427, -0.34004563093185425, -0.39532148838043213, 0.060966748744249344, 0.2615332007408142, -0.09848903864622116, -0.055788274854421616, 0.343756765127182, -0.027874844148755074, -0.19448906183242798, -0.1883758306503296, -0.7735965251922607, -0.14456792175769806, 0.1081131100654602, -0.17099960148334503, 0.0841679573059082, -0.5932727456092834, -0.4130014479160309, -0.5645400285720825, 0.08481363952159882, 0.10169291496276855, 0.2579614222049713], [-0.6191802024841309, 0.5469313263893127, 0.13202643394470215, -0.4142198860645294, -0.25226789712905884, -0.4558107256889343, 0.009425022639334202, 0.13288545608520508, 0.2917889952659607, -0.16456985473632812, 0.18425238132476807, -0.3612624704837799, 0.05250075086951256, -0.10771455615758896, -0.01975327543914318, 0.2626378536224365, -0.6202778220176697, -0.32227763533592224, 0.018062599003314972, -0.1669389307498932, 0.16895239055156708, -0.012427183799445629, -0.7346111536026001, 0.22064083814620972, -0.4549824893474579, 0.19120317697525024, -0.0021215227898210287, 0.09158022701740265, -0.2938491106033325, 0.3106941878795624, 0.3957059979438782, -0.086424320936203], [-0.8145056962966919, -0.16270889341831207, 0.17118076980113983, 0.03457736596465111, 0.12918874621391296, 0.021505896002054214, -0.26557573676109314, 0.013767414726316929, 0.006547681987285614, -0.36405956745147705, 0.1514117270708084, -0.28154921531677246, 0.2893175184726715, 0.32275697588920593, 0.543778657913208, -0.2563784420490265, -0.012905411422252655, -0.1746033877134323, -0.34963610768318176, 0.2656145393848419, -0.1829679310321808, -0.09569263458251953, 0.2988663613796234, -0.36761149764060974, 0.23381365835666656, 0.10275029391050339, -0.13983891904354095, -0.03583110496401787, 0.2933479845523834, 0.16360193490982056, 0.7325614094734192, 0.10927699506282806], [0.3673291504383087, -0.2593274414539337, -1.0163263082504272, -0.10671145468950272, 0.06306689232587814, -0.05135980620980263, 0.5289843082427979, -0.4451533257961273, 0.10491272807121277, -0.1895780861377716, 0.21542315185070038, 0.060374654829502106, 0.07179047912359238, 0.25821802020072937, -0.25665441155433655, -0.14274902641773224, -0.07229746878147125, 0.2063896507024765, -0.30664530396461487, 0.30112865567207336, 0.16694319248199463, -0.07274211943149567, -0.6901479363441467, -0.3482460677623749, -0.16263920068740845, 0.09365298599004745, 0.08488237112760544, -0.5226810574531555, 0.17427237331867218, 0.7857974171638489, 0.41958966851234436, -0.5981908440589905], [0.09874985367059708, -0.013124659657478333, -0.08639240264892578, -0.24824513494968414, 0.3558705449104309, -0.7719230055809021, -0.09218265861272812, 0.08012162148952484, -0.3072284460067749, 0.28384196758270264, 0.1257566660642624, 0.29492905735969543, 0.059341784566640854, 0.33492758870124817, -0.005894492380321026, -0.33411338925361633, 0.5907237529754639, 0.11936544626951218, 0.3145960867404938, 0.16265416145324707, -0.33231037855148315, -0.5095528364181519, -0.2913522720336914, 0.4778817594051361, -0.07987479865550995, 0.0022841119207441807, -0.30445167422294617, 0.19581091403961182, -0.05845971405506134, 0.017442213371396065, -0.1562904417514801, 0.06990648061037064], [0.5233070254325867, 0.009252852760255337, 0.355743944644928, -0.47971922159194946, 0.7105569839477539, -0.11950020492076874, -0.215260848402977, 0.18105341494083405, -0.4980880916118622, 0.376346230506897, 0.35102689266204834, 0.3291224539279938, 0.7195210456848145, -0.36479535698890686, -0.07722348719835281, 0.22310809791088104, -0.2804885506629944, -0.03859708085656166, -0.0760272741317749, -0.7109588980674744, 0.061990585178136826, -0.15570250153541565, -0.14248336851596832, -0.3119191825389862, 0.21080262959003448, -0.06295385956764221, -0.43838122487068176, -0.05007028579711914, -0.1990259289741516, -0.25628602504730225, 0.04314146563410759, -0.07303033769130707], [-0.33059194684028625, -0.06600088626146317, 0.24178749322891235, 0.5106499195098877, 0.3480842709541321, 0.13188886642456055, -0.18445616960525513, 0.3983117341995239, 0.542698085308075, 0.3626994788646698, -0.036483462899923325, -0.16148726642131805, 0.37228652834892273, 0.20624040067195892, -0.506434977054596, 0.28257107734680176, 0.1815517693758011, -0.31765884160995483, -0.1637636423110962, -0.2788553237915039, 0.34438300132751465, 0.10401333123445511, 0.08413441479206085, -0.08107707649469376, -0.42494410276412964, 0.029082123190164566, 0.6009402275085449, -0.4665464758872986, 0.0689036175608635, -0.1366562843322754, -0.16774345934391022, 0.20242658257484436], [0.21800917387008667, 0.09640908241271973, -0.7817648649215698, 0.43380874395370483, 0.024883203208446503, -0.6182290315628052, 0.14327102899551392, 0.059203118085861206, -0.7317766547203064, -0.05805428326129913, -0.037118099629879, -0.200886070728302, 0.7227757573127747, -0.24518738687038422, -0.5166423916816711, 0.16317132115364075, -0.30848389863967896, -0.1466701179742813, 0.05182443559169769, 0.33599627017974854, 0.07741118967533112, 0.25780218839645386, -0.16548816859722137, 0.07265569269657135, -0.1281728595495224, 0.21927706897258759, -0.07343798875808716, -0.20813441276550293, 0.30546072125434875, -0.3017207682132721, -0.24279892444610596, -0.10025721788406372], [0.2742888033390045, 0.20109626650810242, 0.4785534739494324, 0.017620736733078957, -0.09776726365089417, -0.05270532891154289, 0.16244439780712128, 0.02522212453186512, 0.1774807721376419, -0.4992222189903259, 0.14181432127952576, 0.07629223167896271, 0.14442099630832672, 0.8527078628540039, -0.26610302925109863, 0.3840866684913635, -0.18051177263259888, 0.33711478114128113, 0.17387829720973969, -0.3051982522010803, 0.0476267971098423, 0.1359720230102539, -0.10888728499412537, 0.16333937644958496, 0.11484428495168686, -0.478193074464798, -0.26871758699417114, 0.012802031822502613, 0.3903750479221344, -0.05116982385516167, 0.5923469066619873, -0.15106487274169922], [0.20062406361103058, 0.20683492720127106, 0.020831571891903877, 0.12074018269777298, -0.23983077704906464, -0.09120387583971024, 0.13352058827877045, -0.07352221757173538, -0.012155789881944656, -0.2819215655326843, -0.28222379088401794, -0.1390005648136139, -0.24686627089977264, -0.16495288908481598, 0.21097667515277863, 0.40941545367240906, 0.5690074563026428, -0.22824840247631073, 0.4245360195636749, -0.6205413937568665, -0.3671272099018097, 0.7120320200920105, 0.07490532100200653, -0.27350324392318726, 0.4787455201148987, 0.5195688605308533, 0.4930209219455719, -0.13877126574516296, -0.1569182127714157, -0.07676186412572861, 0.511118471622467, 0.0979023352265358], [0.19457635283470154, 0.17647996544837952, 0.03697829693555832, 0.20499637722969055, -0.17540812492370605, -0.07837870717048645, 0.007492998149245977, 0.3412070870399475, 0.08154424279928207, -0.39729177951812744, -0.32947731018066406, 0.2619861662387848, 0.27466240525245667, -0.46937066316604614, 0.055989645421504974, -0.1502908617258072, 0.08910176157951355, -0.5867490768432617, -0.2639489471912384, -0.29018494486808777, 0.25022822618484497, -0.45324838161468506, 0.08632966876029968, -0.5371958613395691, -0.22624370455741882, -0.1542673408985138, -0.10715580731630325, -0.00966244749724865, 0.26882514357566833, 0.3104960024356842, -0.4082580804824829, -0.5874823331832886], [-0.20061859488487244, 0.37527766823768616, -0.20698221027851105, 0.06657304614782333, 0.4617474377155304, 0.008740329183638096, 0.27184298634529114, 0.29258114099502563, 0.10043340176343918, -0.26007911562919617, 0.27725014090538025, 0.03877441957592964, 0.0027879613917320967, 0.3456501066684723, 0.23618566989898682, -0.3375708758831024, -0.07450569421052933, 0.20982228219509125, -0.11273758113384247, -0.046408336609601974, -0.7356312870979309, 0.4589327871799469, -0.30469539761543274, -0.1845691204071045, -0.6016520261764526, -0.3018972873687744, 0.07181818783283234, 0.004008548799902201, 0.5171168446540833, -0.4006550908088684, -0.30372199416160583, 0.6714543104171753], [-0.09889038652181625, 1.0288854837417603, -0.39542677998542786, 0.04682276025414467, 0.20511966943740845, 0.14120590686798096, 0.19899116456508636, -0.3859286904335022, -0.2321448028087616, 0.22108228504657745, 0.21903096139431, 0.5504578351974487, -0.34789592027664185, -0.2938443124294281, -0.4079626202583313, -0.422092467546463, -0.11388514935970306, 0.1540295034646988, 0.09152612835168839, -0.22186648845672607, 0.0991756021976471, -0.08007877320051193, 0.4521847665309906, -0.05352996662259102, -0.7189521789550781, 0.11241614818572998, -0.2835588753223419, -0.34057527780532837, 0.021333999931812286, -0.07570963352918625, 0.3499595820903778, -0.4836174249649048], [-0.06911614537239075, -0.05369322746992111, -0.2818056643009186, -0.6591849327087402, 0.6383073329925537, -0.16196897625923157, -0.005106972996145487, -0.22947362065315247, 0.13726575672626495, -0.4124082326889038, -0.4393499493598938, -0.6882327795028687, 0.021109988912940025, 0.14076687395572662, 0.15870137512683868, 0.20801863074302673, 0.2643533945083618, -0.05943307280540466, -0.5303247570991516, -0.01898866891860962, 0.43308138847351074, -0.5047052502632141, -0.09287283569574356, 0.046439774334430695, -0.2905121147632599, -0.11776740849018097, -0.309085875749588, 0.3250352740287781, -0.19943125545978546, -0.2906600832939148, -0.024200797080993652, -0.1727028489112854], [0.02824983559548855, -0.6764019727706909, 0.26176345348358154, -0.37023797631263733, 0.1727273315191269, -0.23278532922267914, 0.6331028342247009, -0.17716479301452637, 0.6001953482627869, 0.20422813296318054, 0.43210703134536743, 0.044411055743694305, 0.12821273505687714, -0.44382140040397644, -0.28719133138656616, 0.22164109349250793, 0.3282586932182312, 0.5686842799186707, 0.06259743124246597, 0.07547721266746521, 0.025376208126544952, 0.00020143244182690978, 0.7455090880393982, 0.4326030910015106, -0.36540669202804565, 0.027860773727297783, 0.13590030372142792, 0.05636151134967804, 0.22964397072792053, 0.17286859452724457, 0.1697978973388672, 0.2148151993751526], [0.4124491512775421, -0.22805985808372498, -0.17320610582828522, 0.3557448387145996, 0.20934714376926422, 0.4065435528755188, -0.38124242424964905, 0.27894434332847595, -0.4511554539203644, -0.28988319635391235, 0.33372482657432556, -0.1626768559217453, -0.22596502304077148, -0.06720923632383347, -0.08303961902856827, -0.4036616384983063, -0.3684459328651428, 0.18473193049430847, -0.7556675672531128, -0.35272863507270813, -0.7214399576187134, 0.2742001414299011, -0.2398277372121811, 0.3065693974494934, -0.18640679121017456, -0.0635146051645279, 0.4080904722213745, 0.18774399161338806, -0.2000676840543747, 0.10346969962120056, 0.3611372709274292, -0.8251549005508423], [-0.34383320808410645, -0.03631981834769249, -0.027658186852931976, 0.31338751316070557, -0.21635834872722626, 0.004973298404365778, -0.3345150351524353, 0.045849014073610306, -0.3377227187156677, -0.30449721217155457, 0.2722124457359314, -0.10294117033481598, -0.13763712346553802, -0.47406160831451416, -0.8292224407196045, 0.6695061326026917, 0.1355379819869995, 0.33506718277931213, -0.26658546924591064, -0.06529375910758972, 0.2219858020544052, 0.28264546394348145, -0.31317877769470215, -0.2719907760620117, 0.208787739276886, 0.0757976695895195, -0.2845296859741211, 0.35348761081695557, 0.07738357782363892, 0.675719141960144, -0.3048217296600342, 0.02510065771639347], [0.2533414661884308, -0.2035824954509735, 0.2592194974422455, -0.15048250555992126, 0.1543133407831192, 0.22048786282539368, -0.2433759570121765, -0.5766485929489136, -0.40649253129959106, 0.16493311524391174, -0.36801454424858093, 0.0215509794652462, -0.1876360923051834, -0.5130559206008911, -0.060937657952308655, 0.3416994512081146, -0.06874269992113113, 0.28203967213630676, -0.177963525056839, 0.3756940960884094, -0.34832969307899475, -0.7579686641693115, -0.21596753597259521, 0.2512306571006775, -0.1840652972459793, 0.1654152125120163, 0.3506709933280945, -0.5246798992156982, 0.778377115726471, 0.08711332082748413, -0.05625787377357483, 0.2510268986225128], [-0.15655674040317535, -0.23600031435489655, 0.13993299007415771, 0.09136117994785309, -0.06962079554796219, -0.28558194637298584, -0.1646815836429596, -0.6177788376808167, 0.4368070960044861, 0.10797761380672455, -0.3329375684261322, -0.42625290155410767, 0.2777958810329437, 0.0648854523897171, -0.5682448148727417, -0.5189497470855713, -0.37165337800979614, 0.3389585316181183, 0.06482753157615662, -0.4471982717514038, 0.12893468141555786, 0.18496768176555634, -0.477355420589447, 0.13104145228862762, 0.14917880296707153, 0.3345724642276764, -0.2507377564907074, -0.10889172554016113, 0.3414795994758606, -0.1796133667230606, -0.5328760147094727, 0.009911106899380684], [0.25969457626342773, -0.16143809258937836, -0.610342264175415, 0.023226497694849968, 0.15271446108818054, 0.24534659087657928, 0.09720736742019653, 0.18391840159893036, -0.6238693594932556, 0.6077744960784912, -0.07382641732692719, -0.11731921881437302, -0.07471641898155212, 0.43360909819602966, -0.08505702763795853, -0.14575570821762085, -0.15081411600112915, 0.10525806993246078, 0.07975581288337708, -0.6001757383346558, 0.06986766308546066, -0.2895165681838989, 0.3446033298969269, 0.42089733481407166, 0.1210290938615799, -0.16940703988075256, 0.07507055252790451, 0.17559050023555756, 0.30928462743759155, 0.6418337821960449, -0.14683377742767334, 0.4685351550579071], [-0.2897755205631256, -0.4435686767101288, -0.6124045848846436, 0.4431057274341583, 0.09510990977287292, -0.3498333692550659, 0.05620289593935013, 0.29382219910621643, 0.2981846332550049, -0.20299917459487915, -0.2920994460582733, 0.4607071280479431, -0.31365177035331726, -0.10686811804771423, -0.24597950279712677, 0.06824066489934921, -0.7317780256271362, -0.3135637938976288, -0.03887469321489334, -0.13721229135990143, 0.23748436570167542, -0.18652784824371338, -0.0881335660815239, -0.13294318318367004, -0.16360768675804138, -0.44837501645088196, -0.3104742467403412, 0.20952215790748596, 0.3275463879108429, -0.25974059104919434, 0.7399364113807678, 0.29219719767570496], [0.11341128498315811, 0.02283301204442978, -0.37931668758392334, 0.23818787932395935, 0.06249703839421272, -0.02971188724040985, 0.8042727112770081, 0.007901066914200783, -0.10933361202478409, -0.45065975189208984, 0.6150408387184143, -0.2725623846054077, -0.4292823076248169, -0.3739657700061798, -0.16727565228939056, -0.4652634859085083, -0.3485621511936188, -0.46759048104286194, -0.17255350947380066, -0.11870476603507996, 0.2296956181526184, -0.5864235758781433, -0.4891100227832794, 0.0789426863193512, 0.4953148066997528, -0.08254065364599228, -0.425984650850296, -0.33422717452049255, -0.2714347243309021, 0.12684909999370575, -0.024708546698093414, 0.15211299061775208], [-0.05207499489188194, 0.6456142067909241, -0.515625, 0.49186789989471436, -0.4021764099597931, 0.09258510172367096, 0.48396730422973633, -0.09665509313344955, 0.34157341718673706, -0.12483002245426178, 0.35601741075515747, -0.1445755511522293, 0.5706076622009277, -0.008921290747821331, -0.17987172305583954, 0.26716017723083496, -0.05844453349709511, -0.01342041976749897, -0.07332204282283783, -0.3682383894920349, -0.9033613204956055, -0.09110822528600693, 0.21385297179222107, -0.12173780053853989, 0.2720150351524353, -0.4758290648460388, 0.2807469964027405, 0.18808694183826447, -0.3813124895095825, 0.02904890477657318, 0.2004249095916748, -0.1770823895931244], [-0.6902242302894592, -0.45449236035346985, 0.11382704228162766, 0.18664443492889404, -0.2578899562358856, -0.1448514610528946, 0.16788291931152344, -0.6189717650413513, -0.646909773349762, 0.34167903661727905, 0.09841262549161911, 0.35800468921661377, -0.4242127239704132, 0.11740532517433167, 0.2723657786846161, 0.2129061371088028, 0.23482273519039154, -0.0659286379814148, 0.07165887206792831, -0.3421235680580139, 0.2129136621952057, 0.19939498603343964, -0.022750217467546463, -0.12685945630073547, -0.22452719509601593, -0.24243679642677307, 0.02723030559718609, -0.08993829041719437, -0.2544213533401489, -0.4331742823123932, 0.16039849817752838, -0.14849422872066498], [0.32100802659988403, -0.18358616530895233, -0.03305281326174736, 0.4317491352558136, 0.19821222126483917, 0.6298503279685974, -0.23333829641342163, -0.6036750674247742, 0.03182516619563103, -0.6386240720748901, 0.2755585312843323, 0.2539254426956177, 0.20049844682216644, -0.07870595902204514, -0.2763173580169678, 0.26000919938087463, 0.05648699775338173, -0.4887867271900177, -0.00997568666934967, -0.05955125764012337, 0.07225559651851654, -0.18481972813606262, 0.11738523840904236, 0.07585619390010834, -0.27014344930648804, 0.5373743772506714, -0.39644813537597656, 0.2562263309955597, -0.3906686007976532, 0.18333615362644196, -0.04934743046760559, 0.3959354758262634], [0.049024153500795364, 0.27981171011924744, 0.12871718406677246, -0.002832846948876977, -0.2287679761648178, 0.4930482804775238, 0.6476731300354004, 0.19373564422130585, -0.199614480137825, 0.3124701976776123, -0.48249730467796326, 0.2300489991903305, 0.0762944221496582, 0.10286374390125275, -0.15562066435813904, -0.05667916685342789, -0.19181135296821594, -0.5640409588813782, -0.6184399724006653, 0.15475019812583923, -0.3495449423789978, 0.08392910659313202, -0.2062281370162964, 0.24471132457256317, 0.17285490036010742, 0.4575379192829132, -0.5194368362426758, 0.04268904775381088, 0.5157479047775269, -0.07475688308477402, 0.23840942978858948, -0.3161924183368683], [-0.4812155067920685, 0.31378740072250366, -0.20017586648464203, 0.2560563087463379, 0.5052157044410706, -0.3334568738937378, -0.013365473598241806, -0.4758605360984802, -0.5587794184684753, -0.5793362259864807, -0.0015365422004833817, 0.6165532469749451, -0.20338846743106842, -0.060367461293935776, -0.28699401021003723, 0.04909653961658478, -0.5444741249084473, -0.28825297951698303, -0.70606529712677, -0.22376951575279236, -0.516241729259491, -0.1777840256690979, 0.4610667824745178, -0.003287906525656581, -0.262241929769516, 0.056019555777311325, 0.22475509345531464, -0.05732879787683487, -0.3007383942604065, 0.43887510895729065, -0.2357846051454544, 0.12798704206943512], [0.5383193492889404, -0.05388324707746506, 0.011987622827291489, 0.31740328669548035, -0.1149345189332962, -0.1286039799451828, 0.2653486430644989, -0.2660268247127533, -0.4053562581539154, 0.1423310935497284, 0.06934220343828201, -0.20123156905174255, 0.1257024109363556, 0.1964675784111023, -0.3453320562839508, -0.08783099055290222, 0.10277451574802399, -0.7088306546211243, -0.017990365624427795, 0.5948275923728943, -0.2607179880142212, -0.022672105580568314, 0.06659932434558868, -0.6866222023963928, -0.22801026701927185, 0.3732440173625946, 0.14315733313560486, 0.19682763516902924, 0.08869566023349762, 0.05153769999742508, 0.18034639954566956, 0.46590477228164673]], "b": [-0.07923142611980438, 0.20029078423976898, -0.2200048267841339, 0.08096933364868164, -0.05815959721803665, 0.11723926663398743, -0.09685064852237701, -0.02711338736116886, -0.17842848598957062, -0.13727454841136932, -0.15525124967098236, -0.2762875556945801, 0.020288091152906418, -0.19965055584907532, -0.08737590909004211, -0.33885034918785095, 0.046542536467313766, 0.010413327254354954, 0.08311539143323898, 0.1006283238530159, 0.26937440037727356, 0.3630926012992859, -0.10461193323135376, 0.16115261614322662, 0.15403881669044495, -0.1227005273103714, -0.2536446750164032, 0.36303532123565674, -0.18747970461845398, 0.09620791673660278, 0.20461826026439667, -0.05098703131079674], "activation": "tanh"}, {"w": [[0.011701432056725025, -0.2452724725008011, 0.10315282642841339, -0.048696789890527725, -0.23025642335414886, -0.059933699667453766, 0.18373844027519226, -0.05670386180281639, -0.13974182307720184, -0.18653284013271332, -0.0030773638281971216, -0.08657149970531464, 0.1185673400759697, -0.00846019946038723, 0.14562498033046722, 0.04588162153959274, 0.18909242749214172, -0.12765823304653168, -0.06665953993797302, -0.3392747640609741, 0.08512892574071884, 0.2044609785079956, -0.2099025696516037, -0.21550598740577698, -0.0004841845657210797, -0.25181522965431213, -0.02773788943886757, -0.17059825360774994, 0.038801614195108414, 0.25684654712677, 0.2781013548374176, 0.09028307348489761], [-0.2376594990491867, -0.05522897094488144, -0.006324675399810076, 0.18148422241210938, 0.01862029917538166, 0.011495042592287064, 0.10309881716966629, -0.3223635256290436, 0.003397720865905285, -0.17824265360832214, -0.058455005288124084, -0.30607232451438904, 0.06279202550649643, 0.08145614713430405, -0.21546237170696259, 0.2797403931617737, -0.24269671738147736, -0.1474037766456604, -0.14050497114658356, 0.2796141803264618, -0.3522978723049164, -0.14277763664722443, -0.1972503662109375, -0.13786181807518005, 0.19171756505966187, 0.22617296874523163, 0.24787241220474243, 0.08273889869451523, -0.23470930755138397, 0.09112732857465744, -0.20222966372966766, 0.052093613892793655], [0.14537176489830017, -0.11787199229001999, -0.11696892976760864, 0.21940647065639496, 0.0540957972407341, -0.2611541748046875, -0.17724357545375824, 0.4327734112739563, -0.0677088052034378, -0.06209443137049675, 0.14477591216564178, 0.1283169835805893, 0.03720959648489952, 0.16145969927310944, 0.012152308598160744, -0.16712358593940735, 0.1805409938097, -0.2853284180164337, 0.2843473255634308, -0.26370859146118164, 0.19500167667865753, 0.35674065351486206, 0.046827808022499084, 0.22671638429164886, -0.2831099033355713, -0.16665102541446686, -0.006856110412627459, -0.08293269574642181, 0.1634359359741211, 0.07617578655481339, 0.11518803238868713, 0.17949163913726807], [-0.02060420997440815, 0.1458476483821869, -0.016741745173931122, 0.094614177942276, -0.11549191176891327, 0.05736435949802399, 0.043526094406843185, 0.054838769137859344, 0.027119234204292297, -0.10668086260557175, -0.19523796439170837, -0.030472975224256516, 0.12776488065719604, -0.11142457276582718, -0.029677920043468475, -0.13571099936962128, 0.02463851310312748, -0.08596809953451157, 0.016719212755560875, 0.18336310982704163, 0.282540887594223, 0.1195138469338417, -0.027192819863557816, 0.05649690702557564, 0.14580512046813965, -0.01853315718472004, -0.30120429396629333, 0.14492464065551758, -0.21039916574954987, 0.03150368481874466, 0.08014407753944397, -0.10087361931800842]], "b": [0.10642547160387039, -0.045277271419763565, 3.313058550702408e-05, 0.41199439764022827], "activation": "none"}]}