{"name": "100k", "layers": [{"w": [[0.2230253517627716, 0.7885829210281372, 0.21581195294857025, -0.2662609815597534, 0.39819011092185974, 0.3853217363357544, 0.5759104490280151, 0.3642413318157196, 0.5222176909446716, -0.0917045995593071, -0.03904113546013832, 0.06696450710296631, -0.2829505205154419, -0.5203999280929565, -0.6606584191322327, -0.2544997036457062, -0.27483677864074707, 0.2566233277320862, -0.060079436749219894, 0.07827180624008179, -0.22159546613693237, 0.030374614521861076, 0.28360167145729065, 0.15897159278392792, -0.9155498743057251, 0.1788567155599594, 0.044146470725536346, 0.3865240812301636, -0.7795519232749939, -0.08460131287574768, -0.1224813461303711, -0.5532143115997314, -0.6748719215393066, 0.21829845011234283, -0.13638553023338318, -0.423285573720932, 0.24754862487316132, -0.038413017988204956, 0.042627155780792236, 0.5273627638816833, 0.24291573464870453, 0.15873290598392487, 0.7112897038459778, -0.018118081614375114, -0.2708073854446411, -0.2339990735054016, 0.41005468368530273, -0.3190138638019562], [0.5774271488189697, -0.2521887421607971, 0.6844847202301025, -0.42122480273246765, 0.32626333832740784, 0.5280566811561584, -0.4487015902996063, -0.18622896075248718, -0.45200231671333313, 0.12250766903162003, 0.057138264179229736, 0.23469625413417816, 0.9142665266990662, 0.025034913793206215, -0.18756671249866486, 0.6745271682739258, 0.34887954592704773, -0.3421100974082947, -0.08167044073343277, -0.41050985455513, 0.09442005306482315, 0.3287651240825653, 0.07391366362571716, 0.18060092628002167, 1.0386048555374146, -0.1321350485086441, 0.7755741477012634, 0.062162674963474274, 0.2880078852176666, 0.30505484342575073, 0.18950572609901428, 0.18847866356372833, 0.32673853635787964, 0.386269211769104, -0.524950385093689, -0.6388176679611206, -0.6896308660507202, 0.5372968912124634, 0.5353196859359741, -0.4149681627750397, 0.2885662019252777, -0.010176506824791431, 0.2072085738182068, 0.39093613624572754, -0.4734814167022705, 0.1791185885667801, -0.7848557829856873, -0.45604753494262695], [-0.008676990866661072, -0.49826133251190186, 0.10713877528905869, 0.11869827657938004, 0.9068521857261658, 1.7275679111480713, 0.4586855173110962, 0.5868797898292542, -0.6675923466682434, 0.2622533440589905, 0.0779331773519516, 0.32643717527389526, 0.39181143045425415, -0.3198537528514862, 0.35793396830558777, 0.010186843574047089, -0.2723676562309265, 0.2499275654554367, -0.06385871767997742, -0.35187238454818726, 0.5905212759971619, -0.14517416059970856, -0.023981276899576187, -0.0006277031498029828, -0.8685689568519592, -0.008574591018259525, -0.8163201808929443, -0.20504364371299744, 0.4412780702114105, 0.0002704744110815227, -0.07423160970211029, -0.1905619353055954, 0.0621991902589798, -0.547244668006897, -0.3026292026042938, 0.7854287624359131, -0.5580142736434937, 0.09131960570812225, -0.4675946831703186, 0.1312258094549179, -0.3347565233707428, 0.26477673649787903, -0.38532403111457825, -0.3262922465801239, 0.147328719496727, -0.6364001631736755, 0.2034444361925125, 0.569692075252533], [0.3224552869796753, -0.047713231295347214, 0.5916543006896973, 0.16747431457042694, -1.2582612037658691, -1.0784960985183716, -0.2711034119129181, 0.07034073024988174, -0.11869101971387863, -0.20297224819660187, -0.4453977942466736, -0.3874197006225586, 0.3980351984500885, 0.26158151030540466, -0.18736033141613007, -0.015882007777690887, 0.8191594481468201, 0.23463313281536102, -0.04747111350297928, 0.7233379483222961, 0.15378500521183014, 0.21843385696411133, -0.33185991644859314, -0.0787661150097847, -0.4481877088546753, -0.05722016468644142, -0.07091952860355377, -0.15894316136837006, 0.08830616623163223, 0.38605237007141113, 0.32096990942955017, -0.025675980374217033, 0.12486259639263153, -0.0021853509824723005, -0.5254754424095154, -0.051043156534433365, 0.048540983349084854, -0.3266617953777313, 0.07653812319040298, 0.2602637708187103, 0.7016916275024414, 0.08622942864894867, 0.6939460039138794, 0.15340377390384674, 0.49731913208961487, 0.7361476421356201, 0.551887035369873, -0.5796148180961609], [0.02084086462855339, 0.1804642677307129, 0.4833389222621918, 0.3129439353942871, -0.6081973314285278, 0.45485028624534607, -0.08763599395751953, -0.8848658204078674, 0.22979266941547394, 0.13704316318035126, 0.3497280180454254, -0.27986180782318115, -0.2743374705314636, 0.06384078413248062, 0.4754319489002228, 0.6942272782325745, 0.37790602445602417, 0.020285097882151604, -0.04205312207341194, -0.07589703053236008, -0.5870293974876404, -0.011306775733828545, 0.3838513493537903, 0.02749595418572426, -0.44576767086982727, -0.058596137911081314, -0.7704043388366699, -0.0747440755367279, 0.8438768982887268, 0.2895013391971588, -0.6204784512519836, -0.022925302386283875, -0.37192535400390625, 0.30821192264556885, 0.24759066104888916, 0.4467948079109192, 0.07036352902650833, -0.3447571396827698, 0.36809787154197693, -0.23003672063350677, 0.6612778306007385, 0.562727153301239, 0.6318365931510925, 0.08091521263122559, 0.5973803400993347, 0.518448531627655, -0.10790833085775375, -0.6587885618209839], [-0.29310736060142517, 0.27953842282295227, -0.1238137036561966, 0.13572053611278534, 0.08855267614126205, 0.2859746217727661, -0.2238258719444275, 0.7602874040603638, -0.32872095704078674, 0.5665134787559509, 0.6651532053947449, -0.06594005227088928, -0.3244158923625946, -0.5518141388893127, -0.49757859110832214, -0.15194638073444366, -0.3950499892234802, -0.25181078910827637, 0.3249988257884979, -0.06723273545503616, 0.21776625514030457, 0.18172983825206757, -0.0031585111282765865, 0.04792427644133568, 0.1936526596546173, -0.0017122782301157713, 0.5827793478965759, 0.23817676305770874, 0.019980955868959427, 0.5474715828895569, -0.706452488899231, -0.3931260406970978, 0.0648408904671669, 0.1406826227903366, -0.49828457832336426, -0.6321214437484741, 0.30417588353157043, 0.2819327414035797, 0.17263934016227722, 0.5844368934631348, -0.41047757863998413, 0.14616689085960388, 0.5928454995155334, 0.2629525363445282, -0.0007601876277476549, -0.08420469611883163, 0.34843650460243225, 0.0265554990619421], [0.35098615288734436, -0.0020270945969969034, 0.2266334593296051, -0.034094180911779404, -0.5729804039001465, -0.006854890845716, 0.2041081339120865, -0.26977458596229553, -0.4274826943874359, 0.015938734635710716, 1.2403582334518433, 0.014832808636128902, 0.1158878281712532, -0.2286851704120636, 0.7097215056419373, -0.6803358197212219, -0.3117580711841583, 0.3355656564235687, -0.5964940786361694, 0.36938372254371643, 0.4418889284133911, 0.3682197332382202, -0.05387932434678078, -0.16986285150051117, -0.2894075810909271, -0.2729867994785309, -0.20164050161838531, -0.10603701323270798, 0.6917261481285095, -0.37786027789115906, -0.2901587188243866, 0.12659147381782532, 0.29309317469596863, 0.35945311188697815, -0.3264271020889282, -0.4639536142349243, 0.1663835346698761, -0.05108824744820595, 0.045743945986032486, 0.6284219622612, 0.1612035632133484, 0.3898299038410187, -0.2519686222076416, 0.36636263132095337, -0.17292150855064392, 0.9039110541343689, 0.03646160289645195, 0.064492367208004], [-0.010981045663356781, -0.280548095703125, -0.2044151872396469, 0.35114941000938416, -0.07054396718740463, 0.7917769551277161, 0.22260268032550812, 0.4844609797000885, 0.12017089128494263, 0.3173576593399048, -0.332701176404953, 1.2687373161315918, -0.2170678824186325, -0.3140746057033539, 0.28119558095932007, 0.24467435479164124, -0.6548445224761963, -0.18066497147083282, -0.2359296977519989, -0.4288926422595978, -0.8723250031471252, 0.0031923309434205294, -0.016294674947857857, 0.13789138197898865, -0.13790498673915863, 0.3206545114517212, -0.06708280742168427, -0.14933927357196808, -0.19820457696914673, 0.24182254076004028, -0.27950483560562134, -0.25467097759246826, -0.1325044184923172, -0.021427061408758163, 0.03533877804875374, -0.11514143645763397, 0.09595878422260284, 0.46313098073005676, 0.43854737281799316, 0.8103854060173035, -0.5061635375022888, 0.1321149617433548, 0.1713941991329193, 0.07453671842813492, 0.21002326905727386, 0.2428780049085617, -0.6062121391296387, 0.15934473276138306], [-0.3466007113456726, 0.2722911238670349, -0.2417454719543457, 0.2402617633342743, -0.5072123408317566, 0.3924320638179779, 0.07600121945142746, -0.41857466101646423, 0.3861999213695526, -0.3128780126571655, 0.9727362990379333, 0.17363637685775757, 0.7016885280609131, 0.757989764213562, -0.05771145969629288, -0.43668490648269653, 0.3894669711589813, 0.2072334587574005, 0.5008425116539001, 0.07912679016590118, 0.5570003986358643, 0.04875846952199936, -1.4365971088409424, 0.02175658568739891, 0.4536187946796417, -0.08190379291772842, 0.2063470184803009, -0.09267866611480713, 0.08614733815193176, -0.10442028939723969, 0.04733612388372421, 0.22815896570682526, -0.08951208740472794, -0.25719448924064636, 0.35929569602012634, 0.3608326017856598, -0.826916515827179, 0.12444908171892166, 0.1894153654575348, -0.6448218822479248, -0.18825510144233704, -0.07981137186288834, 0.24141359329223633, -0.248463973402977, -0.06279165297746658, 0.7984355092048645, 0.8958626985549927, 0.8525984287261963], [0.6623367667198181, 0.048410359770059586, -0.3556406795978546, 0.00524819316342473, -0.37310168147087097, -0.4688342809677124, -0.4037278890609741, 0.319685697555542, 0.20398874580860138, 0.18405500054359436, -0.1573294848203659, -0.349286824464798, -0.47465723752975464, 0.6482869982719421, -0.16204442083835602, 0.6333086490631104, -0.02465377002954483, -0.33452728390693665, -0.5369926691055298, 0.4782286286354065, 0.8342710137367249, -0.008039809763431549, 0.49578651785850525, -0.06288926303386688, -0.28057292103767395, 0.27260085940361023, 0.6826239228248596, -0.1718423068523407, -0.08130621165037155, -0.1866672784090042, 0.3231928050518036, 0.21543803811073303, 0.443593829870224, 0.016329903155565262, 0.8575105667114258, 0.8343887329101562, 0.048931222409009933, 0.7173584699630737, -0.5430334806442261, 0.19224709272384644, 0.3181000053882599, 0.03984294831752777, 0.3444031774997711, -0.6387926936149597, -0.05033715441823006, -0.48415079712867737, 0.011305684223771095, 0.26506859064102173], [-0.3422788381576538, 0.27750155329704285, 0.00825446005910635, -0.36038073897361755, -1.0009125471115112, -0.021676834672689438, -0.5709118843078613, -0.4304251968860626, -0.05070139840245247, -0.10495126247406006, -0.297245055437088, -0.5671373009681702, 0.2692892253398895, 0.005684448406100273, -0.875227689743042, -0.1470346301794052, 0.061035722494125366, 0.5898520946502686, -0.11671984195709229, -0.18280170857906342, 1.0485727787017822, 0.08338823914527893, -0.5877990126609802, 0.007129419595003128, -0.4263611137866974, -0.06327570229768753, -0.5627577304840088, 0.34371429681777954, 0.6622294187545776, -0.3198775351047516, -0.7065755128860474, 0.14540420472621918, -0.08777788281440735, -0.25087085366249084, -0.2663915157318115, -0.1400579810142517, -0.12858283519744873, 0.3290594518184662, -0.2866603434085846, -0.4281717538833618, -0.07224675267934799, 0.2441183477640152, 0.36340799927711487, 0.3949240744113922, -0.48283252120018005, -1.0679742097854614, 0.5218868851661682, -0.7581816911697388], [0.44868823885917664, -0.042025234550237656, -0.8024163246154785, 0.5930241346359253, 0.31013020873069763, -0.32866883277893066, -0.06358125060796738, 0.27103379368782043, 0.5541176199913025, 0.7194621562957764, -0.1365569680929184, -0.23160554468631744, -0.4615761637687683, 0.29107561707496643, -0.545001745223999, 0.7556780576705933, 0.6088471412658691, -0.08830947428941727, -0.09978334605693817, 0.046691227704286575, -0.0563342310488224, 0.068857342004776, 0.5327983498573303, 0.04344527795910835, 0.032916828989982605, -0.24817030131816864, 0.5568589568138123, -0.07154446095228195, -0.30026373267173767, -0.3228970468044281, 0.2569780647754669, 0.14247353374958038, -0.33184924721717834, -0.2949696183204651, -0.4723222255706787, 0.31784939765930176, 0.008477927185595036, 0.12969498336315155, -0.39548981189727783, 0.3615533709526062, -0.5164247751235962, 0.2964088022708893, -0.11510983854532242, 0.07413434982299805, 0.5504146814346313, 0.5184637308120728, -1.1848247051239014, -0.44608983397483826], [0.19443416595458984, -0.4721651077270508, -0.6254816651344299, -0.15406984090805054, 0.23573163151741028, -0.47332942485809326, 0.5127859115600586, -0.42334476113319397, -0.07274129986763, -0.584717333316803, -0.44957852363586426, 0.4187646806240082, 0.054616428911685944, -0.08037875592708588, 0.2784552574157715, 0.2791886031627655, 0.3514792323112488, -0.3040117621421814, -0.47032859921455383, -0.3594883680343628, -0.6189690232276917, -0.06012212112545967, 0.027357110753655434, -0.03262387216091156, 0.07976197451353073, 0.030866552144289017, 0.43004006147384644, 0.09919939190149307, 0.585286021232605, -0.435602605342865, -0.020241649821400642, -0.13240885734558105, 0.19689252972602844, 0.18353480100631714, 0.5575107932090759, -0.11531895399093628, 0.07976456731557846, -0.14981873333454132, 0.9228381514549255, -0.51211017370224, 0.12804105877876282, 0.7000556588172913, 0.20582270622253418, -0.22666575014591217, -0.2980656325817108, -0.02707197517156601, -0.26333296298980713, 0.22040493786334991], [-0.594260573387146, 0.46352913975715637, -0.12950700521469116, -0.19176127016544342, 0.09025971591472626, 0.5335245132446289, 0.3008497953414917, 0.5736748576164246, 0.036208201199769974, 0.31857532262802124, -0.6294043064117432, -0.31160247325897217, -0.2726300060749054, -1.021833062171936, 0.15974096953868866, 0.6221088171005249, 0.17834527790546417, -0.1866369992494583, 0.6240920424461365, 0.28020143508911133, -0.36853480339050293, 0.22117286920547485, 0.2661374509334564, -0.21807195246219635, -0.4986664354801178, -0.16136562824249268, 0.013879498466849327, 0.4097730815410614, -0.2045547068119049, -0.41807782649993896, -0.16734354197978973, -0.21722622215747833, -0.09466686844825745, -0.5122005939483643, 0.6765146851539612, 0.30988237261772156, -0.4049244821071625, -0.6023796796798706, 0.5398510098457336, 0.3512537181377411, -0.7052682042121887, -0.6317042112350464, 0.24210084974765778, -0.03671974316239357, 0.2634207606315613, 0.09076438099145889, 0.4942852854728699, 0.4926758408546448], [0.3306964039802551, -0.09414412081241608, 0.5926897525787354, -0.265423446893692, -0.26459571719169617, -0.07003209739923477, -0.2283748835325241, 0.09820972383022308, 0.30433085560798645, -0.13379448652267456, 0.6632201671600342, 0.4932191073894501, 0.5646923780441284, -0.044908445328474045, 0.8465409874916077, -0.43762558698654175, 0.24743250012397766, 0.5944240093231201, -0.6887723207473755, 0.17784124612808228, 0.6213372945785522, 0.16770002245903015, -0.24928326904773712, -0.3733374774456024, -0.73223876953125, -0.3068094551563263, 0.11930087953805923, 0.01045441348105669, 0.39198723435401917, -0.2547381818294525, 0.27953648567199707, -0.06584412604570389, -0.27625229954719543, -0.4423259496688843, 0.02953736111521721, -0.18129251897335052, 0.28674983978271484, 0.2616243064403534, 0.7583029866218567, 0.12336298078298569, 0.4577200710773468, 0.07626254111528397, 0.713595449924469, 0.07977232336997986, -0.35963138937950134, -0.8551097512245178, 0.18994036316871643, 0.5131155848503113], [0.1766139268875122, 0.09117843955755234, 0.620124340057373, -0.016080033034086227, -0.24852579832077026, 0.3602209985256195, 0.18672354519367218, 0.0021562399342656136, -0.19695764780044556, 0.0595913901925087, -0.4566357731819153, -0.35086971521377563, -0.0767354816198349, -0.16958552598953247, 0.6344503164291382, 0.0019111033761873841, 0.18533624708652496, -0.3273003399372101, -0.21842148900032043, -0.35247787833213806, 0.6849945783615112, 0.41697585582733154, -0.20390330255031586, -0.622140645980835, 0.5976710915565491, -0.6041929721832275, 0.7598241567611694, -0.4936232566833496, 0.4857267737388611, 0.1692696213722229, -0.053315650671720505, 0.08925557136535645, 0.4682633578777313, -0.5928701758384705, 0.22616423666477203, 0.06309382617473602, 0.6077885031700134, -0.29689159989356995, -0.43425849080085754, -0.7248511910438538, -0.18626214563846588, -0.08713442087173462, -0.12447501718997955, -0.4742071330547333, 0.26794859766960144, 0.7702242136001587, -0.014091664925217628, -0.9477258324623108], [0.06092405691742897, -0.10532985627651215, -0.10698728263378143, -0.24267055094242096, 0.2624947428703308, 0.7847597002983093, 0.45103228092193604, -0.5559741258621216, 0.2852161228656769, 0.06696461886167526, -0.36635252833366394, 0.17005906999111176, 0.08805004507303238, 0.23463642597198486, -0.12619508802890778, -0.058639731258153915, -0.4683528542518616, 0.16473616659641266, 0.565078854560852, -0.13510185480117798, 0.1311093121767044, -0.09363511204719543, 0.07470951974391937, -0.04968902841210365, 0.21196512877941132, 0.2418055534362793, 0.6940562129020691, -0.3619801998138428, 0.22016187012195587, -0.1264304220676422, 0.5156281590461731, -0.3151293992996216, -0.010260920971632004, 0.1676153540611267, 0.28856250643730164, -0.5941558480262756, 0.43807119131088257, 0.24985213577747345, -0.8163639903068542, -0.11409714818000793, -0.19872398674488068, 0.38661715388298035, -0.6972969174385071, -0.1650463044643402, 0.9230532646179199, -0.11237602680921555, -0.4390502870082855, 0.3352329432964325], [0.2836265563964844, -0.17244969308376312, -0.8146063089370728, -0.13707000017166138, -0.07538482546806335, 0.5390074253082275, 0.5462527275085449, -0.85590660572052, -0.3233364522457123, 0.17214320600032806, 0.5265704989433289, 0.7060317993164062, 0.09678298234939575, -0.3061735928058624, 0.8779251575469971, -0.4550655484199524, 0.007980726659297943, -0.038850247859954834, 0.15104179084300995, -0.626117467880249, 0.3365592956542969, 0.09464374929666519, -0.7112115025520325, 0.11127594113349915, -0.3136025071144104, 0.2811042368412018, 0.7917504906654358, 0.07796864211559296, 0.32426518201828003, 0.0120731545612216, -0.38382071256637573, 0.12869994342327118, -0.3228950500488281, 0.25338974595069885, -0.6455519199371338, -0.19378215074539185, 0.29798904061317444, -0.48808571696281433, 0.13666684925556183, -0.22955264151096344, -0.353864461183548, 0.13858988881111145, 0.12060372531414032, -0.6526867747306824, -0.37822240591049194, -0.5647392868995667, -0.33245649933815, -0.525657057762146], [-0.23854833841323853, 0.04357915744185448, 0.5143892765045166, -0.43146827816963196, -0.4432181715965271, 0.0494491271674633, -0.04125893861055374, 0.3776664435863495, 0.15546518564224243, -0.178552508354187, -0.6276365518569946, 0.027593642473220825, 0.05337422341108322, 0.43725332617759705, 0.2179892361164093, -0.4889947772026062, 0.749081552028656, -0.3451955020427704, -0.15836210548877716, -0.15823675692081451, -0.18674013018608093, 0.43036118149757385, -0.20698502659797668, 0.324952632188797, -0.6837220191955566, -0.02968905307352543, 0.8009551763534546, 0.022806856781244278, -0.23267053067684174, 0.4922340512275696, 0.269380122423172, -0.08469436317682266, 0.38931336998939514, 0.26824751496315, 0.08875497430562973, 0.10533539205789566, 0.35542944073677063, 0.015203814953565598, -0.5599485039710999, -0.3846518397331238, -0.312590628862381, 0.5436327457427979, -0.3752124309539795, 0.39425286650657654, 0.11560513824224472, -0.6304811835289001, 0.5685659646987915, 0.07211676985025406], [-0.5065223574638367, 0.14811554551124573, -0.21954064071178436, -0.47450539469718933, -0.4251891076564789, -0.6675913333892822, -0.42810121178627014, 0.2191983014345169, -0.3000454604625702, 0.5019258856773376, -0.02213137596845627, 0.45354345440864563, -0.3217678964138031, 0.3429528772830963, -0.756040632724762, -0.48431217670440674, -0.8605656623840332, 0.8705453872680664, -0.4282449185848236, 0.797725260257721, -0.3435525894165039, 0.08615188300609589, -0.5926229953765869, 0.05242697894573212, 0.23663532733917236, -0.13422450423240662, 0.35751402378082275, -0.12149776518344879, 0.3756321668624878, -0.3733257055282593, -0.30506840348243713, 0.15688130259513855, 0.40309110283851624, 0.2124326527118683, -0.3377325236797333, 0.057701677083969116, 0.47263869643211365, -0.03633779287338257, 0.4595196843147278, -0.28868725895881653, 0.601677417755127, -0.24631750583648682, 0.4567370116710663, -0.08551260083913803, 0.301077276468277, 0.09714393317699432, -0.4496522843837738, -0.1241779625415802], [0.43907710909843445, 0.14029546082019806, -0.2688424587249756, -0.05540044605731964, 0.47646722197532654, -0.021610984578728676, 0.28465649485588074, 0.28226715326309204, -0.012021842412650585, 0.2472476214170456, -1.2448848485946655, -0.5699291825294495, -0.026038629934191704, 0.5865401029586792, -0.014334302395582199, 0.5232721567153931, 0.19658491015434265, 0.10457556694746017, -0.34929320216178894, 0.05407653748989105, 0.1925881803035736, -0.2623855769634247, 0.3040218949317932, 0.40009182691574097, -1.0843539237976074, 0.3533291816711426, -0.1877208650112152, 0.19909560680389404, -0.16953517496585846, 0.7847187519073486, 0.7838125824928284, 0.007357498165220022, -0.1625407487154007, 0.08003763854503632, 0.036027535796165466, 0.016879204660654068, 0.3160473108291626, 0.30978232622146606, 0.6263595223426819, 0.022727467119693756, -0.5262845158576965, 0.08987874537706375, -0.47211894392967224, -0.8260725736618042, -0.14021572470664978, -0.12492240220308304, -0.2300771027803421, 0.30648764967918396], [0.2693408727645874, -0.5501379370689392, -0.10092818737030029, 0.40039318799972534, 0.26073548197746277, 0.4691029489040375, -0.3287839889526367, 0.02269517071545124, -0.014114445075392723, -0.1277814507484436, 0.7973412275314331, 0.6798592805862427, -0.7224201560020447, 0.15751034021377563, 0.01740674488246441, -0.9100233912467957, -0.21602123975753784, 0.02029246836900711, -0.033569782972335815, -0.4753609895706177, -0.6579984426498413, -0.35376402735710144, 0.11589328199625015, -0.4395079016685486, 0.2966541349887848, -0.352813720703125, 0.1492592841386795, -0.2917426526546478, 0.18824909627437592, -0.3305344879627228, -0.5488960146903992, 0.11949911713600159, -0.17513582110404968, 0.18679460883140564, -0.07269182056188583, -0.3150508403778076, 0.3510389029979706, 0.33256039023399353, 0.7503717541694641, -0.08209554105997086, 0.030139649286866188, 0.021668875589966774, 0.24237313866615295, -0.16647206246852875, 0.20383703708648682, 0.2768702208995819, 0.09499044716358185, 0.3969012498855591], [0.07841114699840546, 0.39318692684173584, 0.4186517000198364, 0.3718002736568451, 1.188847541809082, 0.02853880636394024, 0.3975321650505066, -0.11717292666435242, 0.2982345223426819, 0.3219956159591675, 0.5547847747802734, 0.02286769263446331, 0.04733906686306, -1.171068549156189, -0.018724588677287102, -0.4033406674861908, 0.15591180324554443, -0.6632476449012756, 0.04938509687781334, -0.0428369976580143, 0.33245235681533813, 0.11544457823038101, 0.17638695240020752, 0.18086662888526917, -0.6647050976753235, -0.4684574604034424, 0.06283619999885559, 0.0037282819394022226, -0.10680458694696426, -0.49491217732429504, 0.17743760347366333, -0.11917667090892792, 0.11969158053398132, -0.47710108757019043, -0.6591671109199524, -0.6610522270202637, 0.6078985929489136, 0.5075750350952148, -0.04157896339893341, -0.2925247251987457, 0.05001198500394821, -0.1595529466867447, -0.3198457658290863, -0.47317662835121155, 0.060296013951301575, -0.724999189376831, 0.13052597641944885, -0.11896706372499466], [0.29409536719322205, -0.046517226845026016, 0.4654422700405121, 0.383722722530365, -0.3170902132987976, -0.5824769139289856, -0.03401252627372742, -0.05666092410683632, 0.35843127965927124, -0.12557567656040192, 0.11023413389921188, 0.1762351393699646, 0.031823400408029556, 0.18409796059131622, -0.30625635385513306, -0.8961891531944275, -0.5713306069374084, 0.39810171723365784, -0.10677747428417206, 0.15381447970867157, -0.7775384187698364, 0.21563376486301422, -0.4373322129249573, 0.30375516414642334, -0.34726718068122864, -0.08557257801294327, -0.7417043447494507, 0.026027344167232513, -0.3912510871887207, 0.07190663367509842, 0.34628748893737793, 0.5005356073379517, -0.0006453139940276742, 0.06240946054458618, 0.12115095555782318, 0.30222299695014954, 0.19829627871513367, 0.27269309759140015, 0.10800853371620178, 0.23260384798049927, -0.5676625370979309, -0.2928833067417145, -0.5239638686180115, -0.051668260246515274, 0.6516762375831604, -1.047435998916626, 0.771722137928009, 0.09029369056224823], [-0.13270528614521027, -0.29159969091415405, 0.266828715801239, -0.2741033732891083, 0.8098544478416443, 0.23602235317230225, -0.5575047135353088, -0.6602985858917236, -0.3363579511642456, 0.10383947193622589, -0.7183110117912292, 0.4253045916557312, -0.23300576210021973, -1.1075114011764526, 0.15752527117729187, 0.25463125109672546, 0.5725032687187195, -0.003954204730689526, -1.1859533786773682, 0.00858637411147356, 0.2033240795135498, -0.09551682323217392, -0.8134813904762268, -0.39265915751457214, 0.605235755443573, 0.27481263875961304, 0.09848365932703018, -0.06417717039585114, -0.164451003074646, 0.20128104090690613, -0.5490226745605469, 0.6731932759284973, -0.6717206239700317, -0.04576806724071503, 0.730080246925354, 0.3598071336746216, 0.01411235611885786, -0.07969994097948074, -0.061334915459156036, 0.5420193672180176, -0.6124104857444763, 0.008962053805589676, -0.23367540538311005, 0.5696496963500977, 0.08956227451562881, 0.043628159910440445, -0.3930363357067108, -0.13337673246860504], [-0.3182390332221985, -0.18913882970809937, 0.3451334834098816, 0.28560224175453186, -0.5143225193023682, 0.36023905873298645, -0.28804242610931396, 0.5483376383781433, 0.2245747298002243, -0.5302780866622925, 0.22884319722652435, 0.028389858081936836, -0.2530805468559265, -0.09036783874034882, -0.5279523730278015, -0.6944341063499451, 0.3507767915725708, 0.1328272521495819, -0.14091897010803223, 0.04947502166032791, 0.060482319444417953, 0.02065114863216877, 0.3143416941165924, -0.12466538697481155, 0.5657694935798645, 0.11506408452987671, -0.8836560249328613, -0.21824388206005096, 0.5384470820426941, -0.33499956130981445, -0.014208565466105938, -0.18253207206726074, 0.329683780670166, -0.6068921685218811, 0.8075074553489685, -0.3529698848724365, 0.08641201257705688, -0.2437782883644104, 0.07066816091537476, -0.1146455854177475, 0.21928037703037262, 0.03531770035624504, 0.3503963053226471, 0.4203794300556183, 0.24006709456443787, 1.2510567903518677, -0.07869011908769608, -1.2143338918685913], [0.2920267581939697, -0.5166600942611694, 0.6340178847312927, -0.0854225605726242, -0.32813936471939087, -0.41233447194099426, 0.4375886917114258, 0.3733234405517578, -0.38528335094451904, -0.8551157116889954, 0.426338791847229, 0.06372907757759094, 0.5784803628921509, -0.7274138927459717, -0.21498703956604004, -0.3586631119251251, 0.08230547606945038, -0.5689700245857239, 0.10121060907840729, -0.18299561738967896, -0.13938625156879425, -0.201171875, -0.03322681784629822, 0.02692571096122265, -0.13219532370567322, 0.10684861242771149, -0.6377559304237366, -0.07635967433452606, 0.5337414145469666, 0.3925122618675232, -0.3210170567035675, 0.06523623317480087, -0.13791829347610474, 0.48005884885787964, 0.053472694009542465, 0.10609360784292221, -0.19971249997615814, 0.04127515107393265, 0.12276971340179443, 0.5550225973129272, 0.8195066452026367, 0.13580651581287384, -0.48965635895729065, 0.38328856229782104, -0.23178812861442566, 0.15929116308689117, 0.6197118759155273, -0.16681985557079315], [0.8327531814575195, 0.28286269307136536, -0.1937253624200821, -0.3481709659099579, 0.1833110749721527, 0.3004820942878723, -0.47604307532310486, 0.21147292852401733, 0.09764920175075531, -0.28542235493659973, 0.26270994544029236, 0.1290111243724823, -0.5499438643455505, -1.0401355028152466, -0.18395757675170898, -0.87465500831604, -0.24474895000457764, 0.13841266930103302, 0.7459378242492676, -0.347596675157547, -1.2347660064697266, 0.11136512458324432, -0.680270254611969, -0.07109837979078293, 0.7688736915588379, 0.01715342327952385, -0.30800682306289673, 0.31351029872894287, -0.5361968278884888, 0.1631472259759903, -0.10648772120475769, 0.07235581427812576, -0.03165500983595848, 0.2631727159023285, 0.24813540279865265, 0.35638853907585144, 0.38235411047935486, -0.5211494565010071, -0.3233286738395691, -0.2807784378528595, -0.35474494099617004, 0.264115571975708, 0.13514621555805206, -0.35225042700767517, -0.31472650170326233, 0.7660953998565674, 0.2841249406337738, -0.782033383846283], [0.2008412927389145, 0.2168857902288437, 0.16018150746822357, -0.21002501249313354, 0.7067466378211975, 0.06149919331073761, 1.166731595993042, 0.06573109328746796, -0.4361996650695801, 0.5712647438049316, 0.1780426800251007, 0.6340580582618713, 0.48051998019218445, -0.2710522711277008, 0.8876720666885376, -0.3143048882484436, -0.28911495208740234, 0.13218441605567932, -0.4474983811378479, 0.20823408663272858, -0.47829195857048035, 0.2980594038963318, 0.15147976577281952, -0.2354522943496704, -0.38420143723487854, -0.07353892177343369, -0.08255782723426819, 0.37119796872138977, -0.6377015709877014, -0.03908205032348633, -0.11171026527881622, 0.009512832388281822, -0.7305293083190918, -0.0412907712161541, -0.133802592754364, 0.32237669825553894, 0.5165709853172302, 0.29157447814941406, -0.035891540348529816, 0.21266010403633118, -0.1361154466867447, 0.42953118681907654, 0.5402855277061462, 0.07501769065856934, -0.3161320090293884, 0.11779551953077316, 0.5286745429039001, -0.6952646374702454], [-0.3441488742828369, 0.21375054121017456, -0.28353020548820496, 0.6616244912147522, -0.3041324019432068, 0.22793783247470856, -0.20149393379688263, 0.40318238735198975, -0.1250367909669876, 0.5344534516334534, 0.3783879280090332, 0.2709120810031891, -1.05585777759552, 0.8248826861381531, 0.19672343134880066, 0.449882447719574, -0.536129355430603, -0.005733723286539316, 0.6247063279151917, -0.30004751682281494, 0.4204569160938263, -0.1670822948217392, -0.045460041612386703, -0.06565620750188828, 0.5017103552818298, -0.020186254754662514, -0.5977399349212646, 0.1675645262002945, 0.4359579384326935, 0.25521692633628845, 0.5098166465759277, 0.12083330750465393, 0.4636887013912201, -0.2930792570114136, -0.12902019917964935, -0.515720784664154, 0.19091548025608063, -0.3942832350730896, 0.1728355437517166, -0.7440452575683594, -0.08888503164052963, -0.5740876793861389, -0.6468510031700134, 0.05406684800982475, 0.9152963161468506, -0.7684112191200256, 0.40287986397743225, -0.18722377717494965], [-0.017799707129597664, 0.35088738799095154, -0.582429051399231, -0.17804335057735443, 0.870622992515564, 0.7874788641929626, -0.04249593988060951, 0.5093383193016052, 0.14224299788475037, 0.01188744604587555, 0.3212762176990509, 0.14006491005420685, -0.3345242738723755, -0.5963836312294006, 0.14053621888160706, -0.447435200214386, 0.24228353798389435, 0.46240925788879395, 0.3279741108417511, 0.007187758572399616, 0.5336170792579651, -0.12018364667892456, -0.3147645890712738, -0.038344793021678925, 0.5906372666358948, -0.26242518424987793, -0.0459124930202961, -0.14203649759292603, -0.032959941774606705, 0.06267059594392776, -0.12574133276939392, 0.03131871297955513, -0.6836020946502686, 0.4973900318145752, 1.1225017309188843, 0.3133387267589569, -0.4603043496608734, 0.6462914943695068, 0.4308216869831085, -0.5796524286270142, -0.6333625912666321, -0.23238860070705414, 0.011487905867397785, 0.12711921334266663, -0.15007688105106354, -0.4477432668209076, -0.29326769709587097, 0.39050549268722534], [0.2580169439315796, -0.28980377316474915, 0.014588547870516777, -0.712894856929779, -0.1981375813484192, -0.11634471267461777, -0.20384640991687775, -0.764302134513855, 0.7909650206565857, -0.3942086398601532, 0.4647548496723175, 0.004434026312083006, 0.24960532784461975, 0.8219849467277527, 0.1676248162984848, 0.16712768375873566, 0.1155935600399971, -0.1960982233285904, 0.2849511206150055, 0.35637366771698, 0.445064514875412, -0.06323246657848358, 0.6504367589950562, -0.019293775781989098, -0.8162574172019958, 0.023499302566051483, -0.834371030330658, 0.2725978195667267, 0.04515860229730606, 0.004436635412275791, -0.21202096343040466, -0.16964519023895264, -0.33598989248275757, -0.8152759075164795, -0.374205082654953, -0.2021380513906479, 0.043110452592372894, -0.33615338802337646, -0.23000827431678772, -0.061320092529058456, -0.16221150755882263, -0.3253714442253113, -0.48031407594680786, 0.46066293120384216, 0.2686147689819336, -0.03730302304029465, 1.1078286170959473, -0.17886529862880707], [-0.5497980117797852, 0.12414069473743439, -0.12413009256124496, 0.5654172301292419, 0.20764032006263733, -0.08960673958063126, 0.2570047378540039, -0.03956729918718338, 0.0457884818315506, 0.3598918616771698, -0.01669013313949108, -0.34604206681251526, 0.23572103679180145, -0.21300803124904633, -0.4977438747882843, 0.15769131481647491, 0.5231472849845886, 0.07086151838302612, 0.018591441214084625, 0.1857287883758545, 0.5550060272216797, 0.12190084159374237, 0.26339563727378845, 0.00881199724972248, 0.7360410690307617, -0.10108253359794617, 0.1520780473947525, -0.5891391634941101, -0.047629714012145996, 0.3941829204559326, -0.9081482887268066, -0.06866911798715591, 0.4633297920227051, 0.8350508213043213, 0.02528499998152256, -0.21551674604415894, 0.6200467944145203, 0.2585337460041046, 0.38194477558135986, -0.22652506828308105, -0.5688960552215576, -0.06075163558125496, -0.013802364468574524, -0.0581122487783432, 0.04111994802951813, -0.18909037113189697, 0.7438816428184509, 0.24509333074092865], [-0.22194725275039673, 0.3048667013645172, -0.19587619602680206, 0.35639533400535583, 1.2094403505325317, 0.4175944924354553, 0.1479465514421463, -0.21973195672035217, -0.47002139687538147, 0.14910714328289032, 0.7321159243583679, 0.17232733964920044, 0.17291860282421112, 0.5422455072402954, 0.6990292072296143, 0.4910074472427368, -0.0804934874176979, 0.25121012330055237, -0.0635313093662262, -0.29912489652633667, 1.2288131713867188, -0.058280471712350845, -0.7370197176933289, 0.0075849746353924274, 0.6941542625427246, -0.06962374597787857, -0.10023438185453415, 0.1087837666273117, -0.04074344411492348, -0.2698703706264496, 0.055502086877822876, -0.059176091104745865, -0.5143734812736511, 0.2957565188407898, -0.4566313624382019, 0.029612433165311813, -0.11457262933254242, -0.05820721387863159, -0.6278318762779236, 0.8039636015892029, -0.2645477056503296, 0.2909262776374817, 0.1914050430059433, -0.20279398560523987, 0.3391612470149994, 0.05403786525130272, 0.1763792186975479, -0.24051646888256073], [-0.03177960216999054, 0.4411625564098358, -0.3010115325450897, -0.20148339867591858, -0.16315044462680817, 0.17078189551830292, 0.14332781732082367, 0.14866219460964203, 0.047324493527412415, -0.42068836092948914, 0.029766637831926346, -0.2548309564590454, -0.18409867584705353, -0.08459408581256866, -0.19728493690490723, -0.9723814129829407, 0.261458158493042, -0.39316537976264954, -0.05495467782020569, -0.06561480462551117, -0.9076708555221558, -0.10250893235206604, 0.6752620935440063, 0.2658715546131134, 0.24752487242221832, 0.30415773391723633, 0.608250617980957, 0.03334876149892807, -0.9019421935081482, 0.492902010679245, 0.27611395716667175, 0.7816963791847229, 0.48098140954971313, -0.05112076178193092, 0.6607929468154907, 0.06723349541425705, 0.08712171018123627, 0.820229709148407, -0.05176427587866783, 0.08261027932167053, 0.274501770734787, 0.21779833734035492, 0.3592768907546997, -0.04441951587796211, -0.30397656559944153, -0.23802047967910767, 0.29231664538383484, -0.1873999685049057], [-0.45787569880485535, 0.4228200912475586, -0.793748140335083, -0.2325633317232132, -0.506212055683136, -0.4581224024295807, -0.21661876142024994, -0.039285123348236084, 0.26892679929733276, -0.11793893575668335, 0.6348291039466858, -0.104155533015728, 0.05629529431462288, -1.0043234825134277, 0.4459809958934784, 0.1034083217382431, -0.13839001953601837, 0.25993525981903076, 0.3285788893699646, 0.4630239009857178, 0.13153193891048431, 0.23387722671031952, -0.16134744882583618, -0.2234676033258438, 0.5826651453971863, -0.2609215974807739, 0.8275647163391113, 0.10815247893333435, -0.5416802167892456, -0.03658172860741615, 0.23473773896694183, -0.4466952383518219, -0.33477723598480225, -0.35302138328552246, -0.36147022247314453, -0.06049015745520592, 0.18931658565998077, -0.1953517496585846, 0.7032490372657776, -0.31648901104927063, -0.5179012417793274, -0.5030506253242493, 0.09386197477579117, -0.13804170489311218, -0.07250375300645828, -0.9351314902305603, -0.300952285528183, 0.2037113904953003], [-0.3617495894432068, -0.436043381690979, 0.4901435971260071, -0.33105188608169556, -0.4583076536655426, 0.40572088956832886, 0.0037008190993219614, 0.09063030034303665, 0.12780839204788208, -0.08962394297122955, -0.2901713252067566, -0.15405787527561188, 0.08979452401399612, 0.45931386947631836, 0.41016334295272827, -0.08420341461896896, 0.2678861916065216, -0.47452372312545776, -0.022004803642630577, -0.03418029844760895, 0.6284332275390625, -0.05568872019648552, 0.4996218979358673, -0.05547838658094406, 0.14574602246284485, 0.1273476481437683, -0.7250048518180847, 0.01820368878543377, -0.5224214196205139, -0.03422023355960846, 1.018241047859192, -0.12177112698554993, -0.4702976942062378, 0.5546727180480957, 0.6309546828269958, -0.06888079643249512, -0.09134553372859955, 0.4217756986618042, -0.4796197712421417, 0.23563995957374573, -0.25200000405311584, -0.9744367599487305, -0.09481600672006607, 0.0914502963423729, 0.2608167231082916, -0.26497989892959595, 0.4367862641811371, 0.1317860633134842], [-0.17907455563545227, 0.7215191125869751, -0.6843536496162415, 0.34404677152633667, -0.021631959825754166, -0.6421166658401489, 0.5865381956100464, -0.09244184195995331, -0.06118715927004814, -0.8931573629379272, -0.6351713538169861, -0.18890169262886047, 0.13612768054008484, 0.36863985657691956, 0.1212049052119255, 0.06046249344944954, 0.0908079594373703, -0.035789236426353455, -0.09364240616559982, -0.2021019011735916, 0.01752001792192459, 0.018946180120110512, 0.9447641968727112, -0.14446017146110535, -0.3299979269504547, 0.399539053440094, -0.1299109011888504, 0.07921390980482101, 0.34408968687057495, -0.29243186116218567, 0.09652137756347656, -0.2537977397441864, -0.12390969693660736, 0.13402865827083588, -0.3135388195514679, -0.04012105613946915, -0.41731777787208557, 0.2704188823699951, 0.8155979514122009, -0.1653701514005661, 0.08124551177024841, -0.2707953453063965, 0.3118423819541931, -0.8630530834197998, 0.3762451708316803, 0.44482743740081787, -0.1662292778491974, 0.16662843525409698], [0.305060476064682, -0.22429384291172028, 0.17999133467674255, 0.24590635299682617, -0.16367100179195404, -0.28295740485191345, 0.1877201795578003, 0.6731200814247131, -0.053987324237823486, -0.3993540108203888, -0.524405300617218, 1.005899429321289, -0.11031651496887207, 0.574735164642334, -0.3701220452785492, 0.21157357096672058, -0.4705406427383423, 0.08595655858516693, -0.3933536410331726, 0.3145342767238617, 0.0028392996173352003, 0.21325570344924927, -0.16117465496063232, -0.4069705009460449, 0.617106020450592, 0.19648392498493195, 0.3199787139892578, -0.14087754487991333, -0.04580354318022728, -0.12709148228168488, -0.2133329212665558, 0.10409479588270187, 0.6608808040618896, -0.5617284774780273, -0.3579709529876709, -0.010689133778214455, -0.2198488563299179, -0.11472325026988983, 0.4899706542491913, 0.010934668593108654, -0.2275829315185547, -0.4144291579723358, -0.01067298837006092, -0.6261807680130005, -0.4852820634841919, -0.04519648477435112, -0.34338411688804626, 0.6106427907943726], [-0.2673282325267792, -0.33896368741989136, 0.756100594997406, 0.30371421575546265, 0.045619335025548935, -0.11829391121864319, 0.9899328947067261, 0.21121974289417267, 0.11830677092075348, -0.5045859813690186, -0.5123410224914551, -0.05504428967833519, -0.19828277826309204, -0.8674604892730713, -1.0083773136138916, -0.3677022159099579, -0.3494855463504791, -0.8916838765144348, -0.6946105360984802, -0.41164734959602356, -0.693891704082489, -0.19944366812705994, 0.1847417801618576, -0.04988810792565346, -0.018712732940912247, 0.32427656650543213, -0.330636590719223, -0.4032452404499054, -0.07991417497396469, -0.8206180334091187, 0.24442650377750397, -0.1608629673719406, -0.6266031861305237, 0.3559730350971222, -0.3795761168003082, 0.1728627234697342, 0.31181687116622925, -0.10629354417324066, 0.27289941906929016, -0.22719651460647583, -0.09202628582715988, -0.03689248114824295, -0.7567784190177917, -0.19900941848754883, -0.1982639580965042, -0.3206624984741211, -0.1793735921382904, 0.10375533252954483], [0.06865929067134857, -0.33494827151298523, 1.017696499824524, 0.14225800335407257, -1.086256980895996, -0.03305479511618614, -0.44426336884498596, 0.14207464456558228, -0.6121972799301147, 0.4821373224258423, -0.7008936405181885, 0.013787557370960712, 0.015636788681149483, 0.742353081703186, 0.4575452506542206, -0.3159363567829132, 0.513651967048645, -0.32347261905670166, -0.3808606266975403, 0.22639203071594238, 0.2855123281478882, -0.39538732171058655, 0.12472256273031235, -0.11076220124959946, -0.2644922435283661, -0.20093613862991333, -1.0330265760421753, 0.14413538575172424, -0.42472004890441895, 0.03213430196046829, -0.06999032944440842, 0.2798532247543335, 0.6308913826942444, -0.07229088991880417, -0.13372501730918884, 0.47558096051216125, 0.11089301109313965, 0.5125866532325745, 0.30415546894073486, -0.029433777555823326, 0.4404643774032593, 0.0011397275375202298, 0.338679701089859, 0.2541329562664032, 0.3929743766784668, -0.0030911550857126713, 0.04113516956567764, 0.14234361052513123], [-0.5462084412574768, -0.11360638588666916, 0.20368102192878723, -0.051884256303310394, 0.3180519640445709, 0.3551235795021057, -0.6269292831420898, -0.1848689764738083, -0.13386566936969757, -0.16138115525245667, -0.3180771768093109, 0.007866758853197098, -0.4442872703075409, -0.5193144083023071, 0.2758324146270752, 0.7109348177909851, 0.3660622239112854, 0.08843769133090973, 0.29082971811294556, -0.07179304212331772, 0.7429153919219971, 0.14273770153522491, 0.05729355663061142, 0.1774563044309616, -0.29163798689842224, -0.4875888526439667, -0.02983163110911846, -0.11434871703386307, -0.35341575741767883, 0.19684819877147675, -0.6137619614601135, -0.5648981332778931, -0.28039243817329407, 0.7089755535125732, -0.45630595088005066, -0.12777604162693024, -0.32346704602241516, -0.22858478128910065, 0.38948288559913635, -0.22646048665046692, -0.13146786391735077, -0.4507269859313965, -0.3892647922039032, -0.112485371530056, 0.12435013055801392, -0.47949495911598206, -0.4418545365333557, -0.016140971332788467], [-0.5848585963249207, -0.24562129378318787, 0.4032175540924072, 0.7823242545127869, -0.3973698616027832, -0.07119103521108627, -0.4570677876472473, -0.5591540932655334, 0.08258356899023056, 0.09735335409641266, 0.15688849985599518, -0.26036331057548523, 0.5126032829284668, -0.3978445827960968, 0.05044311657547951, 0.46905750036239624, 0.4945680797100067, 0.21617715060710907, -0.11783217638731003, 0.49303844571113586, 0.9647799730300903, 0.27117201685905457, -0.283539354801178, -0.08734778314828873, 0.24375686049461365, 0.09889743477106094, -0.5575875043869019, 0.13527517020702362, 0.28916606307029724, 0.034451134502887726, -0.3074853718280792, -0.08146526664495468, -0.4112311899662018, -0.47447994351387024, -0.13755400478839874, -0.4431177079677582, -0.18562781810760498, -0.9271395206451416, -0.07017355412244797, -0.4046080708503723, -0.0388469472527504, 0.2914648652076721, -0.04117238521575928, 0.3180413842201233, 0.11891606450080872, -0.48575925827026367, -1.3315643072128296, -0.6940760016441345], [-0.6392567157745361, -0.4342484772205353, -0.06890051066875458, 0.015128535218536854, -0.2305384874343872, -0.24253752827644348, 0.09650613367557526, -0.044553253799676895, -0.49842673540115356, 0.7588043808937073, -0.2596477270126343, -0.19695517420768738, -0.2773202657699585, -0.07727253437042236, -0.6867411732673645, 0.27271559834480286, -0.04041165113449097, 0.5054698586463928, -1.0719865560531616, -0.014183235354721546, 0.5924066305160522, 0.47703883051872253, -0.4027104675769806, -0.15034016966819763, -0.494340181350708, -0.04558464139699936, 0.5475797653198242, -0.14534679055213928, 0.014046232216060162, 0.3357106149196625, 0.16111600399017334, -0.028558026999235153, 0.41659247875213623, 0.0029098298400640488, 0.1876317858695984, 0.15057498216629028, 0.12501974403858185, 0.026155607774853706, -0.8115401268005371, -0.3467830419540405, -0.6314986944198608, -0.46759065985679626, 0.43120652437210083, 0.9209089875221252, -0.24262382090091705, -1.1639056205749512, -0.06752302497625351, -0.8976517915725708], [0.05990935117006302, 0.10637123137712479, 0.2543572187423706, 0.6693131327629089, 0.14580170810222626, 0.05222948268055916, 0.6227992177009583, 0.07970568537712097, 0.1882876455783844, 0.7554212212562561, 0.18993155658245087, -0.33581772446632385, -0.5514793992042542, 0.2958795726299286, 0.47982358932495117, 0.5084810256958008, -0.2084537148475647, 0.5508238077163696, 0.903178870677948, -0.06325992941856384, -0.10511689633131027, -0.22505919635295868, 0.05915968120098114, 0.0992811769247055, 0.8414145112037659, 0.20937806367874146, -0.35947683453559875, -0.16366469860076904, -0.7393597960472107, -0.2782078683376312, 0.6583002209663391, -0.019380642101168633, -0.06006617844104767, -0.01930861547589302, 1.0263642072677612, 0.059609755873680115, -0.4506491422653198, -0.29697221517562866, -0.4467085897922516, 0.13087879121303558, -0.07133907079696655, -0.21448887884616852, -0.3331966996192932, -0.43095076084136963, -0.25894251465797424, -0.7956786751747131, -0.23071296513080597, 0.13035616278648376], [0.1681986153125763, -0.057959284633398056, 0.026934737339615822, -0.18361268937587738, -0.10903529077768326, -0.28352952003479004, 0.586734414100647, 0.49077820777893066, 0.3018331527709961, 0.038453325629234314, 0.11726178973913193, -0.8939618468284607, 0.6065697073936462, 0.8160529732704163, 0.33445224165916443, -0.6047393679618835, -0.020365478470921516, 0.4775550961494446, 0.005676622968167067, 0.3204077482223511, 0.0003267703577876091, -0.21844379603862762, -0.7114799618721008, 0.031410034745931625, -0.4576590657234192, -0.17177248001098633, 0.6390013694763184, -0.08711715042591095, -0.9042928814888, 0.020583201199769974, 0.7852421998977661, 0.06062592566013336, 0.03148886188864708, -0.21288560330867767, -0.000214427724131383, -0.6075628399848938, 0.35621267557144165, 0.0008692851988598704, 0.12853014469146729, -0.40134042501449585, 0.11786803603172302, 0.3734094500541687, 0.007108483463525772, 0.1806909590959549, -0.17366145551204681, 0.06815087795257568, -0.06669570505619049, 0.8968698382377625], [-0.5404395461082458, 0.4152589738368988, -0.4050808548927307, 0.23458243906497955, 0.2291986048221588, -0.6331602931022644, 0.08701524138450623, 0.7792054414749146, 0.21353685855865479, 0.8157966732978821, 0.1352219581604004, 0.03356105834245682, 0.17723093926906586, -0.5858705639839172, -0.5249872803688049, -0.039434272795915604, -0.4497166872024536, 0.06760060787200928, -0.45690348744392395, -0.37918126583099365, -0.2943810224533081, -0.46485596895217896, 0.559413492679596, -0.2441823035478592, 0.16503943502902985, -0.39984527230262756, -0.33466649055480957, -0.19427607953548431, 0.6886937618255615, -0.1555085927248001, -0.43606287240982056, -0.3591000437736511, 0.004019949585199356, -0.011282666586339474, -0.417512446641922, 0.3842296600341797, -0.40950146317481995, -0.47441062331199646, -0.3854532539844513, -0.25994303822517395, 0.12701910734176636, -0.0665103942155838, -0.10644587874412537, -0.06705460697412491, 0.11563786119222641, 0.9503105282783508, 0.8411147594451904, -0.18497507274150848], [0.10681470483541489, -0.12181658297777176, 0.3196486234664917, 0.0039460910484194756, -1.3925316333770752, 0.3197113275527954, -1.0296027660369873, 0.40207937359809875, 0.6483250260353088, -0.15118299424648285, -0.4278465807437897, -0.15836790204048157, 0.41854211688041687, 0.8023776412010193, 0.2541128695011139, 0.19854864478111267, 0.39859268069267273, 0.06856022030115128, -0.11569096148014069, 0.23864057660102844, -0.7338253855705261, -0.03662078082561493, 0.3338252007961273, -0.0847279503941536, -0.5261771082878113, 0.14930711686611176, -0.20066215097904205, 0.16022023558616638, -0.09267746657133102, 0.2458396553993225, 0.07716965675354004, 0.19932371377944946, 0.48010656237602234, 0.34109893441200256, -0.10174033790826797, 0.4042845666408539, 0.20559623837471008, -0.2847673296928406, -0.1538420170545578, 0.6042747497558594, 0.15847259759902954, 0.5396619439125061, 0.0729808583855629, 0.008418722078204155, 0.2719343602657318, -1.2834526300430298, -0.6575906276702881, 0.18283481895923615], [-0.468966007232666, 0.46197643876075745, -0.23977769911289215, -0.006783696822822094, -0.8011074662208557, -0.3182136118412018, -0.14460957050323486, 0.44046851992607117, -0.4170461893081665, -0.11584629863500595, 0.4126664996147156, 0.31381452083587646, -0.07589389383792877, 0.3438878655433655, 0.5517399907112122, -0.5994203090667725, 0.42327794432640076, 0.34811970591545105, 0.26016750931739807, 0.025048982352018356, -0.02080574631690979, 0.4115040600299835, -0.2624835669994354, -0.2608303427696228, -0.15833669900894165, 0.0227902103215456, 0.04627598077058792, 0.00952011439949274, 0.21271716058254242, 0.28428223729133606, -0.3125634491443634, -0.21299105882644653, -0.7604027390480042, -0.2755501866340637, -0.0443456694483757, 0.5760461091995239, -0.048169080168008804, -0.09265181422233582, -1.269017219543457, 0.0359613336622715, 0.0229504257440567, -0.3305685222148895, -0.37514954805374146, -0.15848197042942047, -0.013810285367071629, -0.5190746188163757, 0.32948195934295654, -0.850820004940033], [0.5259287357330322, -0.41496437788009644, -0.39753150939941406, -0.25336989760398865, 0.55238276720047, 0.20513683557510376, 0.017534328624606133, -0.03146116062998772, 0.35728490352630615, 0.1371547430753708, -0.3717690408229828, 0.430390864610672, -0.2269817739725113, -0.8230623602867126, -0.7086218595504761, -0.13691799342632294, -0.27495503425598145, 0.40548282861709595, -0.5214312672615051, 0.1889190673828125, 0.006786154583096504, -0.34895259141921997, -0.4300038516521454, 0.12128157168626785, -0.7402748465538025, -0.08958455175161362, 0.14423105120658875, 0.08015904575586319, -0.11573738604784012, 0.11874230206012726, -0.4334220588207245, 0.537548303604126, 0.0767081007361412, 0.2132321149110794, -0.6938467025756836, -0.059834107756614685, -0.3593427836894989, 0.2451644390821457, 0.24962736666202545, -0.2519422173500061, -0.17321082949638367, 0.2734068036079407, -0.2593039572238922, -0.11589314788579941, 0.3726775646209717, 0.6924936771392822, 0.16445139050483704, 0.6440186500549316], [0.6744884848594666, -0.290130615234375, 0.24367094039916992, -0.1296895444393158, 1.2755215167999268, 0.1784328818321228, -0.3898302912712097, -0.5876622796058655, 0.11663280427455902, 0.6814113855361938, -0.5034639835357666, 0.21624457836151123, 0.43752801418304443, -0.08952981233596802, 0.1280871480703354, -0.09616280347108841, -0.8753758668899536, 0.6919011473655701, -0.6313881874084473, -0.12066096812486649, -0.1515919715166092, 0.2187027633190155, -0.40441226959228516, 0.3218524754047394, 0.22924840450286865, 0.1317290961742401, 1.373213768005371, -0.10341233760118484, -0.5051687359809875, 0.28072407841682434, 0.7224859595298767, 0.2670650780200958, -0.20521800220012665, 0.07106727361679077, -0.1597357988357544, 0.2918083965778351, -0.09173248708248138, -0.13530956208705902, 0.07149244844913483, 0.17373734712600708, -0.08066846430301666, -0.4107370674610138, 0.16572153568267822, 0.29610109329223633, -0.3247314393520355, 0.21226494014263153, 0.009674048982560635, 0.09879552572965622], [-0.694949209690094, 0.515182614326477, -0.7025503516197205, -0.11416421085596085, -0.06386341154575348, -0.6822890043258667, 0.4296758770942688, -0.24003276228904724, -0.08402074873447418, -0.9692703485488892, 0.06807724386453629, -0.3559436500072479, -0.871586799621582, 0.07563246041536331, 0.21894614398479462, -0.11216159164905548, 0.28138092160224915, 0.3048059642314911, 1.1451627016067505, -0.3154204189777374, 0.18977604806423187, 0.030403580516576767, -0.3650895059108734, -0.26555097103118896, 0.061534881591796875, -0.17374375462532043, 0.5005268454551697, -0.07450670003890991, 0.6044785380363464, 0.12449337542057037, 0.16021430492401123, 0.01253891084343195, -0.36390233039855957, -0.31392303109169006, 0.07399419695138931, 0.18969544768333435, 0.1963484287261963, -0.15040969848632812, 0.5332159399986267, 0.014527004212141037, -0.32482534646987915, -0.7194421887397766, -0.15974226593971252, -0.25282126665115356, -0.12423331290483475, -0.3201802968978882, 0.08144395798444748, -0.3553151786327362], [-0.28505751490592957, 0.36966732144355774, 0.5368021130561829, -0.11188234388828278, 0.1702537089586258, 0.062221117317676544, -0.3213210701942444, 0.02579633705317974, 0.2655426561832428, 0.14227300882339478, 0.44202911853790283, -0.3129080533981323, -0.21545174717903137, -0.516891598701477, -0.4105413258075714, 0.024036068469285965, -0.0133653674274683, 0.058319754898548126, 0.5261293053627014, 0.15345267951488495, 0.3630276024341583, -0.033780649304389954, -0.16661331057548523, -0.9196617603302002, 0.7718985676765442, -0.553276777267456, -0.27467605471611023, -0.49644213914871216, 0.19781234860420227, 0.0528908334672451, -0.5012627840042114, -0.0695808008313179, -0.23874089121818542, 0.6830389499664307, -0.2819577753543854, 0.1628618687391281, 0.14319802820682526, 0.2783903479576111, 0.3362322151660919, -0.6328883171081543, 0.21758340299129486, -0.28501075506210327, 0.23214809596538544, 0.4452072083950043, -0.28361111879348755, 0.43650931119918823, 0.1230153739452362, 0.0905960276722908], [-0.7062463164329529, 0.5003932118415833, 0.3453251123428345, -0.1797073632478714, -0.4976668655872345, 0.8163025379180908, -0.39585039019584656, 0.07516761869192123, -0.17031513154506683, -0.24177977442741394, -0.427654504776001, 0.8344981670379639, -0.047931522130966187, 0.7038185596466064, 0.013772230595350266, -0.1398552656173706, 0.40301626920700073, -0.2876977026462555, 0.37417951226234436, 0.0021844073198735714, 0.5477374196052551, 0.49454906582832336, 0.575113832950592, 0.15223078429698944, 0.25027602910995483, 0.5886088609695435, 0.20400631427764893, -0.08871249109506607, 0.06026545912027359, 0.784076452255249, 0.2267570197582245, 0.19922149181365967, -0.3994162380695343, 0.3049948513507843, -0.5259121060371399, -0.4157438576221466, -0.19910557568073273, -0.04944894462823868, 0.07262486219406128, 0.18230046331882477, -0.08042094111442566, -0.12385585904121399, 0.05919189751148224, 0.025368839502334595, -0.5700775384902954, -0.1537448912858963, -0.16977360844612122, -0.04082790017127991], [0.7110713124275208, 0.038452595472335815, 0.4994719922542572, 0.018803678452968597, 0.8208011984825134, 0.1430753916501999, -0.057105496525764465, -0.23290488123893738, 0.0029271773528307676, -0.07649108022451401, -0.12865996360778809, -0.24046510457992554, 0.40374624729156494, 0.3105314075946808, 0.1990768164396286, 0.6297962665557861, -0.03852790966629982, 0.24242986738681793, 0.1608256697654724, 0.27354297041893005, -0.2966137230396271, -0.5855968594551086, 0.4753396511077881, 0.3807201683521271, -0.2185191512107849, -0.20992527902126312, -0.13067810237407684, -0.20538409054279327, -0.7587125301361084, -0.3507949709892273, 0.4476626217365265, 0.21140387654304504, 0.5770614147186279, 0.014609758742153645, 0.3627116084098816, 0.2513626217842102, 0.1521047204732895, 0.6079131364822388, 0.14046429097652435, -0.3528842628002167, -0.028787123039364815, 0.13464899361133575, 0.5348471403121948, 0.6389021873474121, 0.05167215317487717, 0.2576163113117218, 0.5521367192268372, 0.560888946056366], [0.6584778428077698, 0.20916160941123962, 0.15170124173164368, -0.0029877405613660812, 0.2092217653989792, 0.2882929742336273, -0.25574254989624023, -0.2745722234249115, -0.26953405141830444, 0.09240829199552536, 0.0895574614405632, 0.06792129576206207, -0.026238929480314255, 0.20297805964946747, 1.0619269609451294, 0.24173955619335175, 0.28060346841812134, 0.5892292857170105, -0.5692594647407532, -0.8396438956260681, 0.42701321840286255, -0.07764134556055069, -0.20161810517311096, -0.0050407531671226025, 0.6710856556892395, -0.29950642585754395, 0.6045852899551392, -0.18955177068710327, -0.6073183417320251, -0.02478032000362873, -0.0883140042424202, -0.16203539073467255, -0.3099040687084198, 0.006745673716068268, 0.1799994856119156, 0.060733895748853683, 0.5726175904273987, 0.37325966358184814, -0.5508638620376587, 0.3588612973690033, 0.7500457763671875, -0.04847000539302826, 0.14944475889205933, -0.06786438077688217, -0.3975183367729187, -0.6021288633346558, -0.3522614538669586, -0.07888216525316238], [-0.013961623422801495, -0.2150978446006775, 0.688179612159729, -0.6211290955543518, 0.2625042796134949, 0.5110961198806763, 0.050319068133831024, -0.16580387949943542, 0.609224259853363, 0.03528924286365509, 0.4991670548915863, -0.02250547707080841, -0.2524696886539459, 0.0011612504022195935, -0.5535290837287903, 0.5153436064720154, 0.09894507378339767, -0.1333009898662567, -0.5396919250488281, -0.33796676993370056, 0.9126096367835999, -0.12877260148525238, -0.24084021151065826, -0.30291566252708435, -0.7914068698883057, 0.10230308771133423, -0.39641284942626953, 0.1425056755542755, 0.5775999426841736, 0.49583375453948975, 0.0820770412683487, 0.4992581903934479, -0.4276615083217621, 0.15611009299755096, -0.5218340754508972, 0.046577297151088715, -0.34463128447532654, 0.4458960294723511, -0.008511854335665703, -0.14084947109222412, -0.08949591964483261, -0.3060204088687897, 0.48351147770881653, -0.41751933097839355, 0.582977294921875, 0.627357542514801, 0.07036200165748596, 0.7876288294792175], [0.05155360698699951, 0.38409706950187683, -0.3462187945842743, -0.29477405548095703, -0.1135605201125145, 0.16727757453918457, -0.6785114407539368, -0.05831387639045715, 0.9456653594970703, 0.013355410657823086, 0.42432257533073425, -0.5156598091125488, -0.1734113097190857, 0.18459679186344147, -1.4854421615600586, 0.4881476163864136, 0.09421695023775101, -0.2823047339916229, 0.26210343837738037, 0.133575901389122, -0.31084078550338745, -0.0265986155718565, -0.35643690824508667, 0.30872324109077454, 0.3388728201389313, -0.2829086482524872, -0.5101220607757568, -0.3607078790664673, 0.1550005078315735, 0.0497903935611248, 0.3271324336528778, 0.441867858171463, 0.41621777415275574, -0.0786316990852356, -0.5860671401023865, -0.12183545529842377, -0.7336688041687012, -0.05996051803231239, -0.24003134667873383, 0.3442089259624481, -0.06623503565788269, -0.07415585219860077, -0.5256322622299194, -0.2818373739719391, -0.19362832605838776, 0.745884358882904, -0.14429119229316711, -0.17970973253250122], [0.20201782882213593, 0.046819057315588, -0.20242197811603546, 0.22928112745285034, 0.12999506294727325, 0.9457507133483887, -0.3071224093437195, 0.18799489736557007, 0.7375702261924744, 0.39996400475502014, -0.45358142256736755, 0.607390820980072, 0.18161827325820923, 0.4848141372203827, 0.7146071791648865, 0.7159752249717712, -0.6007994413375854, 0.05446057766675949, 0.32294008135795593, -0.6092590093612671, 0.23987314105033875, -0.04184378311038017, 0.16952574253082275, 0.26439419388771057, 0.0012732148170471191, 0.4248827397823334, 0.5159773826599121, -0.2807390093803406, 0.2724502980709076, 0.4911181628704071, 0.22169964015483856, -0.17875662446022034, 0.35314276814460754, 0.17020687460899353, 0.03344958275556564, 0.07737553119659424, -0.4496663808822632, -0.6953031420707703, 0.21761329472064972, 0.09279943257570267, -0.42356690764427185, 0.1324092298746109, -0.47822660207748413, -0.48238739371299744, 0.36467668414115906, -0.23016686737537384, 0.29816094040870667, -0.24406872689723969], [0.515659749507904, -0.5717915892601013, 0.5538647174835205, -0.2605278193950653, 0.21460554003715515, 0.5831174850463867, -0.09296386688947678, -0.44521209597587585, 0.27824273705482483, 0.4524366557598114, -0.06464662402868271, 0.09529224783182144, 0.7875088453292847, -0.009828327223658562, -0.13824687898159027, 0.4125703275203705, 0.576266348361969, 0.5649438500404358, -0.7435309290885925, -0.27771279215812683, -0.8691120147705078, 0.3166719079017639, 0.5197251439094543, -0.08669397979974747, -1.0289009809494019, 0.1668144315481186, 0.126738503575325, 0.16977094113826752, 0.8942130208015442, 0.04662977159023285, 0.05922543257474899, -0.5943052172660828, -0.25079962611198425, 0.021968219429254532, 0.5090876817703247, 0.3837510347366333, 0.30914631485939026, -0.2521255910396576, -0.3418033719062805, 0.17408952116966248, -0.2516772449016571, 0.10836025327444077, -0.16084833443164825, 0.4568825960159302, -0.2142111212015152, 0.16758812963962555, 0.47137027978897095, 0.10442308336496353], [-0.40691661834716797, 0.06384849548339844, -0.12206711620092392, 0.10855194181203842, 0.5521395802497864, -0.0328257791697979, 0.7254734039306641, -0.10500246286392212, -0.0209560077637434, 0.10027555376291275, -0.18611225485801697, -0.16998639702796936, -0.050375934690237045, -0.46666043996810913, 0.22294960916042328, 0.5004040002822876, 0.14428949356079102, 0.22825776040554047, 0.6933925747871399, 0.12462187558412552, -0.7351818680763245, 0.518272340297699, 1.4061198234558105, -0.014591109938919544, -0.38102227449417114, 0.04837145283818245, -0.8874797224998474, 0.13389980792999268, 0.6256313920021057, -0.08138931542634964, -0.1995987743139267, -0.0453382171690464, 0.5332162976264954, -0.36435624957084656, -0.5096800327301025, 0.028370263054966927, -0.05257180333137512, 0.1264856457710266, 0.14002801477909088, 0.09206558018922806, -0.22929702699184418, -0.6309947371482849, -0.30052876472473145, -0.38304999470710754, 0.6072441339492798, 0.15345941483974457, 0.2884826362133026, 0.058624789118766785], [0.16818445920944214, 0.46555325388908386, -0.28986531496047974, 0.21307247877120972, -0.09350910782814026, 0.4205436408519745, 0.672652006149292, 0.5048906803131104, 0.21072374284267426, 0.5846368074417114, 0.6717959046363831, 0.5201805233955383, 0.45674076676368713, -0.08100401610136032, 0.5288022756576538, -0.2522597014904022, 0.13409952819347382, -0.3943140208721161, -0.008903763256967068, 0.012296709232032299, -0.9780617952346802, -0.16096214950084686, 0.37328076362609863, -0.1477973759174347, 0.7175306081771851, -0.39501678943634033, 0.12026757001876831, 0.3883194625377655, 0.1591406911611557, 0.4789432883262634, 0.456806480884552, 0.23496440052986145, 0.15898635983467102, 0.12358809262514114, 0.12226123362779617, 0.14295633137226105, -0.3360424339771271, 0.4572596549987793, -0.15068303048610687, -0.1000525951385498, -0.2880041301250458, 0.15060746669769287, 0.20649254322052002, -0.8615499138832092, -0.47626689076423645, 0.3673250675201416, 0.783812403678894, 0.5267657041549683], [0.10991828888654709, -0.3914003372192383, -0.8985965251922607, -0.2050771415233612, -0.011370341293513775, 0.25170907378196716, -0.08013702183961868, -0.24669919908046722, 0.9834249019622803, -0.49444445967674255, 0.8420761823654175, 0.1427941471338272, 0.3053451180458069, 0.09271310269832611, -0.3750568926334381, 0.05944512411952019, 0.04302890598773956, 0.051958292722702026, 0.28739869594573975, -0.18088653683662415, 0.6011664867401123, 0.2872200012207031, 0.41085678339004517, -0.014762275852262974, 0.4688074290752411, -0.36475691199302673, 0.01228539552539587, -0.2222529649734497, 0.8019987344741821, 0.4528631865978241, -0.13608428835868835, -0.5887666940689087, 0.30729904770851135, 0.20626091957092285, 0.21918445825576782, 0.5134465098381042, 0.30113717913627625, -0.4985486567020416, -0.07428377121686935, -0.022395431995391846, 0.2501724362373352, 0.5046606659889221, 0.046237118542194366, -0.22955209016799927, -0.002137640956789255, -0.5741987824440002, -0.23320411145687103, -0.3375215530395508], [-0.2051694095134735, 0.5777175426483154, 0.14489877223968506, -0.6875649690628052, 0.31418347358703613, -1.194640040397644, -0.05366494134068489, -0.8242500424385071, 0.19941666722297668, -0.20303820073604584, -0.3927689492702484, -0.18804918229579926, 0.13085182011127472, 0.4552340805530548, 0.17949166893959045, -0.7247909903526306, 0.277841717004776, 0.13950705528259277, -0.25393831729888916, 0.25805285573005676, 0.06142197921872139, 0.33413270115852356, -0.33834654092788696, 0.1559251993894577, -0.127337247133255, 0.020237497985363007, -0.2726859152317047, 0.04946816712617874, -0.3261030912399292, -0.3651406764984131, 0.30973514914512634, 0.24119561910629272, -0.12246349453926086, 0.26448872685432434, -0.3764244019985199, 0.08421237021684647, -0.09214925765991211, -0.564630925655365, -0.15876366198062897, 0.2077576369047165, 0.8030548691749573, -0.30796530842781067, 0.5191503763198853, 0.26879259943962097, -0.12132962793111801, 1.4042187929153442, 0.3500913977622986, 0.08330634236335754], [0.38688144087791443, -0.20778267085552216, 0.17382320761680603, 0.06680572032928467, 0.42916029691696167, 0.8131167888641357, 0.4185323119163513, -0.1510869562625885, 0.041836727410554886, 0.11766861379146576, 0.20103603601455688, 0.2806825637817383, 0.8201766014099121, 0.009557186625897884, 0.4630993902683258, -0.23337271809577942, 0.00546257384121418, -0.0596156120300293, 0.3459048271179199, 0.06201382353901863, 0.4598326086997986, 0.11265451461076736, 0.7969729900360107, 0.08450712263584137, -0.3920360505580902, 0.07347241789102554, -0.5984721779823303, -0.2028103917837143, -0.12217013537883759, 0.06805939227342606, 0.6881678104400635, -0.5481127500534058, 0.1681811660528183, 0.548489511013031, 0.8813082575798035, 0.48162519931793213, -0.19397373497486115, 0.19451792538166046, -0.11220341175794601, 0.1581895500421524, 0.6892315745353699, 0.11077311635017395, 0.4416376054286957, 0.21915455162525177, 0.3476380407810211, -0.3907124400138855, 0.1742861568927765, -0.41292881965637207], [0.013952821493148804, 0.016839904710650444, 0.3393877148628235, -0.4429222643375397, 0.4086726903915405, 0.26243144273757935, 0.3564125895500183, -0.14244814217090607, 0.4842110872268677, 0.701580286026001, -0.30982455611228943, 0.22153040766716003, -0.07759562879800797, -0.5863705277442932, 0.16864365339279175, -0.12681826949119568, 0.0759698897600174, 0.31980055570602417, -0.05230225250124931, 0.24215427041053772, 0.1619761437177658, 0.26903417706489563, 0.25341200828552246, -0.37751463055610657, -0.9007357954978943, -0.3139829933643341, -0.27546364068984985, -0.485051691532135, 0.392679363489151, -0.09135150909423828, 0.16266292333602905, -0.5248267650604248, -0.07950455695390701, -0.24235007166862488, 0.3775005042552948, -0.2558564841747284, -0.47919315099716187, -0.5676602125167847, -0.19279225170612335, -0.488606333732605, -0.6031028032302856, -0.008710470050573349, -0.6931480169296265, 0.07426662743091583, 0.13823875784873962, -0.09970145672559738, 0.7286213040351868, 1.2120434045791626], [0.06861891597509384, 0.08684738725423813, -0.05884940177202225, -0.24107450246810913, 1.521725058555603, 0.7656324505805969, -0.0195459071546793, 0.08116473257541656, -0.33304834365844727, -0.2862492501735687, -0.1464250385761261, -1.115950345993042, -0.28746137022972107, -0.05710415169596672, -0.5070881247520447, -0.3821071684360504, -0.3200709819793701, -0.1089855208992958, 0.07671478390693665, 0.025911642238497734, 0.5577439665794373, 0.03182866796851158, 0.3305113911628723, 0.19517278671264648, -0.43101879954338074, 0.37399277091026306, 0.39742082357406616, -0.0910063162446022, -0.33831587433815, 0.25193700194358826, -0.031634435057640076, -0.8143824338912964, -0.36585310101509094, -0.10161837190389633, 0.22069017589092255, 0.5820467472076416, -0.196445032954216, 0.5312621593475342, 0.09108586609363556, -0.19707153737545013, 0.03452316299080849, 0.6351572275161743, 0.3556016683578491, 0.24054965376853943, -0.46476054191589355, 0.6756570935249329, -0.323715478181839, -0.05251336470246315], [-0.045441363006830215, 0.32247424125671387, 0.4070950448513031, 0.08970331400632858, 0.1167767122387886, 0.29547548294067383, -0.1940097212791443, 0.04698812961578369, -0.2807880938053131, -0.5961337685585022, 0.4837096929550171, -0.3711196184158325, 0.22912095487117767, -0.29361245036125183, 0.004067030269652605, 0.5007425546646118, 0.39363420009613037, -0.50363689661026, 0.6008673906326294, -0.05692460015416145, 0.7185210585594177, -0.12262678891420364, -0.418481707572937, -0.4317530393600464, -0.38076692819595337, -0.1492968648672104, -0.1657632440328598, 0.43055906891822815, -0.38766205310821533, -0.17457115650177002, 0.2200709581375122, -0.13988715410232544, -0.1816702038049698, 0.028161436319351196, -0.8231472969055176, 0.08161525428295135, 0.531960129737854, -0.05913069471716881, 0.4401935338973999, -0.2629252076148987, -0.6465762853622437, -0.37357446551322937, 0.04184093326330185, 0.3190375566482544, 0.12963861227035522, -0.17468495666980743, -0.17177607119083405, -0.1405840516090393], [-0.6146650910377502, 0.18767079710960388, 0.3607698380947113, 0.5233163833618164, 0.7414010167121887, 0.8766157627105713, -0.1699438840150833, -0.057456716895103455, -0.02215021289885044, -0.24111798405647278, 0.11644154042005539, 0.2505453824996948, 0.47980210185050964, -0.30451464653015137, -0.1379852592945099, -0.2604004144668579, -0.6524713635444641, -0.3020228147506714, -0.8258492350578308, -0.055630166083574295, 0.9936167597770691, 0.20533598959445953, 0.4971877336502075, 0.07991694658994675, -0.16542495787143707, 0.21853245794773102, -0.352720707654953, -0.23841172456741333, 0.9172136783599854, -0.3584563732147217, -0.351544588804245, 0.18817396461963654, 0.6874388456344604, -0.013044686056673527, -0.1135684996843338, 0.23108544945716858, 0.33457696437835693, -0.7192969918251038, -0.08440124988555908, -0.2623119354248047, -0.5663405656814575, -0.3755713999271393, -0.5393418669700623, -0.11596781015396118, 0.4851330816745758, 0.12725481390953064, -0.4294755160808563, -0.192238911986351], [0.43702593445777893, -0.29618746042251587, 0.23713548481464386, -0.8225982189178467, -0.2019079327583313, -0.4979240298271179, 0.45088985562324524, 0.13086242973804474, 0.22482196986675262, 0.34278056025505066, 0.25544440746307373, 0.013123592361807823, -0.5931169986724854, 0.6730443835258484, 0.018307555466890335, 0.21830709278583527, 0.3774908185005188, 0.08350197225809097, -0.43013235926628113, -0.729042649269104, 0.39516809582710266, 0.22879856824874878, -0.3268333971500397, 0.2416469007730484, -1.011678695678711, -0.19128014147281647, 0.16797542572021484, 0.24465125799179077, 0.08122284710407257, 0.08902350068092346, -0.017275787889957428, 0.19183123111724854, 0.03707088530063629, -0.5881633758544922, 0.3355301022529602, 0.010122972540557384, -0.35385552048683167, 0.006852109916508198, 0.5588769316673279, -0.017120203003287315, 0.19620372354984283, 0.6619012951850891, -0.04907222464680672, 0.06021182984113693, -0.3662647306919098, 0.49557897448539734, -0.4636123478412628, 0.10008760541677475], [-0.7491996884346008, 0.03027510643005371, 0.06295899301767349, -0.525574803352356, 0.20490679144859314, 0.1766779124736786, 0.08987808227539062, 0.4161704182624817, -0.02736356481909752, -0.2439333200454712, 0.9570479989051819, -0.48386284708976746, -0.4848467707633972, 0.06768102198839188, 0.15225251019001007, -0.14943106472492218, -0.03191042318940163, -0.06568041443824768, -0.4557722210884094, -0.11677830666303635, 0.04249265417456627, 0.22247138619422913, -0.19231197237968445, -0.1710221916437149, -0.12443941086530685, -0.1726134866476059, 0.39553579688072205, 0.027484413236379623, 0.5595297813415527, 0.29915204644203186, 0.6831800937652588, 0.04283665120601654, 0.09858229011297226, -0.74798184633255, -0.7866891026496887, 0.31859928369522095, -0.10805515944957733, -0.2473028153181076, 0.07990686595439911, 0.19338065385818481, -0.5216807723045349, -0.20314621925354004, -0.18009328842163086, -0.06964010745286942, 0.29494014382362366, 0.11008952558040619, 0.14002026617527008, -0.06696871668100357], [-0.19801156222820282, -0.005575612653046846, 0.6154482960700989, -0.23974847793579102, -0.5638234615325928, -0.24869383871555328, 0.012610001489520073, -1.4027647972106934, 0.44751742482185364, -0.08192112296819687, 0.9287959933280945, -0.660877525806427, 0.047174617648124695, 0.1874236762523651, -0.009015878662467003, -0.6809151768684387, -0.015472636558115482, 0.09934412688016891, 0.07082227617502213, 0.10583540797233582, -0.49259719252586365, 0.5545665621757507, -0.4191987216472626, 0.05706300958991051, 0.647214949131012, 0.13171255588531494, 0.4651082158088684, 0.25034958124160767, -0.11435673385858536, 0.21889996528625488, -0.3205986022949219, -0.2081506848335266, -0.01193615235388279, -0.05535219982266426, 0.36913782358169556, -0.03553208336234093, -0.24439874291419983, -0.4659454822540283, 0.09836803376674652, -0.03544655814766884, 0.4730469584465027, 0.06769581139087677, -0.2283587008714676, 0.19507728517055511, -0.10136127471923828, 0.33186477422714233, 0.7240289449691772, -0.3100326359272003], [0.0592021569609642, 0.16739428043365479, -0.27017855644226074, 0.6059040427207947, -0.3650493025779724, 0.6878786087036133, 0.35041847825050354, -0.10372404009103775, -0.1197536513209343, 0.3046366572380066, -0.9891882538795471, -0.08185897767543793, -0.46074631810188293, 0.2664494514465332, -0.7776864171028137, -0.33772099018096924, -0.09930500388145447, -0.015404852107167244, -0.65269935131073, 0.024647116661071777, 0.012219910509884357, -0.2803640067577362, -0.11504139751195908, 0.4561533033847809, -0.12986966967582703, 0.5023190379142761, 0.35391923785209656, 0.4212477505207062, 0.45922577381134033, -0.003660656977444887, -0.3237970173358917, -0.3250057101249695, 0.33801376819610596, 0.2684517502784729, 0.32738909125328064, 0.13666154444217682, -0.19222304224967957, 0.2008333057165146, 0.26224440336227417, 0.2893894910812378, -0.0914800614118576, -0.6520209908485413, 0.327235609292984, -0.1844562441110611, 0.6503046154975891, -0.732622504234314, -0.5573810935020447, 0.2552492916584015], [0.5194887518882751, -0.0137841971591115, -0.11858285218477249, 0.39869385957717896, 0.3930816948413849, -0.18508632481098175, -0.5890274047851562, -0.6704238653182983, -0.3571522533893585, 0.5035189390182495, 0.10632381588220596, 0.32692599296569824, -0.05453323572874069, -0.5620192885398865, 0.6580814719200134, 0.575352668762207, 0.5008155107498169, 0.06199677288532257, 0.6165797114372253, -0.6069222092628479, -0.4700581729412079, -0.6032100915908813, 0.49467387795448303, -0.044374991208314896, -0.11839774996042252, 0.06073945388197899, 0.9108594655990601, 0.6146782636642456, -0.10500800609588623, -0.1391322761774063, -0.06513625383377075, -0.014430875889956951, 0.2956759035587311, -0.3820296823978424, -0.3107985854148865, 0.31187599897384644, 0.11133484542369843, -0.3603937029838562, 0.5575527548789978, -0.18338406085968018, -0.06297704577445984, 0.24938175082206726, 0.34985658526420593, -0.16187940537929535, 0.5404461026191711, -0.023814013227820396, 0.45910170674324036, 0.18070471286773682], [-0.5342147350311279, -0.6435844302177429, -0.20807857811450958, 0.055526841431856155, 0.7364399433135986, 0.7849957346916199, 0.10187757015228271, -0.047071900218725204, 0.008427884429693222, 0.015526705421507359, 1.1499699354171753, 0.08137710392475128, -0.6274899840354919, 0.2400575429201126, -0.04179176315665245, -0.17432405054569244, -0.3654976189136505, -0.3914197087287903, 0.7817286849021912, -0.15708522498607635, -0.9798117280006409, -0.05478866398334503, -0.14058572053909302, 0.41047441959381104, 0.21927708387374878, 0.1512707769870758, 0.12603287398815155, 0.056412652134895325, -0.19190560281276703, 0.3004966676235199, -0.571890115737915, 0.014681472443044186, 0.601744532585144, 0.014512695372104645, -0.13707348704338074, -0.30381128191947937, 0.16397807002067566, 0.11053422093391418, -0.24637672305107117, 0.25500497221946716, -0.019505087286233902, -0.3009999692440033, 0.2024582028388977, -0.32202914357185364, -0.2753885090351105, -0.22422994673252106, -0.1416003555059433, 0.5842294692993164], [-0.061551619321107864, 0.16460387408733368, 0.25644856691360474, -0.6678028702735901, 0.2668483257293701, 1.129198431968689, -0.024755282327532768, -0.17491869628429413, -0.30056360363960266, 0.06910523027181625, 0.38104403018951416, -0.42519521713256836, -0.18433547019958496, 0.14405938982963562, 0.6451007723808289, -0.33459946513175964, -0.10243985056877136, 0.265322744846344, 0.5032530426979065, -0.3218929171562195, 0.20043931901454926, 0.37922531366348267, -0.4746676981449127, -0.523274302482605, 0.9852519035339355, -0.017805324867367744, 0.08221268653869629, -0.2710351049900055, -0.17398273944854736, 0.38412708044052124, 0.181763157248497, -0.7422102689743042, 0.08057479560375214, -0.6239937543869019, 0.29955849051475525, 0.6454342007637024, -0.5733597874641418, -0.16401244699954987, -0.21659724414348602, -0.17434054613113403, -0.33774811029434204, -0.148833230137825, 0.417868047952652, -0.17682157456874847, -0.07281745970249176, -0.16255289316177368, 0.17376725375652313, -0.2427462935447693], [-0.6675329804420471, 0.793491542339325, 0.4263722598552704, 0.2801717221736908, -0.2927788496017456, 0.079978346824646, -0.15851323306560516, -0.42956027388572693, -0.053317755460739136, -0.13075658679008484, -0.10841510444879532, 0.18655534088611603, -0.5799431204795837, -0.20049485564231873, -0.36515292525291443, 0.13578669726848602, 0.18135562539100647, 0.33202165365219116, -0.6531391739845276, 0.08265265822410583, -0.03280134126543999, 0.18897363543510437, 0.45848414301872253, 0.16661371290683746, 0.4244495630264282, 0.11365164071321487, -0.0006754953064955771, 0.4696871042251587, -0.6845378279685974, -0.00965332705527544, -0.5969368815422058, 0.11227705329656601, -0.23226505517959595, -0.030700558796525, 0.41457509994506836, 0.06198831647634506, 0.014334497973322868, -0.9998997449874878, -0.3097267150878906, -0.6243539452552795, -0.38513046503067017, 0.05253338813781738, 0.47680461406707764, 0.30400800704956055, 0.7760472297668457, -0.7486657500267029, -0.29339176416397095, -0.8699455261230469], [0.2617488205432892, -1.2125780582427979, 0.19479502737522125, -0.5853360295295715, 0.21477770805358887, 0.3417867422103882, 0.3554169833660126, -0.4347897171974182, 0.25998786091804504, 0.3801603317260742, -0.2700461149215698, -0.22585438191890717, 0.37461012601852417, -0.679392397403717, -0.9722074270248413, -0.04605019837617874, 0.10564286261796951, 0.3881126046180725, 0.10853512585163116, 0.5317859649658203, 0.3915742337703705, -0.23333227634429932, -0.828891396522522, 0.2868112623691559, -0.024054227396845818, 0.37033697962760925, -0.4030801057815552, 0.10596489161252975, 0.10359947383403778, 0.47290197014808655, -0.016339166089892387, -0.01803692616522312, -0.21253514289855957, -0.07864996045827866, -0.17861256003379822, 0.22515858709812164, 0.446056604385376, -0.03887895122170448, -0.04740968719124794, -0.4714728593826294, 0.35089215636253357, 0.5278376936912537, -0.1272176206111908, 0.28682541847229004, -0.06138450279831886, -0.2686305344104767, 1.0199121236801147, -0.019897928461432457], [-0.7336182594299316, -0.08967818319797516, 0.8270277380943298, -0.1413026750087738, 0.3587157130241394, 0.4251949191093445, -0.154471293091774, -0.06449879705905914, -0.1054239496588707, -0.465373694896698, 0.08711719512939453, -0.5742122530937195, -0.34464511275291443, -0.42199522256851196, 0.9721308946609497, 0.1291821002960205, -0.05482597276568413, -0.3122846484184265, -0.1925802379846573, -0.8382304906845093, -0.10021104663610458, 0.14864705502986908, 0.053223203867673874, -0.12165698409080505, 0.6942535638809204, -0.033011652529239655, 0.21613065898418427, -0.11440974473953247, -0.16423101723194122, -0.6575876474380493, 0.021674098446965218, -0.2768263518810272, 0.21839043498039246, 0.09011705219745636, -0.14549823105335236, 0.09401173889636993, 0.1485780030488968, 0.17195291817188263, 0.0785478875041008, -0.5168198943138123, 0.3811052441596985, 0.19627681374549866, 0.608042299747467, 0.3135404884815216, -0.05219636112451553, -0.6227031350135803, 0.7766889929771423, -1.135010838508606], [0.11050768941640854, -0.23562513291835785, -0.5174587965011597, -0.22905637323856354, -0.1292322427034378, 0.014826888218522072, -0.16260556876659393, 0.27087950706481934, -0.3208978474140167, -0.3250117897987366, 0.509280264377594, -0.3526499271392822, -0.32364368438720703, 0.039105385541915894, 0.18898418545722961, -1.022411823272705, 0.04569229111075401, 0.3805907368659973, -1.234105110168457, 0.23080229759216309, 0.6419070959091187, 0.2408628910779953, 0.04471933841705322, 0.051727671176195145, -0.39242371916770935, -0.1753489077091217, -0.7312670350074768, -0.29585686326026917, -0.0032689333893358707, 0.15762589871883392, -0.2969001233577728, -0.5751356482505798, 0.21006853878498077, -0.3532341718673706, 0.45544299483299255, -0.45592644810676575, 0.5039464235305786, -0.2611690163612366, 0.1422702670097351, -0.14914895594120026, 0.5555735230445862, 0.3909238874912262, -0.41324397921562195, -0.24258112907409668, 0.3165627717971802, -1.6537927389144897, 0.1484590619802475, 0.2329532951116562], [-0.21360152959823608, 0.23003973066806793, 0.4264988601207733, 0.05279245600104332, -0.28582942485809326, -0.6955823302268982, 0.5015661716461182, -0.5024493932723999, -0.029086818918585777, -0.14225150644779205, 0.8496655225753784, -0.8483675122261047, 0.4304299056529999, 0.18458732962608337, -0.47929927706718445, -0.3346858024597168, -0.05821911245584488, 0.4829622507095337, -0.11382678896188736, 0.5325025320053101, 0.39630839228630066, -0.12996232509613037, -0.2660418450832367, 0.3106512725353241, 1.2371143102645874, 0.23974226415157318, -0.6075971126556396, 0.23605960607528687, 0.03671256825327873, -0.2353104054927826, -0.0706222876906395, 0.29172664880752563, 0.3205563724040985, -0.07178854942321777, 0.05860484763979912, 0.5945631861686707, -0.5621992945671082, -0.07702485471963882, 0.1807243376970291, 0.33387869596481323, 0.2037980854511261, 0.19544847309589386, 0.21083283424377441, 0.017122456803917885, -0.40139466524124146, 0.6476230025291443, -0.44335395097732544, 0.4814196228981018], [-0.003112683305516839, 0.07728806138038635, -0.4986685514450073, -0.11318017542362213, 0.14648814499378204, 0.040127553045749664, -0.3189002275466919, -1.2072858810424805, -0.10521545261144638, 0.045682430267333984, -0.3242228925228119, 0.13189701735973358, 0.5529115200042725, 0.4906807541847229, 0.07198040187358856, -0.05621720477938652, 0.12328656017780304, -0.18737179040908813, 0.6200197339057922, -0.1399003565311432, 1.3550599813461304, -0.24154280126094818, 0.1582452952861786, 0.2775520980358124, -0.745535135269165, 0.036174338310956955, -0.10119973868131638, 0.4301968216896057, 0.4974991977214813, 0.4027457535266876, 0.10872943699359894, 0.04466083645820618, -0.3571421205997467, -0.2112192064523697, 0.06250810623168945, 0.5466751456260681, 0.14064136147499084, 0.3875400125980377, 0.1887539029121399, -0.25306421518325806, 0.41154730319976807, 0.015654632821679115, 0.20241422951221466, -0.40194380283355713, -0.033631253987550735, -0.1773657202720642, -0.5601765513420105, -0.24023599922657013], [-0.05035620927810669, -0.21128535270690918, -0.12325829267501831, -0.6091461777687073, 0.0412706695497036, 0.2514726221561432, -0.2043563723564148, 0.23481965065002441, 0.447575181722641, 0.9489719867706299, 0.08937546610832214, 1.1679941415786743, 0.4544844925403595, 0.3788920044898987, -0.44936978816986084, 0.07581169158220291, -0.3316415548324585, -0.1478993147611618, -0.6914868950843811, 0.18677225708961487, 0.43006813526153564, -0.19031980633735657, 0.06675964593887329, -0.0319405235350132, 0.03029024787247181, 0.17153777182102203, -0.12706512212753296, -0.10413646697998047, 0.39498433470726013, -0.32990574836730957, -0.2581110894680023, -0.24194389581680298, -0.29552745819091797, -0.5068320631980896, -0.02340434119105339, 0.6333663463592529, -0.10977808386087418, -0.29706642031669617, -0.1714584231376648, 0.42033323645591736, -0.20075280964374542, 0.2406461387872696, -0.8961908221244812, -0.15088045597076416, 0.2224825918674469, -0.1302628517150879, 0.09453748911619186, 0.5507818460464478], [-0.3478347361087799, 0.1103864312171936, 0.18930833041667938, 0.3708517849445343, -0.2719351351261139, -0.04455319046974182, -0.787058413028717, 0.016993291676044464, -0.10247717052698135, -0.20274415612220764, -0.39613568782806396, -0.46470171213150024, -0.1554819643497467, 0.43856745958328247, 0.06234418600797653, 0.11993184685707092, -0.08045422285795212, -0.6411205530166626, -0.3455992043018341, -0.3042520582675934, -0.10688076168298721, -0.34081655740737915, 0.2889242470264435, -0.3607325255870819, 0.8716063499450684, -0.19524860382080078, 0.3627755343914032, -0.04477880522608757, 0.1741834580898285, 0.05630785971879959, 0.2610820531845093, 0.45782530307769775, -0.1653885841369629, 0.17788542807102203, -0.5912693738937378, 0.17123249173164368, -0.23355473577976227, 0.5903002023696899, 0.6082760095596313, -1.112245798110962, 0.2977186143398285, -0.4865589737892151, 0.3548603653907776, 0.3845936059951782, -0.05750073119997978, 0.11037921160459518, -0.0426601879298687, -0.21774038672447205], [0.06901673972606659, 0.09340386092662811, -0.11598184704780579, -0.2864719331264496, -0.1967061161994934, -0.4843316972255707, 0.9248692393302917, 0.11442014575004578, 0.3431750237941742, 0.12205438315868378, -0.04494139552116394, -0.40066272020339966, 0.12983253598213196, 0.8254165649414062, 0.21881990134716034, 0.4957319498062134, -0.2332293540239334, 0.22796256840229034, 0.20588459074497223, 0.1799410730600357, -0.28618142008781433, 0.5927034020423889, -0.05522892624139786, 0.005333817098289728, 0.5976337194442749, -0.2104410082101822, -0.31180480122566223, -0.056172214448451996, 0.39839062094688416, 0.45355498790740967, 0.6144289374351501, 0.1813150942325592, 0.2969529330730438, -0.45210912823677063, -0.2979970872402191, 0.31705614924430847, -0.8049488067626953, 0.06905940920114517, 0.25929176807403564, -0.25249627232551575, 0.030240803956985474, -0.5566585063934326, 0.4234614074230194, 0.02238818071782589, -0.2658245265483856, 0.2538621425628662, -0.08835706114768982, 0.25782305002212524], [0.19538192451000214, -0.19264763593673706, -0.3406235873699188, 0.5242646336555481, 0.9536817669868469, 0.23053140938282013, 0.7376734614372253, -0.27996283769607544, 0.28000396490097046, 0.1632268875837326, 0.2585452198982239, -0.09845387190580368, 0.40072160959243774, -0.030336637049913406, 0.03461665287613869, 0.6753920912742615, -1.1691749095916748, 0.263620525598526, 0.06243880093097687, 0.388021320104599, 0.01617351360619068, -0.3080955743789673, -0.03268743306398392, 0.19011369347572327, -0.2334369570016861, 0.43516314029693604, -0.22828209400177002, 0.2657126784324646, -0.41194355487823486, 0.26361283659935, 0.4207742512226105, 0.19940263032913208, 0.5219712853431702, -0.5030577778816223, 0.11271980404853821, 0.12642811238765717, -0.061442382633686066, -0.6155327558517456, 0.18265175819396973, -0.45245832204818726, 0.3707432746887207, 0.17551805078983307, -0.0991155207157135, 0.5166215896606445, -0.014827223494648933, -0.3892248272895813, 0.44931650161743164, 0.23443603515625], [0.07550700008869171, 0.32181981205940247, 0.17116758227348328, -0.21410532295703888, -0.9725072979927063, -0.6943762898445129, -0.22350086271762848, 0.6117540001869202, 0.4270760416984558, 0.05620136484503746, -0.7667688131332397, 0.5520117878913879, 0.004662187770009041, 0.3562607765197754, -1.2441188097000122, -0.7017691135406494, -0.7833930253982544, 0.3660927414894104, 0.011135674081742764, 0.11665546149015427, -0.4239005446434021, -0.37004226446151733, -0.05591398850083351, 0.19900430738925934, 0.3016205430030823, 0.22947604954242706, -0.6126509308815002, -0.48483505845069885, -0.0664014220237732, -0.1087791696190834, -0.22587989270687103, -0.5730621814727783, 0.11803433299064636, -0.10377248376607895, -0.32350197434425354, 0.3486379384994507, -0.7924152612686157, -0.15901800990104675, 0.11392232030630112, -0.3944823741912842, -0.2296048253774643, 0.125079944729805, 0.08311180770397186, 0.6185771226882935, -0.7217311263084412, -0.05586820840835571, -0.07158517092466354, 0.41884687542915344], [0.012790362350642681, -0.030226195231080055, -0.12422668188810349, 0.20779068768024445, -0.5236489176750183, -0.6851637959480286, 0.222963348031044, -0.20622597634792328, -0.16436371207237244, -0.21295252442359924, 0.25530052185058594, 0.2095891237258911, -0.4154934883117676, -0.11351560801267624, -0.012587180361151695, 0.7373372316360474, 0.6277722120285034, -0.5035083889961243, 0.0900578573346138, 0.4537609815597534, 0.3756696581840515, -0.24613068997859955, -0.46667733788490295, 0.17522040009498596, 0.47032973170280457, 0.4271412789821625, -0.26354244351387024, -0.10479331761598587, 0.18067079782485962, -0.09232895821332932, 0.43092235922813416, 0.14698874950408936, -0.04684937745332718, 0.08687718957662582, 0.7397564649581909, -0.3350047767162323, 0.5396604537963867, 0.07691280543804169, -0.49586600065231323, -0.07017187774181366, 0.1912391632795334, -0.4337054491043091, 0.2543048560619354, 0.1096506342291832, 0.30865147709846497, 0.2418755143880844, -0.18900448083877563, -0.0612887442111969], [-0.06527774035930634, 0.5873643159866333, -0.22168667614459991, -0.37324875593185425, -0.9387895464897156, 0.14204959571361542, 0.21280287206172943, 0.07664956897497177, 0.043924976140260696, 0.29553109407424927, -0.5731858015060425, -0.08370710909366608, 0.15070626139640808, 0.8481518626213074, -0.909597635269165, 0.555637538433075, -0.5190775394439697, 0.3693523705005646, -1.1071478128433228, 0.32398876547813416, -0.4426901936531067, 0.3979862928390503, -0.45504772663116455, 0.0074598900973796844, 0.6195365190505981, -0.1273851841688156, -1.2080647945404053, -0.011179674416780472, 0.3406684696674347, 0.312833309173584, 0.5359147787094116, 0.002999393967911601, -0.38587209582328796, 0.17889562249183655, -0.4996320605278015, -0.1541852205991745, 0.009498621337115765, 0.5498077869415283, -0.2009590119123459, 0.27137622237205505, 0.6809447407722473, 0.44035109877586365, 0.21421828866004944, -0.3875873386859894, 0.33129647374153137, 0.1931660771369934, -0.3897400498390198, 0.043477654457092285], [-0.6095612049102783, -0.3061249554157257, -0.05682126060128212, -0.5436883568763733, -0.6010048389434814, 0.7323005199432373, 0.21975082159042358, 0.23471812903881073, -0.11742950230836868, 0.17226092517375946, 0.10763020813465118, 0.07554765790700912, 0.45986151695251465, -0.08520947396755219, -0.043080322444438934, -0.37744611501693726, -0.7090157270431519, -0.39553722739219666, 0.20435106754302979, 0.2404269427061081, 0.0711890384554863, 0.23592141270637512, 0.13686351478099823, -0.32271233201026917, -0.26119792461395264, -0.8392891883850098, 0.00476455595344305, -0.1112779825925827, -0.07887521386146545, -0.3260321319103241, -0.44608938694000244, -0.1732582449913025, 0.40344512462615967, 0.3617551624774933, -0.04266953840851784, -0.2447286695241928, -0.41927918791770935, 0.05603230372071266, 0.36570388078689575, 0.317401260137558, 0.7505976557731628, 0.21790620684623718, -0.6577326655387878, 0.2841808795928955, -0.3235292136669159, 0.8614526391029358, 0.4959675669670105, 0.4246518313884735], [-0.040620774030685425, -0.15046633780002594, -0.3876878023147583, -0.18304459750652313, -0.6229087114334106, -0.5091719031333923, 0.025384895503520966, 0.06807315349578857, -0.4066079556941986, -1.0558323860168457, 0.10105159878730774, -0.4460843801498413, 0.28479766845703125, -0.6562023758888245, 0.5192387700080872, -0.031420350074768066, 0.3383145332336426, 0.15599967539310455, 0.8735681772232056, -0.028975166380405426, 0.290614515542984, 0.3024568557739258, 0.5754219889640808, -0.40814128518104553, 0.4216882586479187, -0.3910098075866699, -0.07859086245298386, -0.1172136589884758, 0.3745351731777191, 0.031614772975444794, 0.06953253597021103, -0.15815448760986328, 0.21437968313694, 0.12023233622312546, 0.612568199634552, 0.2684752941131592, -0.3296356797218323, 0.4066356122493744, -0.3735125660896301, -0.35438522696495056, 0.4986981451511383, -0.41615933179855347, -0.22127006947994232, 0.15327922999858856, -0.6795859932899475, -0.27637889981269836, -0.5780218243598938, -0.6432051658630371], [0.18579012155532837, -0.6141661405563354, 0.15868622064590454, 0.30394217371940613, -0.18041066825389862, -0.1663319319486618, -0.1613856554031372, 0.9143930673599243, -0.15453211963176727, -0.11247467994689941, 0.43915989995002747, -0.02277158387005329, 0.1029997169971466, -0.7278058528900146, -0.14378897845745087, 0.013222293928265572, 0.1304638683795929, -0.21164342761039734, 0.2993922829627991, -0.5459087491035461, 0.04732847213745117, -0.09217100590467453, -0.3354851007461548, -0.31576380133628845, 0.06878369301557541, -0.11051991581916809, -0.5258896350860596, -0.007849511690437794, -0.7663141489028931, -0.1309058517217636, 0.17311780154705048, -0.14301639795303345, -0.34277671575546265, 0.1738261878490448, 0.1539638489484787, 0.1530861109495163, 0.09004305303096771, -0.6931604146957397, 0.3921104073524475, -0.5076289176940918, -0.16891412436962128, 0.6474270224571228, 0.035175077617168427, 0.7733829021453857, 1.2037855386734009, 0.43385621905326843, 0.19157974421977997, -0.23879748582839966], [0.7039546370506287, -0.0971270427107811, -0.0153553057461977, 0.24245479702949524, 0.7133185863494873, -0.28530213236808777, 0.38446202874183655, -0.39190933108329773, 0.2884511649608612, 0.20423446595668793, -0.18965649604797363, -0.11253106594085693, -0.5999189019203186, -0.4230741560459137, 0.6884961724281311, -0.12650741636753082, -0.6476287245750427, -0.0010326592018827796, 0.1115291491150856, 0.16255752742290497, -0.7784432172775269, -0.27182668447494507, -0.03318203613162041, -0.33234626054763794, -0.13543683290481567, -0.1311042755842209, -0.8032306432723999, 0.031263791024684906, 0.026145944371819496, -0.09612851589918137, -0.0848594605922699, -0.09417567402124405, -0.3150116503238678, 0.382537305355072, 0.2725556492805481, 0.0785764530301094, -0.27991366386413574, 0.03002258762717247, -0.13717041909694672, 0.6068692207336426, 0.6299536824226379, 0.20726285874843597, -0.25938668847084045, -0.16274987161159515, -0.17420826852321625, 1.2915773391723633, 1.01704740524292, 0.020598256960511208], [-0.23605605959892273, -0.42723211646080017, -0.4347721040248871, -0.026356978341937065, 0.8339619636535645, 0.46858468651771545, -0.9041719436645508, 0.3059752285480499, 0.05056731030344963, 0.3430241346359253, 0.4504360854625702, 0.301663875579834, -0.22353295981884003, -0.8481332063674927, 0.12575984001159668, 0.5690781474113464, 0.0016173998592421412, 0.08934152126312256, -0.4912252426147461, -0.16282902657985687, 0.2960242033004761, -0.020068414509296417, 0.9472883939743042, -0.13680113852024078, -0.9031898379325867, -0.2763340175151825, 0.4067578911781311, 0.09411583840847015, 0.3045234978199005, 0.037944238632917404, 0.3517983555793762, 0.03465695679187775, -0.5158703327178955, 0.4840845763683319, 0.16260124742984772, 0.014011296443641186, 0.07018908858299255, -0.35191869735717773, -0.07445421814918518, -0.27177953720092773, -0.5572839379310608, -0.9401589632034302, -0.17193013429641724, -0.13805805146694183, 0.035319678485393524, 0.21989689767360687, -0.4603576064109802, -0.0733923614025116], [-0.18956761062145233, 0.23564587533473969, 0.5443510413169861, 0.413742333650589, -0.9983513355255127, 0.04101298004388809, -0.5069266557693481, 0.10320674628019333, -0.25519487261772156, -0.23380088806152344, -0.09467164427042007, -0.094013512134552, 0.5176644921302795, 0.1975109726190567, 0.9134413003921509, 0.1378343552350998, 0.19762377440929413, 0.015352455899119377, 0.7526780962944031, -0.2163141965866089, 0.1657659262418747, 0.39720579981803894, -0.2342420369386673, -0.014871004037559032, 0.3420945107936859, -0.1143965870141983, -0.958636999130249, 0.0902729406952858, -1.473928689956665, -0.36609238386154175, -0.21817879378795624, 0.06297198683023453, -0.2776338458061218, -0.2786007225513458, 0.22695863246917725, -0.547882080078125, -0.16914868354797363, 0.5137990713119507, 0.1503206342458725, -0.2020956575870514, -0.012545979581773281, -0.5044386982917786, -0.7536464929580688, 0.08631200343370438, 0.031191619113087654, -0.3317073881626129, -0.4051262140274048, 0.6293842792510986], [-0.4039436876773834, -0.14774030447006226, -0.23283731937408447, -0.6819390654563904, 0.668480634689331, -0.9923632144927979, 0.3348765969276428, -0.28810861706733704, -0.0445161871612072, 0.1904476135969162, 0.08666804432868958, -0.824367880821228, 0.6791810393333435, 0.20445096492767334, 0.7616813778877258, -0.0010430588154122233, -0.006974006537348032, 0.751618504524231, 0.478995144367218, 0.3722485303878784, -0.4803448021411896, -0.3718408942222595, -0.04511984810233116, 0.13268886506557465, -0.36490771174430847, 0.10416699945926666, 0.5576368570327759, -0.30136942863464355, 0.22570063173770905, 0.025073347613215446, -0.38673120737075806, 0.19250066578388214, -0.060980889946222305, 0.6384846568107605, 0.15168020129203796, 0.7965552806854248, 0.03927753120660782, 0.05352874472737312, -0.06192498654127121, 0.4441802501678467, -0.6131890416145325, -0.1519583910703659, 0.011750247329473495, -0.2887735962867737, -0.17483626306056976, 0.08639681339263916, 0.2174355834722519, 0.46085798740386963], [0.7131415009498596, 0.05395809933543205, 0.4626465141773224, -0.133146271109581, -0.9182096123695374, -0.19531625509262085, -0.7135926485061646, 0.23300676047801971, -0.03964561969041824, -0.20853964984416962, -0.4364912211894989, -0.0875944197177887, 0.23305366933345795, 0.3116435408592224, 0.729449450969696, 0.42666521668434143, 0.26272282004356384, 0.5682511925697327, -0.5256879925727844, 0.19116227328777313, -0.11119864135980606, 0.4609990119934082, 0.27935683727264404, -0.4054047763347626, -0.4902316629886627, -0.008478330448269844, -0.17633967101573944, 0.10413851588964462, 0.3207341134548187, -0.24384617805480957, 0.8529496788978577, -0.057534389197826385, 0.28031307458877563, 0.5554653406143188, -0.6611456274986267, -0.16122086346149445, 0.27463433146476746, -0.17920862138271332, -0.6555268168449402, 0.12382468581199646, 0.13654379546642303, 0.11487267166376114, -0.49033796787261963, 0.4127436578273773, -0.28406593203544617, -0.5407395362854004, -0.33098241686820984, 0.28183019161224365], [-0.10041751712560654, -0.02640398219227791, 0.5882126688957214, 0.18824391067028046, -0.4146174192428589, -0.41205450892448425, -0.004162565339356661, -0.6712238192558289, 0.31707563996315, 0.19692133367061615, -0.2429688423871994, 0.07872511446475983, 0.04926399514079094, 0.31629398465156555, -0.04990557208657265, 0.17463351786136627, -0.08530937135219574, -0.08525613695383072, 0.3485741913318634, -0.5826975107192993, -0.9150810241699219, 0.7071775197982788, -0.17704933881759644, -0.33282166719436646, 0.6213317513465881, 0.027439314872026443, 0.0447259396314621, 0.11425589770078659, 0.17649558186531067, 0.20049212872982025, 0.35105738043785095, -0.22112227976322174, 0.3799932301044464, -0.5742977857589722, 0.42994382977485657, -0.27460944652557373, -0.22682298719882965, 0.5952365398406982, -0.3801953196525574, -0.14986875653266907, -0.05077359452843666, 0.5180425643920898, -0.11535508185625076, -0.5095141530036926, -0.1305416375398636, -0.557969868183136, 0.727712094783783, -0.5384473204612732], [-0.4521298408508301, -0.29622721672058105, 0.2990269064903259, -0.14842639863491058, 0.9493375420570374, 1.095665693283081, -0.12753692269325256, -0.3198881447315216, -0.19232258200645447, 0.3391600549221039, -0.6205546259880066, -0.16470235586166382, -0.26209360361099243, -1.1790776252746582, 0.35017460584640503, -0.20313599705696106, -0.16960515081882477, -0.26315009593963623, -1.0290651321411133, -0.22082869708538055, -0.6877933740615845, 0.19542326033115387, -0.5422786474227905, 0.0663711354136467, -0.31638553738594055, -0.029625529423356056, -0.8178952932357788, 0.011867801658809185, 0.19019459187984467, 0.26369625329971313, 0.3066364526748657, -0.6138316988945007, -0.09427172690629959, -0.20262984931468964, 0.26194021105766296, -0.052055519074201584, 0.14351819455623627, 0.07471483200788498, 0.826659619808197, 